digraph Tree {
node [shape=box, style="filled, rounded", color="black", fontname="helvetica"] ;
edge [fontname="helvetica"] ;
0 [label="z297 <= 4669.835\ngini = 0.687\nsamples = 200\nvalue = [124, 91, 95, 14]\nclass = Polystyrene", fillcolor="#fcefe6"] ;
1 [label="Φ46 <= -35.451\ngini = 0.5\nsamples = 94\nvalue = [0, 71, 73, 0]\nclass = Sunscreen", fillcolor="#fafcfe"] ;
0 -> 1 [labeldistance=2.5, labelangle=45, headlabel="True"] ;
2 [label="gini = 0.0\nsamples = 27\nvalue = [0, 41, 0, 0]\nclass = Nitrate", fillcolor="#47e539"] ;
1 -> 2 ;
3 [label="Φ310 <= -6.582\ngini = 0.413\nsamples = 67\nvalue = [0, 30, 73, 0]\nclass = Sunscreen", fillcolor="#8ac5f0"] ;
1 -> 3 ;
4 [label="z384 <= -44.34\ngini = 0.488\nsamples = 49\nvalue = [0, 30, 41, 0]\nclass = Sunscreen", fillcolor="#cae5f8"] ;
3 -> 4 ;
5 [label="z190 <= -43.416\ngini = 0.062\nsamples = 19\nvalue = [0, 1, 30, 0]\nclass = Sunscreen", fillcolor="#40a0e6"] ;
4 -> 5 ;
6 [label="gini = 0.0\nsamples = 1\nvalue = [0, 1, 0, 0]\nclass = Nitrate", fillcolor="#47e539"] ;
5 -> 6 ;
7 [label="gini = 0.0\nsamples = 18\nvalue = [0, 0, 30, 0]\nclass = Sunscreen", fillcolor="#399de5"] ;
5 -> 7 ;
8 [label="Φ226 <= -6.681\ngini = 0.399\nsamples = 30\nvalue = [0, 29, 11, 0]\nclass = Nitrate", fillcolor="#8def84"] ;
4 -> 8 ;
9 [label="z109 <= 5126.761\ngini = 0.251\nsamples = 26\nvalue = [0, 29, 5, 0]\nclass = Nitrate", fillcolor="#67e95b"] ;
8 -> 9 ;
10 [label="gini = 0.0\nsamples = 21\nvalue = [0, 29, 0, 0]\nclass = Nitrate", fillcolor="#47e539"] ;
9 -> 10 ;
11 [label="gini = 0.0\nsamples = 5\nvalue = [0, 0, 5, 0]\nclass = Sunscreen", fillcolor="#399de5"] ;
9 -> 11 ;
12 [label="gini = 0.0\nsamples = 4\nvalue = [0, 0, 6, 0]\nclass = Sunscreen", fillcolor="#399de5"] ;
8 -> 12 ;
13 [label="gini = 0.0\nsamples = 18\nvalue = [0, 0, 32, 0]\nclass = Sunscreen", fillcolor="#399de5"] ;
3 -> 13 ;
14 [label="z276 <= -42.088\ngini = 0.492\nsamples = 106\nvalue = [124, 20, 22, 14]\nclass = Polystyrene", fillcolor="#eeae7f"] ;
0 -> 14 [labeldistance=2.5, labelangle=-45, headlabel="False"] ;
15 [label="Φ416 <= -39.172\ngini = 0.287\nsamples = 90\nvalue = [123, 15, 6, 3]\nclass = Polystyrene", fillcolor="#ea985d"] ;
14 -> 15 ;
16 [label="z106 <= -40.883\ngini = 0.601\nsamples = 15\nvalue = [5, 13, 6, 0]\nclass = Nitrate", fillcolor="#b7f5b2"] ;
15 -> 16 ;
17 [label="Φ326 <= -38.723\ngini = 0.526\nsamples = 13\nvalue = [2, 13, 6, 0]\nclass = Nitrate", fillcolor="#a9f3a3"] ;
16 -> 17 ;
18 [label="Φ168 <= -34.723\ngini = 0.571\nsamples = 6\nvalue = [2, 1, 4, 0]\nclass = Sunscreen", fillcolor="#b0d8f5"] ;
17 -> 18 ;
19 [label="z312 <= -58.137\ngini = 0.444\nsamples = 3\nvalue = [2, 1, 0, 0]\nclass = Polystyrene", fillcolor="#f2c09c"] ;
18 -> 19 ;
20 [label="gini = 0.0\nsamples = 1\nvalue = [0, 1, 0, 0]\nclass = Nitrate", fillcolor="#47e539"] ;
19 -> 20 ;
21 [label="gini = 0.0\nsamples = 2\nvalue = [2, 0, 0, 0]\nclass = Polystyrene", fillcolor="#e58139"] ;
19 -> 21 ;
22 [label="gini = 0.0\nsamples = 3\nvalue = [0, 0, 4, 0]\nclass = Sunscreen", fillcolor="#399de5"] ;
18 -> 22 ;
23 [label="Φ252 <= -32.795\ngini = 0.245\nsamples = 7\nvalue = [0, 12, 2, 0]\nclass = Nitrate", fillcolor="#66e95a"] ;
17 -> 23 ;
24 [label="gini = 0.0\nsamples = 6\nvalue = [0, 12, 0, 0]\nclass = Nitrate", fillcolor="#47e539"] ;
23 -> 24 ;
25 [label="gini = 0.0\nsamples = 1\nvalue = [0, 0, 2, 0]\nclass = Sunscreen", fillcolor="#399de5"] ;
23 -> 25 ;
26 [label="gini = 0.0\nsamples = 2\nvalue = [3, 0, 0, 0]\nclass = Polystyrene", fillcolor="#e58139"] ;
16 -> 26 ;
27 [label="z146 <= -44.283\ngini = 0.079\nsamples = 75\nvalue = [118, 2, 0, 3]\nclass = Polystyrene", fillcolor="#e68641"] ;
15 -> 27 ;
28 [label="z242 <= -47.551\ngini = 0.42\nsamples = 6\nvalue = [7, 0, 0, 3]\nclass = Polystyrene", fillcolor="#f0b78e"] ;
27 -> 28 ;
29 [label="gini = 0.0\nsamples = 5\nvalue = [7, 0, 0, 0]\nclass = Polystyrene", fillcolor="#e58139"] ;
28 -> 29 ;
30 [label="gini = 0.0\nsamples = 1\nvalue = [0, 0, 0, 3]\nclass = Plain", fillcolor="#d739e5"] ;
28 -> 30 ;
31 [label="Φ442 <= -39.265\ngini = 0.035\nsamples = 69\nvalue = [111, 2, 0, 0]\nclass = Polystyrene", fillcolor="#e5833d"] ;
27 -> 31 ;
32 [label="z198 <= -42.561\ngini = 0.48\nsamples = 2\nvalue = [3, 2, 0, 0]\nclass = Polystyrene", fillcolor="#f6d5bd"] ;
31 -> 32 ;
33 [label="gini = 0.0\nsamples = 1\nvalue = [3, 0, 0, 0]\nclass = Polystyrene", fillcolor="#e58139"] ;
32 -> 33 ;
34 [label="gini = 0.0\nsamples = 1\nvalue = [0, 2, 0, 0]\nclass = Nitrate", fillcolor="#47e539"] ;
32 -> 34 ;
35 [label="gini = 0.0\nsamples = 67\nvalue = [108, 0, 0, 0]\nclass = Polystyrene", fillcolor="#e58139"] ;
31 -> 35 ;
36 [label="z25 <= 6065.459\ngini = 0.63\nsamples = 16\nvalue = [1, 5, 16, 11]\nclass = Sunscreen", fillcolor="#d2e9f9"] ;
14 -> 36 ;
37 [label="gini = 0.0\nsamples = 4\nvalue = [0, 0, 0, 11]\nclass = Plain", fillcolor="#d739e5"] ;
36 -> 37 ;
38 [label="z391 <= 10960.15\ngini = 0.417\nsamples = 12\nvalue = [1, 5, 16, 0]\nclass = Sunscreen", fillcolor="#7fc0ee"] ;
36 -> 38 ;
39 [label="z475 <= 10537.424\ngini = 0.124\nsamples = 7\nvalue = [0, 1, 14, 0]\nclass = Sunscreen", fillcolor="#47a4e7"] ;
38 -> 39 ;
40 [label="gini = 0.0\nsamples = 5\nvalue = [0, 0, 11, 0]\nclass = Sunscreen", fillcolor="#399de5"] ;
39 -> 40 ;
41 [label="z184 <= -34.999\ngini = 0.375\nsamples = 2\nvalue = [0, 1, 3, 0]\nclass = Sunscreen", fillcolor="#7bbeee"] ;
39 -> 41 ;
42 [label="gini = 0.0\nsamples = 1\nvalue = [0, 0, 3, 0]\nclass = Sunscreen", fillcolor="#399de5"] ;
41 -> 42 ;
43 [label="gini = 0.0\nsamples = 1\nvalue = [0, 1, 0, 0]\nclass = Nitrate", fillcolor="#47e539"] ;
41 -> 43 ;
44 [label="z378 <= -41.216\ngini = 0.571\nsamples = 5\nvalue = [1, 4, 2, 0]\nclass = Nitrate", fillcolor="#b5f5b0"] ;
38 -> 44 ;
45 [label="z96 <= -34.51\ngini = 0.444\nsamples = 2\nvalue = [1, 0, 2, 0]\nclass = Sunscreen", fillcolor="#9ccef2"] ;
44 -> 45 ;
46 [label="gini = 0.0\nsamples = 1\nvalue = [1, 0, 0, 0]\nclass = Polystyrene", fillcolor="#e58139"] ;
45 -> 46 ;
47 [label="gini = 0.0\nsamples = 1\nvalue = [0, 0, 2, 0]\nclass = Sunscreen", fillcolor="#399de5"] ;
45 -> 47 ;
48 [label="gini = 0.0\nsamples = 3\nvalue = [0, 4, 0, 0]\nclass = Nitrate", fillcolor="#47e539"] ;
44 -> 48 ;
}