digraph Tree {
node [shape=box, style="filled, rounded", color="black", fontname="helvetica"] ;
edge [fontname="helvetica"] ;
0 [label="z373 <= 4504.401\ngini = 0.675\nsamples = 209\nvalue = [130, 105, 78, 11]\nclass = Polystyrene", fillcolor="#fcf1e8"] ;
1 [label="Φ160 <= -36.479\ngini = 0.496\nsamples = 96\nvalue = [0, 84, 71, 0]\nclass = Nitrate", fillcolor="#e3fbe0"] ;
0 -> 1 [labeldistance=2.5, labelangle=45, headlabel="True"] ;
2 [label="gini = 0.0\nsamples = 24\nvalue = [0, 46, 0, 0]\nclass = Nitrate", fillcolor="#47e539"] ;
1 -> 2 ;
3 [label="z319 <= 686.921\ngini = 0.454\nsamples = 72\nvalue = [0, 38, 71, 0]\nclass = Sunscreen", fillcolor="#a3d1f3"] ;
1 -> 3 ;
4 [label="gini = 0.0\nsamples = 11\nvalue = [0, 15, 0, 0]\nclass = Nitrate", fillcolor="#47e539"] ;
3 -> 4 ;
5 [label="z178 <= -42.114\ngini = 0.37\nsamples = 61\nvalue = [0, 23, 71, 0]\nclass = Sunscreen", fillcolor="#79bded"] ;
3 -> 5 ;
6 [label="gini = 0.0\nsamples = 21\nvalue = [0, 0, 34, 0]\nclass = Sunscreen", fillcolor="#399de5"] ;
5 -> 6 ;
7 [label="Φ298 <= -6.976\ngini = 0.473\nsamples = 40\nvalue = [0, 23, 37, 0]\nclass = Sunscreen", fillcolor="#b4daf5"] ;
5 -> 7 ;
8 [label="Φ427 <= 5783.103\ngini = 0.252\nsamples = 20\nvalue = [0, 23, 4, 0]\nclass = Nitrate", fillcolor="#67ea5b"] ;
7 -> 8 ;
9 [label="gini = 0.0\nsamples = 17\nvalue = [0, 23, 0, 0]\nclass = Nitrate", fillcolor="#47e539"] ;
8 -> 9 ;
10 [label="gini = 0.0\nsamples = 3\nvalue = [0, 0, 4, 0]\nclass = Sunscreen", fillcolor="#399de5"] ;
8 -> 10 ;
11 [label="gini = 0.0\nsamples = 20\nvalue = [0, 0, 33, 0]\nclass = Sunscreen", fillcolor="#399de5"] ;
7 -> 11 ;
12 [label="z98 <= -49.128\ngini = 0.387\nsamples = 113\nvalue = [130, 21, 7, 11]\nclass = Polystyrene", fillcolor="#eca26d"] ;
0 -> 12 [labeldistance=2.5, labelangle=-45, headlabel="False"] ;
13 [label="z45 <= 19819.454\ngini = 0.544\nsamples = 11\nvalue = [0, 8, 3, 2]\nclass = Nitrate", fillcolor="#a3f29c"] ;
12 -> 13 ;
14 [label="z73 <= 15570.709\ngini = 0.48\nsamples = 4\nvalue = [0, 0, 3, 2]\nclass = Sunscreen", fillcolor="#bddef6"] ;
13 -> 14 ;
15 [label="gini = 0.0\nsamples = 1\nvalue = [0, 0, 0, 2]\nclass = Plain", fillcolor="#d739e5"] ;
14 -> 15 ;
16 [label="gini = 0.0\nsamples = 3\nvalue = [0, 0, 3, 0]\nclass = Sunscreen", fillcolor="#399de5"] ;
14 -> 16 ;
17 [label="gini = 0.0\nsamples = 7\nvalue = [0, 8, 0, 0]\nclass = Nitrate", fillcolor="#47e539"] ;
13 -> 17 ;
18 [label="z404 <= -43.583\ngini = 0.295\nsamples = 102\nvalue = [130, 13, 4, 9]\nclass = Polystyrene", fillcolor="#ea985d"] ;
12 -> 18 ;
19 [label="Φ426 <= -39.134\ngini = 0.162\nsamples = 91\nvalue = [127, 7, 2, 3]\nclass = Polystyrene", fillcolor="#e78c4b"] ;
18 -> 19 ;
20 [label="Φ18 <= -33.972\ngini = 0.492\nsamples = 11\nvalue = [9, 7, 0, 0]\nclass = Polystyrene", fillcolor="#f9e3d3"] ;
19 -> 20 ;
21 [label="gini = 0.0\nsamples = 7\nvalue = [9, 0, 0, 0]\nclass = Polystyrene", fillcolor="#e58139"] ;
20 -> 21 ;
22 [label="gini = 0.0\nsamples = 4\nvalue = [0, 7, 0, 0]\nclass = Nitrate", fillcolor="#47e539"] ;
20 -> 22 ;
23 [label="Φ506 <= -30.685\ngini = 0.079\nsamples = 80\nvalue = [118, 0, 2, 3]\nclass = Polystyrene", fillcolor="#e68641"] ;
19 -> 23 ;
24 [label="z68 <= -177.382\ngini = 0.048\nsamples = 78\nvalue = [118, 0, 0, 3]\nclass = Polystyrene", fillcolor="#e6843e"] ;
23 -> 24 ;
25 [label="z195 <= 14047.199\ngini = 0.48\nsamples = 3\nvalue = [3, 0, 0, 2]\nclass = Polystyrene", fillcolor="#f6d5bd"] ;
24 -> 25 ;
26 [label="gini = 0.0\nsamples = 1\nvalue = [0, 0, 0, 2]\nclass = Plain", fillcolor="#d739e5"] ;
25 -> 26 ;
27 [label="gini = 0.0\nsamples = 2\nvalue = [3, 0, 0, 0]\nclass = Polystyrene", fillcolor="#e58139"] ;
25 -> 27 ;
28 [label="z176 <= -44.843\ngini = 0.017\nsamples = 75\nvalue = [115, 0, 0, 1]\nclass = Polystyrene", fillcolor="#e5823b"] ;
24 -> 28 ;
29 [label="z296 <= -48.604\ngini = 0.111\nsamples = 12\nvalue = [16, 0, 0, 1]\nclass = Polystyrene", fillcolor="#e78945"] ;
28 -> 29 ;
30 [label="gini = 0.0\nsamples = 11\nvalue = [16, 0, 0, 0]\nclass = Polystyrene", fillcolor="#e58139"] ;
29 -> 30 ;
31 [label="gini = 0.0\nsamples = 1\nvalue = [0, 0, 0, 1]\nclass = Plain", fillcolor="#d739e5"] ;
29 -> 31 ;
32 [label="gini = 0.0\nsamples = 63\nvalue = [99, 0, 0, 0]\nclass = Polystyrene", fillcolor="#e58139"] ;
28 -> 32 ;
33 [label="gini = 0.0\nsamples = 2\nvalue = [0, 0, 2, 0]\nclass = Sunscreen", fillcolor="#399de5"] ;
23 -> 33 ;
34 [label="z497 <= 10433.868\ngini = 0.706\nsamples = 11\nvalue = [3, 6, 2, 6]\nclass = Nitrate", fillcolor="#ffffff"] ;
18 -> 34 ;
35 [label="z48 <= -39.925\ngini = 0.595\nsamples = 7\nvalue = [3, 0, 2, 6]\nclass = Plain", fillcolor="#f0b5f5"] ;
34 -> 35 ;
36 [label="Φ283 <= 6593.427\ngini = 0.245\nsamples = 4\nvalue = [0, 0, 1, 6]\nclass = Plain", fillcolor="#de5ae9"] ;
35 -> 36 ;
37 [label="gini = 0.0\nsamples = 1\nvalue = [0, 0, 1, 0]\nclass = Sunscreen", fillcolor="#399de5"] ;
36 -> 37 ;
38 [label="gini = 0.0\nsamples = 3\nvalue = [0, 0, 0, 6]\nclass = Plain", fillcolor="#d739e5"] ;
36 -> 38 ;
39 [label="Φ403 <= 9815.342\ngini = 0.375\nsamples = 3\nvalue = [3, 0, 1, 0]\nclass = Polystyrene", fillcolor="#eeab7b"] ;
35 -> 39 ;
40 [label="gini = 0.0\nsamples = 2\nvalue = [3, 0, 0, 0]\nclass = Polystyrene", fillcolor="#e58139"] ;
39 -> 40 ;
41 [label="gini = 0.0\nsamples = 1\nvalue = [0, 0, 1, 0]\nclass = Sunscreen", fillcolor="#399de5"] ;
39 -> 41 ;
42 [label="gini = 0.0\nsamples = 4\nvalue = [0, 6, 0, 0]\nclass = Nitrate", fillcolor="#47e539"] ;
34 -> 42 ;
}