digraph Tree {
node [shape=box, style="filled, rounded", color="black", fontname="helvetica"] ;
edge [fontname="helvetica"] ;
0 [label="z311 <= 4653.535\ngini = 0.668\nsamples = 197\nvalue = [135, 88, 94, 7]\nclass = Polystyrene", fillcolor="#fae9dc"] ;
1 [label="Φ48 <= -34.878\ngini = 0.507\nsamples = 93\nvalue = [1, 71, 74, 0]\nclass = Sunscreen", fillcolor="#f7fbfe"] ;
0 -> 1 [labeldistance=2.5, labelangle=45, headlabel="True"] ;
2 [label="Φ26 <= -34.853\ngini = 0.043\nsamples = 30\nvalue = [0, 45, 1, 0]\nclass = Nitrate", fillcolor="#4be63d"] ;
1 -> 2 ;
3 [label="gini = 0.0\nsamples = 29\nvalue = [0, 45, 0, 0]\nclass = Nitrate", fillcolor="#47e539"] ;
2 -> 3 ;
4 [label="gini = 0.0\nsamples = 1\nvalue = [0, 0, 1, 0]\nclass = Sunscreen", fillcolor="#399de5"] ;
2 -> 4 ;
5 [label="z177 <= 693.024\ngini = 0.399\nsamples = 63\nvalue = [1, 26, 73, 0]\nclass = Sunscreen", fillcolor="#81c1ee"] ;
1 -> 5 ;
6 [label="gini = 0.0\nsamples = 7\nvalue = [0, 8, 0, 0]\nclass = Nitrate", fillcolor="#47e539"] ;
5 -> 6 ;
7 [label="Φ202 <= -6.73\ngini = 0.332\nsamples = 56\nvalue = [1, 18, 73, 0]\nclass = Sunscreen", fillcolor="#6cb6ec"] ;
5 -> 7 ;
8 [label="z219 <= 4655.749\ngini = 0.477\nsamples = 33\nvalue = [1, 18, 33, 0]\nclass = Sunscreen", fillcolor="#a8d4f4"] ;
7 -> 8 ;
9 [label="gini = 0.0\nsamples = 11\nvalue = [0, 14, 0, 0]\nclass = Nitrate", fillcolor="#47e539"] ;
8 -> 9 ;
10 [label="Φ128 <= -34.991\ngini = 0.234\nsamples = 22\nvalue = [1, 4, 33, 0]\nclass = Sunscreen", fillcolor="#56abe9"] ;
8 -> 10 ;
11 [label="z455 <= 4340.505\ngini = 0.057\nsamples = 20\nvalue = [1, 0, 33, 0]\nclass = Sunscreen", fillcolor="#3fa0e6"] ;
10 -> 11 ;
12 [label="gini = 0.0\nsamples = 19\nvalue = [0, 0, 33, 0]\nclass = Sunscreen", fillcolor="#399de5"] ;
11 -> 12 ;
13 [label="gini = 0.0\nsamples = 1\nvalue = [1, 0, 0, 0]\nclass = Polystyrene", fillcolor="#e58139"] ;
11 -> 13 ;
14 [label="gini = 0.0\nsamples = 2\nvalue = [0, 4, 0, 0]\nclass = Nitrate", fillcolor="#47e539"] ;
10 -> 14 ;
15 [label="gini = 0.0\nsamples = 23\nvalue = [0, 0, 40, 0]\nclass = Sunscreen", fillcolor="#399de5"] ;
7 -> 15 ;
16 [label="Φ281 <= 21277.39\ngini = 0.41\nsamples = 104\nvalue = [134, 17, 20, 7]\nclass = Polystyrene", fillcolor="#eca470"] ;
0 -> 16 [labeldistance=2.5, labelangle=-45, headlabel="False"] ;
17 [label="z312 <= -41.617\ngini = 0.281\nsamples = 95\nvalue = [134, 8, 10, 7]\nclass = Polystyrene", fillcolor="#e9965a"] ;
16 -> 17 ;
18 [label="z82 <= -41.76\ngini = 0.131\nsamples = 85\nvalue = [134, 3, 0, 7]\nclass = Polystyrene", fillcolor="#e78a47"] ;
17 -> 18 ;
19 [label="Φ188 <= -21.114\ngini = 0.388\nsamples = 10\nvalue = [14, 0, 0, 5]\nclass = Polystyrene", fillcolor="#eeae80"] ;
18 -> 19 ;
20 [label="gini = 0.0\nsamples = 6\nvalue = [13, 0, 0, 0]\nclass = Polystyrene", fillcolor="#e58139"] ;
19 -> 20 ;
21 [label="Φ503 <= 16272.445\ngini = 0.278\nsamples = 4\nvalue = [1, 0, 0, 5]\nclass = Plain", fillcolor="#df61ea"] ;
19 -> 21 ;
22 [label="gini = 0.0\nsamples = 3\nvalue = [0, 0, 0, 5]\nclass = Plain", fillcolor="#d739e5"] ;
21 -> 22 ;
23 [label="gini = 0.0\nsamples = 1\nvalue = [1, 0, 0, 0]\nclass = Polystyrene", fillcolor="#e58139"] ;
21 -> 23 ;
24 [label="z380 <= -43.236\ngini = 0.078\nsamples = 75\nvalue = [120, 3, 0, 2]\nclass = Polystyrene", fillcolor="#e68641"] ;
18 -> 24 ;
25 [label="Φ508 <= -40.624\ngini = 0.048\nsamples = 72\nvalue = [118, 3, 0, 0]\nclass = Polystyrene", fillcolor="#e6843e"] ;
24 -> 25 ;
26 [label="gini = 0.0\nsamples = 1\nvalue = [0, 1, 0, 0]\nclass = Nitrate", fillcolor="#47e539"] ;
25 -> 26 ;
27 [label="Φ420 <= -39.307\ngini = 0.033\nsamples = 71\nvalue = [118, 2, 0, 0]\nclass = Polystyrene", fillcolor="#e5833c"] ;
25 -> 27 ;
28 [label="Φ333 <= 11679.76\ngini = 0.346\nsamples = 6\nvalue = [7, 2, 0, 0]\nclass = Polystyrene", fillcolor="#eca572"] ;
27 -> 28 ;
29 [label="gini = 0.0\nsamples = 2\nvalue = [0, 2, 0, 0]\nclass = Nitrate", fillcolor="#47e539"] ;
28 -> 29 ;
30 [label="gini = 0.0\nsamples = 4\nvalue = [7, 0, 0, 0]\nclass = Polystyrene", fillcolor="#e58139"] ;
28 -> 30 ;
31 [label="gini = 0.0\nsamples = 65\nvalue = [111, 0, 0, 0]\nclass = Polystyrene", fillcolor="#e58139"] ;
27 -> 31 ;
32 [label="z316 <= -42.156\ngini = 0.5\nsamples = 3\nvalue = [2, 0, 0, 2]\nclass = Polystyrene", fillcolor="#ffffff"] ;
24 -> 32 ;
33 [label="gini = 0.0\nsamples = 2\nvalue = [0, 0, 0, 2]\nclass = Plain", fillcolor="#d739e5"] ;
32 -> 33 ;
34 [label="gini = 0.0\nsamples = 1\nvalue = [2, 0, 0, 0]\nclass = Polystyrene", fillcolor="#e58139"] ;
32 -> 34 ;
35 [label="z455 <= 10556.867\ngini = 0.444\nsamples = 10\nvalue = [0, 5, 10, 0]\nclass = Sunscreen", fillcolor="#9ccef2"] ;
17 -> 35 ;
36 [label="gini = 0.0\nsamples = 5\nvalue = [0, 0, 8, 0]\nclass = Sunscreen", fillcolor="#399de5"] ;
35 -> 36 ;
37 [label="z274 <= -38.323\ngini = 0.408\nsamples = 5\nvalue = [0, 5, 2, 0]\nclass = Nitrate", fillcolor="#91ef88"] ;
35 -> 37 ;
38 [label="gini = 0.0\nsamples = 2\nvalue = [0, 0, 2, 0]\nclass = Sunscreen", fillcolor="#399de5"] ;
37 -> 38 ;
39 [label="gini = 0.0\nsamples = 3\nvalue = [0, 5, 0, 0]\nclass = Nitrate", fillcolor="#47e539"] ;
37 -> 39 ;
40 [label="z299 <= 15839.687\ngini = 0.499\nsamples = 9\nvalue = [0, 9, 10, 0]\nclass = Sunscreen", fillcolor="#ebf5fc"] ;
16 -> 40 ;
41 [label="gini = 0.0\nsamples = 5\nvalue = [0, 0, 10, 0]\nclass = Sunscreen", fillcolor="#399de5"] ;
40 -> 41 ;
42 [label="gini = 0.0\nsamples = 4\nvalue = [0, 9, 0, 0]\nclass = Nitrate", fillcolor="#47e539"] ;
40 -> 42 ;
}