digraph Tree {
node [shape=box, style="filled, rounded", color="black", fontname="helvetica"] ;
edge [fontname="helvetica"] ;
0 [label="z419 <= 4419.691\ngini = 0.67\nsamples = 196\nvalue = [125, 100, 95, 4]\nclass = Polystyrene", fillcolor="#fcf1e9"] ;
1 [label="Φ100 <= -9.924\ngini = 0.506\nsamples = 91\nvalue = [1, 81, 79, 0]\nclass = Nitrate", fillcolor="#fbfefa"] ;
0 -> 1 [labeldistance=2.5, labelangle=45, headlabel="True"] ;
2 [label="z279 <= 4501.132\ngini = 0.423\nsamples = 64\nvalue = [1, 78, 32, 0]\nclass = Nitrate", fillcolor="#94f08c"] ;
1 -> 2 ;
3 [label="gini = 0.0\nsamples = 37\nvalue = [0, 69, 0, 0]\nclass = Nitrate", fillcolor="#47e539"] ;
2 -> 3 ;
4 [label="Φ120 <= -35.0\ngini = 0.373\nsamples = 27\nvalue = [1, 9, 32, 0]\nclass = Sunscreen", fillcolor="#75bbed"] ;
2 -> 4 ;
5 [label="Φ56 <= -35.55\ngini = 0.16\nsamples = 23\nvalue = [1, 2, 32, 0]\nclass = Sunscreen", fillcolor="#4ba6e7"] ;
4 -> 5 ;
6 [label="gini = 0.0\nsamples = 2\nvalue = [0, 2, 0, 0]\nclass = Nitrate", fillcolor="#47e539"] ;
5 -> 6 ;
7 [label="z439 <= 4383.442\ngini = 0.059\nsamples = 21\nvalue = [1, 0, 32, 0]\nclass = Sunscreen", fillcolor="#3fa0e6"] ;
5 -> 7 ;
8 [label="gini = 0.0\nsamples = 20\nvalue = [0, 0, 32, 0]\nclass = Sunscreen", fillcolor="#399de5"] ;
7 -> 8 ;
9 [label="gini = 0.0\nsamples = 1\nvalue = [1, 0, 0, 0]\nclass = Polystyrene", fillcolor="#e58139"] ;
7 -> 9 ;
10 [label="gini = 0.0\nsamples = 4\nvalue = [0, 7, 0, 0]\nclass = Nitrate", fillcolor="#47e539"] ;
4 -> 10 ;
11 [label="Φ458 <= -8.542\ngini = 0.113\nsamples = 27\nvalue = [0, 3, 47, 0]\nclass = Sunscreen", fillcolor="#46a3e7"] ;
1 -> 11 ;
12 [label="gini = 0.0\nsamples = 2\nvalue = [0, 3, 0, 0]\nclass = Nitrate", fillcolor="#47e539"] ;
11 -> 12 ;
13 [label="gini = 0.0\nsamples = 25\nvalue = [0, 0, 47, 0]\nclass = Sunscreen", fillcolor="#399de5"] ;
11 -> 13 ;
14 [label="z302 <= -41.348\ngini = 0.397\nsamples = 105\nvalue = [124, 19, 16, 4]\nclass = Polystyrene", fillcolor="#eca36f"] ;
0 -> 14 [labeldistance=2.5, labelangle=-45, headlabel="False"] ;
15 [label="z158 <= -49.662\ngini = 0.251\nsamples = 94\nvalue = [124, 11, 5, 4]\nclass = Polystyrene", fillcolor="#e99457"] ;
14 -> 15 ;
16 [label="z327 <= 15447.905\ngini = 0.486\nsamples = 10\nvalue = [0, 7, 5, 0]\nclass = Nitrate", fillcolor="#caf8c6"] ;
15 -> 16 ;
17 [label="gini = 0.0\nsamples = 4\nvalue = [0, 0, 5, 0]\nclass = Sunscreen", fillcolor="#399de5"] ;
16 -> 17 ;
18 [label="gini = 0.0\nsamples = 6\nvalue = [0, 7, 0, 0]\nclass = Nitrate", fillcolor="#47e539"] ;
16 -> 18 ;
19 [label="z366 <= -43.174\ngini = 0.116\nsamples = 84\nvalue = [124, 4, 0, 4]\nclass = Polystyrene", fillcolor="#e78945"] ;
15 -> 19 ;
20 [label="Φ410 <= -38.813\ngini = 0.09\nsamples = 81\nvalue = [123, 4, 0, 2]\nclass = Polystyrene", fillcolor="#e68743"] ;
19 -> 20 ;
21 [label="z353 <= 4623.97\ngini = 0.408\nsamples = 11\nvalue = [10, 4, 0, 0]\nclass = Polystyrene", fillcolor="#efb388"] ;
20 -> 21 ;
22 [label="gini = 0.0\nsamples = 3\nvalue = [0, 4, 0, 0]\nclass = Nitrate", fillcolor="#47e539"] ;
21 -> 22 ;
23 [label="gini = 0.0\nsamples = 8\nvalue = [10, 0, 0, 0]\nclass = Polystyrene", fillcolor="#e58139"] ;
21 -> 23 ;
24 [label="z244 <= -47.064\ngini = 0.034\nsamples = 70\nvalue = [113, 0, 0, 2]\nclass = Polystyrene", fillcolor="#e5833d"] ;
20 -> 24 ;
25 [label="Φ343 <= 17254.537\ngini = 0.18\nsamples = 11\nvalue = [18, 0, 0, 2]\nclass = Polystyrene", fillcolor="#e88f4f"] ;
24 -> 25 ;
26 [label="gini = 0.0\nsamples = 2\nvalue = [0, 0, 0, 2]\nclass = Plain", fillcolor="#d739e5"] ;
25 -> 26 ;
27 [label="gini = 0.0\nsamples = 9\nvalue = [18, 0, 0, 0]\nclass = Polystyrene", fillcolor="#e58139"] ;
25 -> 27 ;
28 [label="gini = 0.0\nsamples = 59\nvalue = [95, 0, 0, 0]\nclass = Polystyrene", fillcolor="#e58139"] ;
24 -> 28 ;
29 [label="z140 <= -40.54\ngini = 0.444\nsamples = 3\nvalue = [1, 0, 0, 2]\nclass = Plain", fillcolor="#eb9cf2"] ;
19 -> 29 ;
30 [label="gini = 0.0\nsamples = 2\nvalue = [0, 0, 0, 2]\nclass = Plain", fillcolor="#d739e5"] ;
29 -> 30 ;
31 [label="gini = 0.0\nsamples = 1\nvalue = [1, 0, 0, 0]\nclass = Polystyrene", fillcolor="#e58139"] ;
29 -> 31 ;
32 [label="z481 <= 10549.592\ngini = 0.488\nsamples = 11\nvalue = [0, 8, 11, 0]\nclass = Sunscreen", fillcolor="#c9e4f8"] ;
14 -> 32 ;
33 [label="gini = 0.0\nsamples = 7\nvalue = [0, 0, 11, 0]\nclass = Sunscreen", fillcolor="#399de5"] ;
32 -> 33 ;
34 [label="gini = 0.0\nsamples = 4\nvalue = [0, 8, 0, 0]\nclass = Nitrate", fillcolor="#47e539"] ;
32 -> 34 ;
}