digraph Tree {
node [shape=box, style="filled, rounded", color="black", fontname="helvetica"] ;
edge [fontname="helvetica"] ;
0 [label="z231 <= 4828.139\ngini = 0.673\nsamples = 205\nvalue = [124, 108, 85, 7]\nclass = Polystyrene", fillcolor="#fdf6f0"] ;
1 [label="Φ272 <= -6.958\ngini = 0.497\nsamples = 96\nvalue = [0, 83, 71, 0]\nclass = Nitrate", fillcolor="#e4fbe2"] ;
0 -> 1 [labeldistance=2.5, labelangle=45, headlabel="True"] ;
2 [label="z385 <= 4289.827\ngini = 0.402\nsamples = 75\nvalue = [0, 83, 32, 0]\nclass = Nitrate", fillcolor="#8eef85"] ;
1 -> 2 ;
3 [label="gini = 0.0\nsamples = 48\nvalue = [0, 72, 0, 0]\nclass = Nitrate", fillcolor="#47e539"] ;
2 -> 3 ;
4 [label="Φ154 <= -36.67\ngini = 0.381\nsamples = 27\nvalue = [0, 11, 32, 0]\nclass = Sunscreen", fillcolor="#7dbfee"] ;
2 -> 4 ;
5 [label="gini = 0.0\nsamples = 4\nvalue = [0, 6, 0, 0]\nclass = Nitrate", fillcolor="#47e539"] ;
4 -> 5 ;
6 [label="Φ112 <= -34.918\ngini = 0.234\nsamples = 23\nvalue = [0, 5, 32, 0]\nclass = Sunscreen", fillcolor="#58ace9"] ;
4 -> 6 ;
7 [label="gini = 0.0\nsamples = 19\nvalue = [0, 0, 32, 0]\nclass = Sunscreen", fillcolor="#399de5"] ;
6 -> 7 ;
8 [label="gini = 0.0\nsamples = 4\nvalue = [0, 5, 0, 0]\nclass = Nitrate", fillcolor="#47e539"] ;
6 -> 8 ;
9 [label="gini = 0.0\nsamples = 21\nvalue = [0, 0, 39, 0]\nclass = Sunscreen", fillcolor="#399de5"] ;
1 -> 9 ;
10 [label="Φ171 <= 22522.078\ngini = 0.438\nsamples = 109\nvalue = [124, 25, 14, 7]\nclass = Polystyrene", fillcolor="#eda978"] ;
0 -> 10 [labeldistance=2.5, labelangle=-45, headlabel="False"] ;
11 [label="z350 <= -43.058\ngini = 0.337\nsamples = 100\nvalue = [124, 16, 7, 7]\nclass = Polystyrene", fillcolor="#eb9c64"] ;
10 -> 11 ;
12 [label="z457 <= 4386.859\ngini = 0.187\nsamples = 88\nvalue = [123, 11, 1, 2]\nclass = Polystyrene", fillcolor="#e88f4f"] ;
11 -> 12 ;
13 [label="Φ12 <= -34.572\ngini = 0.518\nsamples = 15\nvalue = [16, 11, 1, 0]\nclass = Polystyrene", fillcolor="#f7dac5"] ;
12 -> 13 ;
14 [label="gini = 0.0\nsamples = 9\nvalue = [16, 0, 0, 0]\nclass = Polystyrene", fillcolor="#e58139"] ;
13 -> 14 ;
15 [label="Φ104 <= -35.411\ngini = 0.153\nsamples = 6\nvalue = [0, 11, 1, 0]\nclass = Nitrate", fillcolor="#58e74b"] ;
13 -> 15 ;
16 [label="gini = 0.0\nsamples = 1\nvalue = [0, 0, 1, 0]\nclass = Sunscreen", fillcolor="#399de5"] ;
15 -> 16 ;
17 [label="gini = 0.0\nsamples = 5\nvalue = [0, 11, 0, 0]\nclass = Nitrate", fillcolor="#47e539"] ;
15 -> 17 ;
18 [label="z142 <= -44.431\ngini = 0.036\nsamples = 73\nvalue = [107, 0, 0, 2]\nclass = Polystyrene", fillcolor="#e5833d"] ;
12 -> 18 ;
19 [label="Φ438 <= -36.335\ngini = 0.346\nsamples = 5\nvalue = [7, 0, 0, 2]\nclass = Polystyrene", fillcolor="#eca572"] ;
18 -> 19 ;
20 [label="gini = 0.0\nsamples = 4\nvalue = [7, 0, 0, 0]\nclass = Polystyrene", fillcolor="#e58139"] ;
19 -> 20 ;
21 [label="gini = 0.0\nsamples = 1\nvalue = [0, 0, 0, 2]\nclass = Plain", fillcolor="#d739e5"] ;
19 -> 21 ;
22 [label="gini = 0.0\nsamples = 68\nvalue = [100, 0, 0, 0]\nclass = Polystyrene", fillcolor="#e58139"] ;
18 -> 22 ;
23 [label="Φ220 <= -35.887\ngini = 0.699\nsamples = 12\nvalue = [1, 5, 6, 5]\nclass = Sunscreen", fillcolor="#eef7fd"] ;
11 -> 23 ;
24 [label="gini = 0.0\nsamples = 3\nvalue = [0, 0, 0, 5]\nclass = Plain", fillcolor="#d739e5"] ;
23 -> 24 ;
25 [label="Φ11 <= 14802.983\ngini = 0.569\nsamples = 9\nvalue = [1, 5, 6, 0]\nclass = Sunscreen", fillcolor="#e3f1fb"] ;
23 -> 25 ;
26 [label="Φ259 <= 10145.342\ngini = 0.531\nsamples = 6\nvalue = [1, 5, 2, 0]\nclass = Nitrate", fillcolor="#a3f29c"] ;
25 -> 26 ;
27 [label="z478 <= -33.737\ngini = 0.444\nsamples = 2\nvalue = [1, 0, 2, 0]\nclass = Sunscreen", fillcolor="#9ccef2"] ;
26 -> 27 ;
28 [label="gini = 0.0\nsamples = 1\nvalue = [1, 0, 0, 0]\nclass = Polystyrene", fillcolor="#e58139"] ;
27 -> 28 ;
29 [label="gini = 0.0\nsamples = 1\nvalue = [0, 0, 2, 0]\nclass = Sunscreen", fillcolor="#399de5"] ;
27 -> 29 ;
30 [label="gini = 0.0\nsamples = 4\nvalue = [0, 5, 0, 0]\nclass = Nitrate", fillcolor="#47e539"] ;
26 -> 30 ;
31 [label="gini = 0.0\nsamples = 3\nvalue = [0, 0, 4, 0]\nclass = Sunscreen", fillcolor="#399de5"] ;
25 -> 31 ;
32 [label="z469 <= 13956.854\ngini = 0.492\nsamples = 9\nvalue = [0, 9, 7, 0]\nclass = Nitrate", fillcolor="#d6f9d3"] ;
10 -> 32 ;
33 [label="gini = 0.0\nsamples = 3\nvalue = [0, 0, 7, 0]\nclass = Sunscreen", fillcolor="#399de5"] ;
32 -> 33 ;
34 [label="gini = 0.0\nsamples = 6\nvalue = [0, 9, 0, 0]\nclass = Nitrate", fillcolor="#47e539"] ;
32 -> 34 ;
}