digraph Tree {
node [shape=box, style="filled, rounded", color="black", fontname="helvetica"] ;
edge [fontname="helvetica"] ;
0 [label="z203 <= 4896.275\ngini = 0.67\nsamples = 213\nvalue = [128, 98, 93, 5]\nclass = Polystyrene", fillcolor="#fceee5"] ;
1 [label="Φ10 <= -34.482\ngini = 0.498\nsamples = 97\nvalue = [0, 81, 72, 0]\nclass = Nitrate", fillcolor="#ebfce9"] ;
0 -> 1 [labeldistance=2.5, labelangle=45, headlabel="True"] ;
2 [label="gini = 0.0\nsamples = 34\nvalue = [0, 49, 0, 0]\nclass = Nitrate", fillcolor="#47e539"] ;
1 -> 2 ;
3 [label="Φ90 <= -35.52\ngini = 0.426\nsamples = 63\nvalue = [0, 32, 72, 0]\nclass = Sunscreen", fillcolor="#91c9f1"] ;
1 -> 3 ;
4 [label="Φ511 <= 5474.83\ngini = 0.153\nsamples = 7\nvalue = [0, 11, 1, 0]\nclass = Nitrate", fillcolor="#58e74b"] ;
3 -> 4 ;
5 [label="gini = 0.0\nsamples = 6\nvalue = [0, 11, 0, 0]\nclass = Nitrate", fillcolor="#47e539"] ;
4 -> 5 ;
6 [label="gini = 0.0\nsamples = 1\nvalue = [0, 0, 1, 0]\nclass = Sunscreen", fillcolor="#399de5"] ;
4 -> 6 ;
7 [label="Φ363 <= 633.347\ngini = 0.352\nsamples = 56\nvalue = [0, 21, 71, 0]\nclass = Sunscreen", fillcolor="#74baed"] ;
3 -> 7 ;
8 [label="gini = 0.0\nsamples = 4\nvalue = [0, 6, 0, 0]\nclass = Nitrate", fillcolor="#47e539"] ;
7 -> 8 ;
9 [label="Φ200 <= -6.727\ngini = 0.288\nsamples = 52\nvalue = [0, 15, 71, 0]\nclass = Sunscreen", fillcolor="#63b2ea"] ;
7 -> 9 ;
10 [label="Φ30 <= -34.293\ngini = 0.397\nsamples = 29\nvalue = [0, 15, 40, 0]\nclass = Sunscreen", fillcolor="#83c2ef"] ;
9 -> 10 ;
11 [label="z69 <= 4923.729\ngini = 0.048\nsamples = 20\nvalue = [0, 1, 40, 0]\nclass = Sunscreen", fillcolor="#3e9fe6"] ;
10 -> 11 ;
12 [label="gini = 0.0\nsamples = 1\nvalue = [0, 1, 0, 0]\nclass = Nitrate", fillcolor="#47e539"] ;
11 -> 12 ;
13 [label="gini = 0.0\nsamples = 19\nvalue = [0, 0, 40, 0]\nclass = Sunscreen", fillcolor="#399de5"] ;
11 -> 13 ;
14 [label="gini = 0.0\nsamples = 9\nvalue = [0, 14, 0, 0]\nclass = Nitrate", fillcolor="#47e539"] ;
10 -> 14 ;
15 [label="gini = 0.0\nsamples = 23\nvalue = [0, 0, 31, 0]\nclass = Sunscreen", fillcolor="#399de5"] ;
9 -> 15 ;
16 [label="z356 <= -42.966\ngini = 0.414\nsamples = 116\nvalue = [128, 17, 21, 5]\nclass = Polystyrene", fillcolor="#eca572"] ;
0 -> 16 [labeldistance=2.5, labelangle=-45, headlabel="False"] ;
17 [label="Φ452 <= -40.041\ngini = 0.25\nsamples = 102\nvalue = [128, 15, 6, 0]\nclass = Polystyrene", fillcolor="#e99558"] ;
16 -> 17 ;
18 [label="Φ67 <= 28692.202\ngini = 0.499\nsamples = 14\nvalue = [1, 12, 6, 0]\nclass = Nitrate", fillcolor="#aaf3a4"] ;
17 -> 18 ;
19 [label="Φ178 <= -42.942\ngini = 0.245\nsamples = 7\nvalue = [1, 0, 6, 0]\nclass = Sunscreen", fillcolor="#5aade9"] ;
18 -> 19 ;
20 [label="gini = 0.0\nsamples = 1\nvalue = [1, 0, 0, 0]\nclass = Polystyrene", fillcolor="#e58139"] ;
19 -> 20 ;
21 [label="gini = 0.0\nsamples = 6\nvalue = [0, 0, 6, 0]\nclass = Sunscreen", fillcolor="#399de5"] ;
19 -> 21 ;
22 [label="gini = 0.0\nsamples = 7\nvalue = [0, 12, 0, 0]\nclass = Nitrate", fillcolor="#47e539"] ;
18 -> 22 ;
23 [label="Φ298 <= -37.418\ngini = 0.045\nsamples = 88\nvalue = [127, 3, 0, 0]\nclass = Polystyrene", fillcolor="#e6843e"] ;
17 -> 23 ;
24 [label="z319 <= 4698.094\ngini = 0.469\nsamples = 7\nvalue = [5, 3, 0, 0]\nclass = Polystyrene", fillcolor="#f5cdb0"] ;
23 -> 24 ;
25 [label="gini = 0.0\nsamples = 3\nvalue = [0, 3, 0, 0]\nclass = Nitrate", fillcolor="#47e539"] ;
24 -> 25 ;
26 [label="gini = 0.0\nsamples = 4\nvalue = [5, 0, 0, 0]\nclass = Polystyrene", fillcolor="#e58139"] ;
24 -> 26 ;
27 [label="gini = 0.0\nsamples = 81\nvalue = [122, 0, 0, 0]\nclass = Polystyrene", fillcolor="#e58139"] ;
23 -> 27 ;
28 [label="Φ248 <= -36.008\ngini = 0.475\nsamples = 14\nvalue = [0, 2, 15, 5]\nclass = Sunscreen", fillcolor="#8bc5f0"] ;
16 -> 28 ;
29 [label="gini = 0.0\nsamples = 3\nvalue = [0, 0, 0, 5]\nclass = Plain", fillcolor="#d739e5"] ;
28 -> 29 ;
30 [label="z401 <= 11029.601\ngini = 0.208\nsamples = 11\nvalue = [0, 2, 15, 0]\nclass = Sunscreen", fillcolor="#53aae8"] ;
28 -> 30 ;
31 [label="gini = 0.0\nsamples = 9\nvalue = [0, 0, 15, 0]\nclass = Sunscreen", fillcolor="#399de5"] ;
30 -> 31 ;
32 [label="gini = 0.0\nsamples = 2\nvalue = [0, 2, 0, 0]\nclass = Nitrate", fillcolor="#47e539"] ;
30 -> 32 ;
}