digraph Tree {
node [shape=box, style="filled, rounded", color="black", fontname="helvetica"] ;
edge [fontname="helvetica"] ;
0 [label="z449 <= 4349.081\ngini = 0.676\nsamples = 204\nvalue = [126, 107, 81, 10]\nclass = Polystyrene", fillcolor="#fdf4ee"] ;
1 [label="Φ300 <= -7.164\ngini = 0.495\nsamples = 97\nvalue = [0, 87, 71, 0]\nclass = Nitrate", fillcolor="#ddfadb"] ;
0 -> 1 [labeldistance=2.5, labelangle=45, headlabel="True"] ;
2 [label="z251 <= 4572.655\ngini = 0.414\nsamples = 75\nvalue = [0, 87, 36, 0]\nclass = Nitrate", fillcolor="#93f08b"] ;
1 -> 2 ;
3 [label="gini = 0.0\nsamples = 44\nvalue = [0, 71, 0, 0]\nclass = Nitrate", fillcolor="#47e539"] ;
2 -> 3 ;
4 [label="Φ24 <= -33.706\ngini = 0.426\nsamples = 31\nvalue = [0, 16, 36, 0]\nclass = Sunscreen", fillcolor="#91c9f1"] ;
2 -> 4 ;
5 [label="Φ300 <= -38.758\ngini = 0.273\nsamples = 26\nvalue = [0, 7, 36, 0]\nclass = Sunscreen", fillcolor="#5fb0ea"] ;
4 -> 5 ;
6 [label="gini = 0.0\nsamples = 4\nvalue = [0, 7, 0, 0]\nclass = Nitrate", fillcolor="#47e539"] ;
5 -> 6 ;
7 [label="gini = 0.0\nsamples = 22\nvalue = [0, 0, 36, 0]\nclass = Sunscreen", fillcolor="#399de5"] ;
5 -> 7 ;
8 [label="gini = 0.0\nsamples = 5\nvalue = [0, 9, 0, 0]\nclass = Nitrate", fillcolor="#47e539"] ;
4 -> 8 ;
9 [label="gini = 0.0\nsamples = 22\nvalue = [0, 0, 35, 0]\nclass = Sunscreen", fillcolor="#399de5"] ;
1 -> 9 ;
10 [label="z48 <= -46.705\ngini = 0.402\nsamples = 107\nvalue = [126, 20, 10, 10]\nclass = Polystyrene", fillcolor="#eca46f"] ;
0 -> 10 [labeldistance=2.5, labelangle=-45, headlabel="False"] ;
11 [label="z191 <= 17203.916\ngini = 0.617\nsamples = 10\nvalue = [0, 8, 5, 3]\nclass = Nitrate", fillcolor="#cdf8c9"] ;
10 -> 11 ;
12 [label="z171 <= 10131.294\ngini = 0.469\nsamples = 4\nvalue = [0, 0, 5, 3]\nclass = Sunscreen", fillcolor="#b0d8f5"] ;
11 -> 12 ;
13 [label="gini = 0.0\nsamples = 1\nvalue = [0, 0, 0, 3]\nclass = Plain", fillcolor="#d739e5"] ;
12 -> 13 ;
14 [label="gini = 0.0\nsamples = 3\nvalue = [0, 0, 5, 0]\nclass = Sunscreen", fillcolor="#399de5"] ;
12 -> 14 ;
15 [label="gini = 0.0\nsamples = 6\nvalue = [0, 8, 0, 0]\nclass = Nitrate", fillcolor="#47e539"] ;
11 -> 15 ;
16 [label="z458 <= -42.261\ngini = 0.285\nsamples = 97\nvalue = [126, 12, 5, 7]\nclass = Polystyrene", fillcolor="#ea975b"] ;
10 -> 16 ;
17 [label="Φ481 <= 5725.052\ngini = 0.174\nsamples = 90\nvalue = [126, 6, 0, 7]\nclass = Polystyrene", fillcolor="#e88d4c"] ;
16 -> 17 ;
18 [label="Φ86 <= -34.733\ngini = 0.485\nsamples = 15\nvalue = [13, 6, 0, 1]\nclass = Polystyrene", fillcolor="#f2c09c"] ;
17 -> 18 ;
19 [label="gini = 0.0\nsamples = 10\nvalue = [13, 0, 0, 0]\nclass = Polystyrene", fillcolor="#e58139"] ;
18 -> 19 ;
20 [label="z154 <= -41.409\ngini = 0.245\nsamples = 5\nvalue = [0, 6, 0, 1]\nclass = Nitrate", fillcolor="#66e95a"] ;
18 -> 20 ;
21 [label="gini = 0.0\nsamples = 4\nvalue = [0, 6, 0, 0]\nclass = Nitrate", fillcolor="#47e539"] ;
20 -> 21 ;
22 [label="gini = 0.0\nsamples = 1\nvalue = [0, 0, 0, 1]\nclass = Plain", fillcolor="#d739e5"] ;
20 -> 22 ;
23 [label="z178 <= -44.591\ngini = 0.096\nsamples = 75\nvalue = [113, 0, 0, 6]\nclass = Polystyrene", fillcolor="#e68844"] ;
17 -> 23 ;
24 [label="z245 <= 13466.409\ngini = 0.305\nsamples = 18\nvalue = [26, 0, 0, 6]\nclass = Polystyrene", fillcolor="#eb9e67"] ;
23 -> 24 ;
25 [label="gini = 0.0\nsamples = 3\nvalue = [0, 0, 0, 6]\nclass = Plain", fillcolor="#d739e5"] ;
24 -> 25 ;
26 [label="gini = 0.0\nsamples = 15\nvalue = [26, 0, 0, 0]\nclass = Polystyrene", fillcolor="#e58139"] ;
24 -> 26 ;
27 [label="gini = 0.0\nsamples = 57\nvalue = [87, 0, 0, 0]\nclass = Polystyrene", fillcolor="#e58139"] ;
23 -> 27 ;
28 [label="Φ401 <= 9864.867\ngini = 0.496\nsamples = 7\nvalue = [0, 6, 5, 0]\nclass = Nitrate", fillcolor="#e0fbde"] ;
16 -> 28 ;
29 [label="gini = 0.0\nsamples = 4\nvalue = [0, 0, 5, 0]\nclass = Sunscreen", fillcolor="#399de5"] ;
28 -> 29 ;
30 [label="gini = 0.0\nsamples = 3\nvalue = [0, 6, 0, 0]\nclass = Nitrate", fillcolor="#47e539"] ;
28 -> 30 ;
}