digraph Tree {
node [shape=box, style="filled, rounded", color="black", fontname="helvetica"] ;
edge [fontname="helvetica"] ;
0 [label="z325 <= 4601.253\ngini = 0.665\nsamples = 206\nvalue = [126, 114, 79, 5]\nclass = Polystyrene", fillcolor="#fef8f4"] ;
1 [label="z343 <= 688.336\ngini = 0.484\nsamples = 93\nvalue = [0, 88, 61, 0]\nclass = Nitrate", fillcolor="#c7f7c2"] ;
0 -> 1 [labeldistance=2.5, labelangle=45, headlabel="True"] ;
2 [label="gini = 0.0\nsamples = 28\nvalue = [0, 51, 0, 0]\nclass = Nitrate", fillcolor="#47e539"] ;
1 -> 2 ;
3 [label="Φ22 <= -35.047\ngini = 0.47\nsamples = 65\nvalue = [0, 37, 61, 0]\nclass = Sunscreen", fillcolor="#b1d8f5"] ;
1 -> 3 ;
4 [label="gini = 0.0\nsamples = 9\nvalue = [0, 17, 0, 0]\nclass = Nitrate", fillcolor="#47e539"] ;
3 -> 4 ;
5 [label="z300 <= -43.683\ngini = 0.372\nsamples = 56\nvalue = [0, 20, 61, 0]\nclass = Sunscreen", fillcolor="#7abdee"] ;
3 -> 5 ;
6 [label="gini = 0.0\nsamples = 22\nvalue = [0, 0, 32, 0]\nclass = Sunscreen", fillcolor="#399de5"] ;
5 -> 6 ;
7 [label="Φ322 <= -6.588\ngini = 0.483\nsamples = 34\nvalue = [0, 20, 29, 0]\nclass = Sunscreen", fillcolor="#c2e1f7"] ;
5 -> 7 ;
8 [label="Φ290 <= -7.018\ngini = 0.384\nsamples = 18\nvalue = [0, 20, 7, 0]\nclass = Nitrate", fillcolor="#87ee7e"] ;
7 -> 8 ;
9 [label="Φ401 <= 5912.224\ngini = 0.227\nsamples = 16\nvalue = [0, 20, 3, 0]\nclass = Nitrate", fillcolor="#63e957"] ;
8 -> 9 ;
10 [label="gini = 0.0\nsamples = 14\nvalue = [0, 20, 0, 0]\nclass = Nitrate", fillcolor="#47e539"] ;
9 -> 10 ;
11 [label="gini = 0.0\nsamples = 2\nvalue = [0, 0, 3, 0]\nclass = Sunscreen", fillcolor="#399de5"] ;
9 -> 11 ;
12 [label="gini = 0.0\nsamples = 2\nvalue = [0, 0, 4, 0]\nclass = Sunscreen", fillcolor="#399de5"] ;
8 -> 12 ;
13 [label="gini = 0.0\nsamples = 16\nvalue = [0, 0, 22, 0]\nclass = Sunscreen", fillcolor="#399de5"] ;
7 -> 13 ;
14 [label="Φ412 <= -38.832\ngini = 0.448\nsamples = 113\nvalue = [126, 26, 18, 5]\nclass = Polystyrene", fillcolor="#eeaa7a"] ;
0 -> 14 [labeldistance=2.5, labelangle=-45, headlabel="False"] ;
15 [label="Φ10 <= -34.333\ngini = 0.606\nsamples = 28\nvalue = [13, 23, 8, 0]\nclass = Nitrate", fillcolor="#c4f7bf"] ;
14 -> 15 ;
16 [label="gini = 0.0\nsamples = 5\nvalue = [9, 0, 0, 0]\nclass = Polystyrene", fillcolor="#e58139"] ;
15 -> 16 ;
17 [label="Φ290 <= -30.295\ngini = 0.503\nsamples = 23\nvalue = [4, 23, 8, 0]\nclass = Nitrate", fillcolor="#99f191"] ;
15 -> 17 ;
18 [label="Φ312 <= -38.382\ngini = 0.383\nsamples = 19\nvalue = [0, 23, 8, 0]\nclass = Nitrate", fillcolor="#87ee7e"] ;
17 -> 18 ;
19 [label="Φ293 <= 28386.619\ngini = 0.48\nsamples = 7\nvalue = [0, 4, 6, 0]\nclass = Sunscreen", fillcolor="#bddef6"] ;
18 -> 19 ;
20 [label="gini = 0.0\nsamples = 4\nvalue = [0, 0, 6, 0]\nclass = Sunscreen", fillcolor="#399de5"] ;
19 -> 20 ;
21 [label="gini = 0.0\nsamples = 3\nvalue = [0, 4, 0, 0]\nclass = Nitrate", fillcolor="#47e539"] ;
19 -> 21 ;
22 [label="z240 <= -57.251\ngini = 0.172\nsamples = 12\nvalue = [0, 19, 2, 0]\nclass = Nitrate", fillcolor="#5ae84e"] ;
18 -> 22 ;
23 [label="gini = 0.0\nsamples = 1\nvalue = [0, 0, 1, 0]\nclass = Sunscreen", fillcolor="#399de5"] ;
22 -> 23 ;
24 [label="Φ210 <= -29.031\ngini = 0.095\nsamples = 11\nvalue = [0, 19, 1, 0]\nclass = Nitrate", fillcolor="#51e643"] ;
22 -> 24 ;
25 [label="gini = 0.0\nsamples = 10\nvalue = [0, 19, 0, 0]\nclass = Nitrate", fillcolor="#47e539"] ;
24 -> 25 ;
26 [label="gini = 0.0\nsamples = 1\nvalue = [0, 0, 1, 0]\nclass = Sunscreen", fillcolor="#399de5"] ;
24 -> 26 ;
27 [label="gini = 0.0\nsamples = 4\nvalue = [4, 0, 0, 0]\nclass = Polystyrene", fillcolor="#e58139"] ;
17 -> 27 ;
28 [label="Φ426 <= -27.463\ngini = 0.248\nsamples = 85\nvalue = [113, 3, 10, 5]\nclass = Polystyrene", fillcolor="#e99456"] ;
14 -> 28 ;
29 [label="z418 <= -43.524\ngini = 0.081\nsamples = 75\nvalue = [113, 0, 0, 5]\nclass = Polystyrene", fillcolor="#e68742"] ;
28 -> 29 ;
30 [label="z82 <= -178.148\ngini = 0.017\nsamples = 72\nvalue = [113, 0, 0, 1]\nclass = Polystyrene", fillcolor="#e5823b"] ;
29 -> 30 ;
31 [label="Φ199 <= 19130.035\ngini = 0.375\nsamples = 3\nvalue = [3, 0, 0, 1]\nclass = Polystyrene", fillcolor="#eeab7b"] ;
30 -> 31 ;
32 [label="gini = 0.0\nsamples = 1\nvalue = [0, 0, 0, 1]\nclass = Plain", fillcolor="#d739e5"] ;
31 -> 32 ;
33 [label="gini = 0.0\nsamples = 2\nvalue = [3, 0, 0, 0]\nclass = Polystyrene", fillcolor="#e58139"] ;
31 -> 33 ;
34 [label="gini = 0.0\nsamples = 69\nvalue = [110, 0, 0, 0]\nclass = Polystyrene", fillcolor="#e58139"] ;
30 -> 34 ;
35 [label="gini = 0.0\nsamples = 3\nvalue = [0, 0, 0, 4]\nclass = Plain", fillcolor="#d739e5"] ;
29 -> 35 ;
36 [label="z499 <= 10405.478\ngini = 0.355\nsamples = 10\nvalue = [0, 3, 10, 0]\nclass = Sunscreen", fillcolor="#74baed"] ;
28 -> 36 ;
37 [label="gini = 0.0\nsamples = 6\nvalue = [0, 0, 9, 0]\nclass = Sunscreen", fillcolor="#399de5"] ;
36 -> 37 ;
38 [label="Φ69 <= 14770.521\ngini = 0.375\nsamples = 4\nvalue = [0, 3, 1, 0]\nclass = Nitrate", fillcolor="#84ee7b"] ;
36 -> 38 ;
39 [label="gini = 0.0\nsamples = 3\nvalue = [0, 3, 0, 0]\nclass = Nitrate", fillcolor="#47e539"] ;
38 -> 39 ;
40 [label="gini = 0.0\nsamples = 1\nvalue = [0, 0, 1, 0]\nclass = Sunscreen", fillcolor="#399de5"] ;
38 -> 40 ;
}