digraph Tree {
node [shape=box, style="filled, rounded", color="black", fontname="helvetica"] ;
edge [fontname="helvetica"] ;
0 [label="z329 <= 4573.656\ngini = 0.685\nsamples = 203\nvalue = [110, 108, 96, 10]\nclass = Polystyrene", fillcolor="#fffefd"] ;
1 [label="Φ22 <= -35.13\ngini = 0.498\nsamples = 94\nvalue = [0, 85, 74, 0]\nclass = Nitrate", fillcolor="#e7fce5"] ;
0 -> 1 [labeldistance=2.5, labelangle=45, headlabel="True"] ;
2 [label="gini = 0.0\nsamples = 33\nvalue = [0, 56, 0, 0]\nclass = Nitrate", fillcolor="#47e539"] ;
1 -> 2 ;
3 [label="Φ200 <= -6.727\ngini = 0.405\nsamples = 61\nvalue = [0, 29, 74, 0]\nclass = Sunscreen", fillcolor="#87c3ef"] ;
1 -> 3 ;
4 [label="Φ38 <= -33.956\ngini = 0.497\nsamples = 39\nvalue = [0, 29, 34, 0]\nclass = Sunscreen", fillcolor="#e2f1fb"] ;
3 -> 4 ;
5 [label="z241 <= 4466.577\ngini = 0.283\nsamples = 24\nvalue = [0, 7, 34, 0]\nclass = Sunscreen", fillcolor="#62b1ea"] ;
4 -> 5 ;
6 [label="gini = 0.0\nsamples = 3\nvalue = [0, 5, 0, 0]\nclass = Nitrate", fillcolor="#47e539"] ;
5 -> 6 ;
7 [label="Φ52 <= -34.847\ngini = 0.105\nsamples = 21\nvalue = [0, 2, 34, 0]\nclass = Sunscreen", fillcolor="#45a3e7"] ;
5 -> 7 ;
8 [label="gini = 0.0\nsamples = 1\nvalue = [0, 2, 0, 0]\nclass = Nitrate", fillcolor="#47e539"] ;
7 -> 8 ;
9 [label="gini = 0.0\nsamples = 20\nvalue = [0, 0, 34, 0]\nclass = Sunscreen", fillcolor="#399de5"] ;
7 -> 9 ;
10 [label="gini = 0.0\nsamples = 15\nvalue = [0, 22, 0, 0]\nclass = Nitrate", fillcolor="#47e539"] ;
4 -> 10 ;
11 [label="gini = 0.0\nsamples = 22\nvalue = [0, 0, 40, 0]\nclass = Sunscreen", fillcolor="#399de5"] ;
3 -> 11 ;
12 [label="z384 <= -55.731\ngini = 0.515\nsamples = 109\nvalue = [110, 23, 22, 10]\nclass = Polystyrene", fillcolor="#efb286"] ;
0 -> 12 [labeldistance=2.5, labelangle=-45, headlabel="False"] ;
13 [label="z49 <= 19672.223\ngini = 0.491\nsamples = 13\nvalue = [0, 13, 10, 0]\nclass = Nitrate", fillcolor="#d5f9d1"] ;
12 -> 13 ;
14 [label="gini = 0.0\nsamples = 6\nvalue = [0, 0, 10, 0]\nclass = Sunscreen", fillcolor="#399de5"] ;
13 -> 14 ;
15 [label="gini = 0.0\nsamples = 7\nvalue = [0, 13, 0, 0]\nclass = Nitrate", fillcolor="#47e539"] ;
13 -> 15 ;
16 [label="z114 <= -34.968\ngini = 0.383\nsamples = 96\nvalue = [110, 10, 12, 10]\nclass = Polystyrene", fillcolor="#eba06a"] ;
12 -> 16 ;
17 [label="z294 <= -42.499\ngini = 0.264\nsamples = 86\nvalue = [110, 7, 2, 10]\nclass = Polystyrene", fillcolor="#e99559"] ;
16 -> 17 ;
18 [label="Φ432 <= -39.083\ngini = 0.203\nsamples = 78\nvalue = [105, 7, 2, 4]\nclass = Polystyrene", fillcolor="#e89050"] ;
17 -> 18 ;
19 [label="z159 <= 5088.147\ngini = 0.475\nsamples = 12\nvalue = [11, 7, 0, 0]\nclass = Polystyrene", fillcolor="#f6d1b7"] ;
18 -> 19 ;
20 [label="gini = 0.0\nsamples = 5\nvalue = [0, 7, 0, 0]\nclass = Nitrate", fillcolor="#47e539"] ;
19 -> 20 ;
21 [label="gini = 0.0\nsamples = 7\nvalue = [11, 0, 0, 0]\nclass = Polystyrene", fillcolor="#e58139"] ;
19 -> 21 ;
22 [label="Φ305 <= 6429.171\ngini = 0.114\nsamples = 66\nvalue = [94, 0, 2, 4]\nclass = Polystyrene", fillcolor="#e78945"] ;
18 -> 22 ;
23 [label="gini = 0.0\nsamples = 1\nvalue = [0, 0, 2, 0]\nclass = Sunscreen", fillcolor="#399de5"] ;
22 -> 23 ;
24 [label="z312 <= -48.624\ngini = 0.078\nsamples = 65\nvalue = [94, 0, 0, 4]\nclass = Polystyrene", fillcolor="#e68641"] ;
22 -> 24 ;
25 [label="Φ439 <= 16522.079\ngini = 0.346\nsamples = 14\nvalue = [14, 0, 0, 4]\nclass = Polystyrene", fillcolor="#eca572"] ;
24 -> 25 ;
26 [label="gini = 0.0\nsamples = 4\nvalue = [0, 0, 0, 4]\nclass = Plain", fillcolor="#d739e5"] ;
25 -> 26 ;
27 [label="gini = 0.0\nsamples = 10\nvalue = [14, 0, 0, 0]\nclass = Polystyrene", fillcolor="#e58139"] ;
25 -> 27 ;
28 [label="gini = 0.0\nsamples = 51\nvalue = [80, 0, 0, 0]\nclass = Polystyrene", fillcolor="#e58139"] ;
24 -> 28 ;
29 [label="z405 <= 4615.731\ngini = 0.496\nsamples = 8\nvalue = [5, 0, 0, 6]\nclass = Plain", fillcolor="#f8defb"] ;
17 -> 29 ;
30 [label="gini = 0.0\nsamples = 4\nvalue = [0, 0, 0, 6]\nclass = Plain", fillcolor="#d739e5"] ;
29 -> 30 ;
31 [label="gini = 0.0\nsamples = 4\nvalue = [5, 0, 0, 0]\nclass = Polystyrene", fillcolor="#e58139"] ;
29 -> 31 ;
32 [label="z259 <= 11708.467\ngini = 0.355\nsamples = 10\nvalue = [0, 3, 10, 0]\nclass = Sunscreen", fillcolor="#74baed"] ;
16 -> 32 ;
33 [label="z401 <= 11035.729\ngini = 0.278\nsamples = 9\nvalue = [0, 2, 10, 0]\nclass = Sunscreen", fillcolor="#61b1ea"] ;
32 -> 33 ;
34 [label="gini = 0.0\nsamples = 7\nvalue = [0, 0, 10, 0]\nclass = Sunscreen", fillcolor="#399de5"] ;
33 -> 34 ;
35 [label="gini = 0.0\nsamples = 2\nvalue = [0, 2, 0, 0]\nclass = Nitrate", fillcolor="#47e539"] ;
33 -> 35 ;
36 [label="gini = 0.0\nsamples = 1\nvalue = [0, 1, 0, 0]\nclass = Nitrate", fillcolor="#47e539"] ;
32 -> 36 ;
}