digraph Tree {
node [shape=box, style="filled, rounded", color="black", fontname="helvetica"] ;
edge [fontname="helvetica"] ;
0 [label="z439 <= 4347.456\ngini = 0.67\nsamples = 207\nvalue = [126, 116, 72, 10]\nclass = Polystyrene", fillcolor="#fef9f5"] ;
1 [label="Φ280 <= -7.109\ngini = 0.459\nsamples = 96\nvalue = [0, 99, 55, 0]\nclass = Nitrate", fillcolor="#adf3a7"] ;
0 -> 1 [labeldistance=2.5, labelangle=45, headlabel="True"] ;
2 [label="Φ267 <= 6452.408\ngini = 0.306\nsamples = 75\nvalue = [0, 99, 23, 0]\nclass = Nitrate", fillcolor="#72eb67"] ;
1 -> 2 ;
3 [label="gini = 0.0\nsamples = 52\nvalue = [0, 90, 0, 0]\nclass = Nitrate", fillcolor="#47e539"] ;
2 -> 3 ;
4 [label="Φ104 <= -34.956\ngini = 0.404\nsamples = 23\nvalue = [0, 9, 23, 0]\nclass = Sunscreen", fillcolor="#86c3ef"] ;
2 -> 4 ;
5 [label="Φ382 <= -39.591\ngini = 0.252\nsamples = 21\nvalue = [0, 4, 23, 0]\nclass = Sunscreen", fillcolor="#5baeea"] ;
4 -> 5 ;
6 [label="gini = 0.0\nsamples = 4\nvalue = [0, 4, 0, 0]\nclass = Nitrate", fillcolor="#47e539"] ;
5 -> 6 ;
7 [label="gini = 0.0\nsamples = 17\nvalue = [0, 0, 23, 0]\nclass = Sunscreen", fillcolor="#399de5"] ;
5 -> 7 ;
8 [label="gini = 0.0\nsamples = 2\nvalue = [0, 5, 0, 0]\nclass = Nitrate", fillcolor="#47e539"] ;
4 -> 8 ;
9 [label="gini = 0.0\nsamples = 21\nvalue = [0, 0, 32, 0]\nclass = Sunscreen", fillcolor="#399de5"] ;
1 -> 9 ;
10 [label="Φ368 <= -24.688\ngini = 0.427\nsamples = 111\nvalue = [126, 17, 17, 10]\nclass = Polystyrene", fillcolor="#eca572"] ;
0 -> 10 [labeldistance=2.5, labelangle=-45, headlabel="False"] ;
11 [label="z81 <= 17312.904\ngini = 0.319\nsamples = 102\nvalue = [126, 12, 6, 10]\nclass = Polystyrene", fillcolor="#ea9a60"] ;
10 -> 11 ;
12 [label="z414 <= -43.576\ngini = 0.195\nsamples = 91\nvalue = [126, 5, 0, 10]\nclass = Polystyrene", fillcolor="#e88f50"] ;
11 -> 12 ;
13 [label="z98 <= -179.946\ngini = 0.139\nsamples = 86\nvalue = [126, 5, 0, 5]\nclass = Polystyrene", fillcolor="#e78b48"] ;
12 -> 13 ;
14 [label="gini = 0.0\nsamples = 2\nvalue = [0, 0, 0, 3]\nclass = Plain", fillcolor="#d739e5"] ;
13 -> 14 ;
15 [label="Φ404 <= -38.844\ngini = 0.101\nsamples = 84\nvalue = [126, 5, 0, 2]\nclass = Polystyrene", fillcolor="#e68844"] ;
13 -> 15 ;
16 [label="z243 <= 4859.472\ngini = 0.486\nsamples = 7\nvalue = [7, 5, 0, 0]\nclass = Polystyrene", fillcolor="#f8dbc6"] ;
15 -> 16 ;
17 [label="gini = 0.0\nsamples = 3\nvalue = [0, 5, 0, 0]\nclass = Nitrate", fillcolor="#47e539"] ;
16 -> 17 ;
18 [label="gini = 0.0\nsamples = 4\nvalue = [7, 0, 0, 0]\nclass = Polystyrene", fillcolor="#e58139"] ;
16 -> 18 ;
19 [label="z266 <= -47.876\ngini = 0.033\nsamples = 77\nvalue = [119, 0, 0, 2]\nclass = Polystyrene", fillcolor="#e5833c"] ;
15 -> 19 ;
20 [label="Φ391 <= 17227.192\ngini = 0.245\nsamples = 9\nvalue = [12, 0, 0, 2]\nclass = Polystyrene", fillcolor="#e9965a"] ;
19 -> 20 ;
21 [label="gini = 0.0\nsamples = 1\nvalue = [0, 0, 0, 2]\nclass = Plain", fillcolor="#d739e5"] ;
20 -> 21 ;
22 [label="gini = 0.0\nsamples = 8\nvalue = [12, 0, 0, 0]\nclass = Polystyrene", fillcolor="#e58139"] ;
20 -> 22 ;
23 [label="gini = 0.0\nsamples = 68\nvalue = [107, 0, 0, 0]\nclass = Polystyrene", fillcolor="#e58139"] ;
19 -> 23 ;
24 [label="gini = 0.0\nsamples = 5\nvalue = [0, 0, 0, 5]\nclass = Plain", fillcolor="#d739e5"] ;
12 -> 24 ;
25 [label="Φ409 <= 22793.578\ngini = 0.497\nsamples = 11\nvalue = [0, 7, 6, 0]\nclass = Nitrate", fillcolor="#e5fbe3"] ;
11 -> 25 ;
26 [label="gini = 0.0\nsamples = 4\nvalue = [0, 0, 6, 0]\nclass = Sunscreen", fillcolor="#399de5"] ;
25 -> 26 ;
27 [label="gini = 0.0\nsamples = 7\nvalue = [0, 7, 0, 0]\nclass = Nitrate", fillcolor="#47e539"] ;
25 -> 27 ;
28 [label="z231 <= 11865.209\ngini = 0.43\nsamples = 9\nvalue = [0, 5, 11, 0]\nclass = Sunscreen", fillcolor="#93caf1"] ;
10 -> 28 ;
29 [label="z495 <= 10472.72\ngini = 0.26\nsamples = 8\nvalue = [0, 2, 11, 0]\nclass = Sunscreen", fillcolor="#5dafea"] ;
28 -> 29 ;
30 [label="gini = 0.0\nsamples = 6\nvalue = [0, 0, 11, 0]\nclass = Sunscreen", fillcolor="#399de5"] ;
29 -> 30 ;
31 [label="gini = 0.0\nsamples = 2\nvalue = [0, 2, 0, 0]\nclass = Nitrate", fillcolor="#47e539"] ;
29 -> 31 ;
32 [label="gini = 0.0\nsamples = 1\nvalue = [0, 3, 0, 0]\nclass = Nitrate", fillcolor="#47e539"] ;
28 -> 32 ;
}