digraph Tree {
node [shape=box, style="filled, rounded", color="black", fontname="helvetica"] ;
edge [fontname="helvetica"] ;
0 [label="z321 <= 4618.911\ngini = 0.678\nsamples = 208\nvalue = [130, 89, 94, 11]\nclass = Polystyrene", fillcolor="#fbebe0"] ;
1 [label="Φ2 <= -34.625\ngini = 0.494\nsamples = 93\nvalue = [0, 63, 78, 0]\nclass = Sunscreen", fillcolor="#d9ecfa"] ;
0 -> 1 [labeldistance=2.5, labelangle=45, headlabel="True"] ;
2 [label="gini = 0.0\nsamples = 27\nvalue = [0, 40, 0, 0]\nclass = Nitrate", fillcolor="#47e539"] ;
1 -> 2 ;
3 [label="z401 <= 698.333\ngini = 0.352\nsamples = 66\nvalue = [0, 23, 78, 0]\nclass = Sunscreen", fillcolor="#73baed"] ;
1 -> 3 ;
4 [label="gini = 0.0\nsamples = 4\nvalue = [0, 6, 0, 0]\nclass = Nitrate", fillcolor="#47e539"] ;
3 -> 4 ;
5 [label="Φ240 <= -6.927\ngini = 0.294\nsamples = 62\nvalue = [0, 17, 78, 0]\nclass = Sunscreen", fillcolor="#64b2eb"] ;
3 -> 5 ;
6 [label="Φ331 <= 6033.657\ngini = 0.423\nsamples = 36\nvalue = [0, 17, 39, 0]\nclass = Sunscreen", fillcolor="#8fc8f0"] ;
5 -> 6 ;
7 [label="gini = 0.0\nsamples = 10\nvalue = [0, 13, 0, 0]\nclass = Nitrate", fillcolor="#47e539"] ;
6 -> 7 ;
8 [label="Φ24 <= -33.805\ngini = 0.169\nsamples = 26\nvalue = [0, 4, 39, 0]\nclass = Sunscreen", fillcolor="#4da7e8"] ;
6 -> 8 ;
9 [label="Φ362 <= -39.536\ngini = 0.049\nsamples = 23\nvalue = [0, 1, 39, 0]\nclass = Sunscreen", fillcolor="#3ea0e6"] ;
8 -> 9 ;
10 [label="gini = 0.0\nsamples = 1\nvalue = [0, 1, 0, 0]\nclass = Nitrate", fillcolor="#47e539"] ;
9 -> 10 ;
11 [label="gini = 0.0\nsamples = 22\nvalue = [0, 0, 39, 0]\nclass = Sunscreen", fillcolor="#399de5"] ;
9 -> 11 ;
12 [label="gini = 0.0\nsamples = 3\nvalue = [0, 3, 0, 0]\nclass = Nitrate", fillcolor="#47e539"] ;
8 -> 12 ;
13 [label="gini = 0.0\nsamples = 26\nvalue = [0, 0, 39, 0]\nclass = Sunscreen", fillcolor="#399de5"] ;
5 -> 13 ;
14 [label="z342 <= -42.763\ngini = 0.464\nsamples = 115\nvalue = [130, 26, 16, 11]\nclass = Polystyrene", fillcolor="#eeac7c"] ;
0 -> 14 [labeldistance=2.5, labelangle=-45, headlabel="False"] ;
15 [label="Φ356 <= -38.097\ngini = 0.306\nsamples = 99\nvalue = [129, 21, 3, 4]\nclass = Polystyrene", fillcolor="#ea9b62"] ;
14 -> 15 ;
16 [label="Φ118 <= -35.446\ngini = 0.544\nsamples = 23\nvalue = [17, 20, 2, 0]\nclass = Nitrate", fillcolor="#e6fbe4"] ;
15 -> 16 ;
17 [label="gini = 0.0\nsamples = 8\nvalue = [15, 0, 0, 0]\nclass = Polystyrene", fillcolor="#e58139"] ;
16 -> 17 ;
18 [label="z38 <= -38.505\ngini = 0.292\nsamples = 15\nvalue = [2, 20, 2, 0]\nclass = Nitrate", fillcolor="#68ea5d"] ;
16 -> 18 ;
19 [label="Φ398 <= -43.185\ngini = 0.165\nsamples = 14\nvalue = [0, 20, 2, 0]\nclass = Nitrate", fillcolor="#59e84d"] ;
18 -> 19 ;
20 [label="z344 <= -65.552\ngini = 0.48\nsamples = 5\nvalue = [0, 3, 2, 0]\nclass = Nitrate", fillcolor="#c2f6bd"] ;
19 -> 20 ;
21 [label="gini = 0.0\nsamples = 3\nvalue = [0, 3, 0, 0]\nclass = Nitrate", fillcolor="#47e539"] ;
20 -> 21 ;
22 [label="gini = 0.0\nsamples = 2\nvalue = [0, 0, 2, 0]\nclass = Sunscreen", fillcolor="#399de5"] ;
20 -> 22 ;
23 [label="gini = 0.0\nsamples = 9\nvalue = [0, 17, 0, 0]\nclass = Nitrate", fillcolor="#47e539"] ;
19 -> 23 ;
24 [label="gini = 0.0\nsamples = 1\nvalue = [2, 0, 0, 0]\nclass = Polystyrene", fillcolor="#e58139"] ;
18 -> 24 ;
25 [label="z80 <= -43.178\ngini = 0.098\nsamples = 76\nvalue = [112, 1, 1, 4]\nclass = Polystyrene", fillcolor="#e68843"] ;
15 -> 25 ;
26 [label="Φ348 <= -31.709\ngini = 0.5\nsamples = 4\nvalue = [4, 0, 0, 4]\nclass = Polystyrene", fillcolor="#ffffff"] ;
25 -> 26 ;
27 [label="gini = 0.0\nsamples = 3\nvalue = [4, 0, 0, 0]\nclass = Polystyrene", fillcolor="#e58139"] ;
26 -> 27 ;
28 [label="gini = 0.0\nsamples = 1\nvalue = [0, 0, 0, 4]\nclass = Plain", fillcolor="#d739e5"] ;
26 -> 28 ;
29 [label="Φ301 <= 6456.095\ngini = 0.036\nsamples = 72\nvalue = [108, 1, 1, 0]\nclass = Polystyrene", fillcolor="#e5833d"] ;
25 -> 29 ;
30 [label="gini = 0.0\nsamples = 1\nvalue = [0, 0, 1, 0]\nclass = Sunscreen", fillcolor="#399de5"] ;
29 -> 30 ;
31 [label="Φ430 <= -39.201\ngini = 0.018\nsamples = 71\nvalue = [108, 1, 0, 0]\nclass = Polystyrene", fillcolor="#e5823b"] ;
29 -> 31 ;
32 [label="gini = 0.0\nsamples = 1\nvalue = [0, 1, 0, 0]\nclass = Nitrate", fillcolor="#47e539"] ;
31 -> 32 ;
33 [label="gini = 0.0\nsamples = 70\nvalue = [108, 0, 0, 0]\nclass = Polystyrene", fillcolor="#e58139"] ;
31 -> 33 ;
34 [label="z322 <= -42.175\ngini = 0.639\nsamples = 16\nvalue = [1, 5, 13, 7]\nclass = Sunscreen", fillcolor="#c0e0f7"] ;
14 -> 34 ;
35 [label="gini = 0.0\nsamples = 4\nvalue = [0, 0, 0, 7]\nclass = Plain", fillcolor="#d739e5"] ;
34 -> 35 ;
36 [label="z335 <= 11177.054\ngini = 0.46\nsamples = 12\nvalue = [1, 5, 13, 0]\nclass = Sunscreen", fillcolor="#8ec7f0"] ;
34 -> 36 ;
37 [label="z489 <= 10517.708\ngini = 0.32\nsamples = 9\nvalue = [1, 2, 13, 0]\nclass = Sunscreen", fillcolor="#63b2eb"] ;
36 -> 37 ;
38 [label="z319 <= 4895.726\ngini = 0.133\nsamples = 8\nvalue = [1, 0, 13, 0]\nclass = Sunscreen", fillcolor="#48a5e7"] ;
37 -> 38 ;
39 [label="gini = 0.0\nsamples = 1\nvalue = [1, 0, 0, 0]\nclass = Polystyrene", fillcolor="#e58139"] ;
38 -> 39 ;
40 [label="gini = 0.0\nsamples = 7\nvalue = [0, 0, 13, 0]\nclass = Sunscreen", fillcolor="#399de5"] ;
38 -> 40 ;
41 [label="gini = 0.0\nsamples = 1\nvalue = [0, 2, 0, 0]\nclass = Nitrate", fillcolor="#47e539"] ;
37 -> 41 ;
42 [label="gini = 0.0\nsamples = 3\nvalue = [0, 3, 0, 0]\nclass = Nitrate", fillcolor="#47e539"] ;
36 -> 42 ;
}