digraph Tree {
node [shape=box, style="filled, rounded", color="black", fontname="helvetica"] ;
edge [fontname="helvetica"] ;
0 [label="z497 <= 4265.249\ngini = 0.676\nsamples = 204\nvalue = [129, 101, 84, 10]\nclass = Polystyrene", fillcolor="#fcefe6"] ;
1 [label="Φ52 <= -34.899\ngini = 0.5\nsamples = 100\nvalue = [0, 73, 75, 0]\nclass = Sunscreen", fillcolor="#fafcfe"] ;
0 -> 1 [labeldistance=2.5, labelangle=45, headlabel="True"] ;
2 [label="gini = 0.0\nsamples = 25\nvalue = [0, 38, 0, 0]\nclass = Nitrate", fillcolor="#47e539"] ;
1 -> 2 ;
3 [label="z169 <= 691.752\ngini = 0.434\nsamples = 75\nvalue = [0, 35, 75, 0]\nclass = Sunscreen", fillcolor="#95cbf1"] ;
1 -> 3 ;
4 [label="gini = 0.0\nsamples = 9\nvalue = [0, 12, 0, 0]\nclass = Nitrate", fillcolor="#47e539"] ;
3 -> 4 ;
5 [label="z122 <= -41.538\ngini = 0.359\nsamples = 66\nvalue = [0, 23, 75, 0]\nclass = Sunscreen", fillcolor="#76bbed"] ;
3 -> 5 ;
6 [label="gini = 0.0\nsamples = 20\nvalue = [0, 0, 33, 0]\nclass = Sunscreen", fillcolor="#399de5"] ;
5 -> 6 ;
7 [label="z220 <= -42.234\ngini = 0.457\nsamples = 46\nvalue = [0, 23, 42, 0]\nclass = Sunscreen", fillcolor="#a5d3f3"] ;
5 -> 7 ;
8 [label="Φ12 <= -34.731\ngini = 0.236\nsamples = 14\nvalue = [0, 19, 3, 0]\nclass = Nitrate", fillcolor="#64e958"] ;
7 -> 8 ;
9 [label="gini = 0.0\nsamples = 2\nvalue = [0, 0, 3, 0]\nclass = Sunscreen", fillcolor="#399de5"] ;
8 -> 9 ;
10 [label="gini = 0.0\nsamples = 12\nvalue = [0, 19, 0, 0]\nclass = Nitrate", fillcolor="#47e539"] ;
8 -> 10 ;
11 [label="Φ2 <= -7.697\ngini = 0.169\nsamples = 32\nvalue = [0, 4, 39, 0]\nclass = Sunscreen", fillcolor="#4da7e8"] ;
7 -> 11 ;
12 [label="Φ305 <= 1152.256\ngini = 0.133\nsamples = 31\nvalue = [0, 3, 39, 0]\nclass = Sunscreen", fillcolor="#48a5e7"] ;
11 -> 12 ;
13 [label="Φ140 <= -8.032\ngini = 0.355\nsamples = 12\nvalue = [0, 3, 10, 0]\nclass = Sunscreen", fillcolor="#74baed"] ;
12 -> 13 ;
14 [label="gini = 0.0\nsamples = 3\nvalue = [0, 3, 0, 0]\nclass = Nitrate", fillcolor="#47e539"] ;
13 -> 14 ;
15 [label="gini = 0.0\nsamples = 9\nvalue = [0, 0, 10, 0]\nclass = Sunscreen", fillcolor="#399de5"] ;
13 -> 15 ;
16 [label="gini = 0.0\nsamples = 19\nvalue = [0, 0, 29, 0]\nclass = Sunscreen", fillcolor="#399de5"] ;
12 -> 16 ;
17 [label="gini = 0.0\nsamples = 1\nvalue = [0, 1, 0, 0]\nclass = Nitrate", fillcolor="#47e539"] ;
11 -> 17 ;
18 [label="Φ368 <= -38.327\ngini = 0.432\nsamples = 104\nvalue = [129, 28, 9, 10]\nclass = Polystyrene", fillcolor="#eda978"] ;
0 -> 18 [labeldistance=2.5, labelangle=-45, headlabel="False"] ;
19 [label="Φ96 <= -34.742\ngini = 0.542\nsamples = 25\nvalue = [12, 21, 3, 0]\nclass = Nitrate", fillcolor="#baf5b5"] ;
18 -> 19 ;
20 [label="gini = 0.0\nsamples = 9\nvalue = [12, 0, 0, 0]\nclass = Polystyrene", fillcolor="#e58139"] ;
19 -> 20 ;
21 [label="Φ354 <= -40.167\ngini = 0.219\nsamples = 16\nvalue = [0, 21, 3, 0]\nclass = Nitrate", fillcolor="#61e955"] ;
19 -> 21 ;
22 [label="z434 <= -67.476\ngini = 0.49\nsamples = 6\nvalue = [0, 4, 3, 0]\nclass = Nitrate", fillcolor="#d1f8ce"] ;
21 -> 22 ;
23 [label="gini = 0.0\nsamples = 3\nvalue = [0, 4, 0, 0]\nclass = Nitrate", fillcolor="#47e539"] ;
22 -> 23 ;
24 [label="gini = 0.0\nsamples = 3\nvalue = [0, 0, 3, 0]\nclass = Sunscreen", fillcolor="#399de5"] ;
22 -> 24 ;
25 [label="gini = 0.0\nsamples = 10\nvalue = [0, 17, 0, 0]\nclass = Nitrate", fillcolor="#47e539"] ;
21 -> 25 ;
26 [label="z488 <= -44.154\ngini = 0.292\nsamples = 79\nvalue = [117, 7, 6, 10]\nclass = Polystyrene", fillcolor="#ea975c"] ;
18 -> 26 ;
27 [label="z311 <= 4653.535\ngini = 0.08\nsamples = 67\nvalue = [116, 1, 0, 4]\nclass = Polystyrene", fillcolor="#e68641"] ;
26 -> 27 ;
28 [label="gini = 0.0\nsamples = 1\nvalue = [0, 1, 0, 0]\nclass = Nitrate", fillcolor="#47e539"] ;
27 -> 28 ;
29 [label="z164 <= -43.888\ngini = 0.064\nsamples = 66\nvalue = [116, 0, 0, 4]\nclass = Polystyrene", fillcolor="#e68540"] ;
27 -> 29 ;
30 [label="Φ129 <= 19280.723\ngini = 0.26\nsamples = 13\nvalue = [22, 0, 0, 4]\nclass = Polystyrene", fillcolor="#ea985d"] ;
29 -> 30 ;
31 [label="gini = 0.0\nsamples = 3\nvalue = [0, 0, 0, 4]\nclass = Plain", fillcolor="#d739e5"] ;
30 -> 31 ;
32 [label="gini = 0.0\nsamples = 10\nvalue = [22, 0, 0, 0]\nclass = Polystyrene", fillcolor="#e58139"] ;
30 -> 32 ;
33 [label="gini = 0.0\nsamples = 53\nvalue = [94, 0, 0, 0]\nclass = Polystyrene", fillcolor="#e58139"] ;
29 -> 33 ;
34 [label="z472 <= -43.51\ngini = 0.698\nsamples = 12\nvalue = [1, 6, 6, 6]\nclass = Nitrate", fillcolor="#ffffff"] ;
26 -> 34 ;
35 [label="gini = 0.0\nsamples = 3\nvalue = [0, 0, 0, 6]\nclass = Plain", fillcolor="#d739e5"] ;
34 -> 35 ;
36 [label="z94 <= -23.2\ngini = 0.568\nsamples = 9\nvalue = [1, 6, 6, 0]\nclass = Nitrate", fillcolor="#ffffff"] ;
34 -> 36 ;
37 [label="z243 <= 8252.176\ngini = 0.245\nsamples = 4\nvalue = [1, 6, 0, 0]\nclass = Nitrate", fillcolor="#66e95a"] ;
36 -> 37 ;
38 [label="gini = 0.0\nsamples = 1\nvalue = [1, 0, 0, 0]\nclass = Polystyrene", fillcolor="#e58139"] ;
37 -> 38 ;
39 [label="gini = 0.0\nsamples = 3\nvalue = [0, 6, 0, 0]\nclass = Nitrate", fillcolor="#47e539"] ;
37 -> 39 ;
40 [label="gini = 0.0\nsamples = 5\nvalue = [0, 0, 6, 0]\nclass = Sunscreen", fillcolor="#399de5"] ;
36 -> 40 ;
}