digraph Tree {
node [shape=box, style="filled, rounded", color="black", fontname="helvetica"] ;
edge [fontname="helvetica"] ;
0 [label="z435 <= 4376.152\ngini = 0.667\nsamples = 206\nvalue = [138, 88, 90, 8]\nclass = Polystyrene", fillcolor="#fae5d6"] ;
1 [label="z267 <= 687.782\ngini = 0.494\nsamples = 93\nvalue = [0, 64, 80, 0]\nclass = Sunscreen", fillcolor="#d7ebfa"] ;
0 -> 1 [labeldistance=2.5, labelangle=45, headlabel="True"] ;
2 [label="gini = 0.0\nsamples = 24\nvalue = [0, 33, 0, 0]\nclass = Nitrate", fillcolor="#47e539"] ;
1 -> 2 ;
3 [label="Φ86 <= -35.516\ngini = 0.403\nsamples = 69\nvalue = [0, 31, 80, 0]\nclass = Sunscreen", fillcolor="#86c3ef"] ;
1 -> 3 ;
4 [label="gini = 0.0\nsamples = 9\nvalue = [0, 12, 0, 0]\nclass = Nitrate", fillcolor="#47e539"] ;
3 -> 4 ;
5 [label="Φ222 <= -6.764\ngini = 0.31\nsamples = 60\nvalue = [0, 19, 80, 0]\nclass = Sunscreen", fillcolor="#68b4eb"] ;
3 -> 5 ;
6 [label="z393 <= 4267.05\ngini = 0.444\nsamples = 34\nvalue = [0, 19, 38, 0]\nclass = Sunscreen", fillcolor="#9ccef2"] ;
5 -> 6 ;
7 [label="gini = 0.0\nsamples = 8\nvalue = [0, 15, 0, 0]\nclass = Nitrate", fillcolor="#47e539"] ;
6 -> 7 ;
8 [label="Φ42 <= -33.999\ngini = 0.172\nsamples = 26\nvalue = [0, 4, 38, 0]\nclass = Sunscreen", fillcolor="#4ea7e8"] ;
6 -> 8 ;
9 [label="gini = 0.0\nsamples = 23\nvalue = [0, 0, 38, 0]\nclass = Sunscreen", fillcolor="#399de5"] ;
8 -> 9 ;
10 [label="gini = 0.0\nsamples = 3\nvalue = [0, 4, 0, 0]\nclass = Nitrate", fillcolor="#47e539"] ;
8 -> 10 ;
11 [label="gini = 0.0\nsamples = 26\nvalue = [0, 0, 42, 0]\nclass = Sunscreen", fillcolor="#399de5"] ;
5 -> 11 ;
12 [label="z373 <= 14839.685\ngini = 0.389\nsamples = 113\nvalue = [138, 24, 10, 8]\nclass = Polystyrene", fillcolor="#eca36e"] ;
0 -> 12 [labeldistance=2.5, labelangle=-45, headlabel="False"] ;
13 [label="z250 <= -39.903\ngini = 0.299\nsamples = 105\nvalue = [138, 10, 10, 8]\nclass = Polystyrene", fillcolor="#ea985d"] ;
12 -> 13 ;
14 [label="z102 <= -49.699\ngini = 0.212\nsamples = 96\nvalue = [138, 8, 2, 8]\nclass = Polystyrene", fillcolor="#e89051"] ;
13 -> 14 ;
15 [label="Φ318 <= -33.688\ngini = 0.5\nsamples = 3\nvalue = [0, 0, 2, 2]\nclass = Sunscreen", fillcolor="#ffffff"] ;
14 -> 15 ;
16 [label="gini = 0.0\nsamples = 2\nvalue = [0, 0, 2, 0]\nclass = Sunscreen", fillcolor="#399de5"] ;
15 -> 16 ;
17 [label="gini = 0.0\nsamples = 1\nvalue = [0, 0, 0, 2]\nclass = Plain", fillcolor="#d739e5"] ;
15 -> 17 ;
18 [label="Φ395 <= 6102.249\ngini = 0.171\nsamples = 93\nvalue = [138, 8, 0, 6]\nclass = Polystyrene", fillcolor="#e88d4c"] ;
14 -> 18 ;
19 [label="Φ64 <= -34.753\ngini = 0.476\nsamples = 21\nvalue = [26, 8, 0, 4]\nclass = Polystyrene", fillcolor="#efb388"] ;
18 -> 19 ;
20 [label="z237 <= 4905.416\ngini = 0.071\nsamples = 14\nvalue = [26, 0, 0, 1]\nclass = Polystyrene", fillcolor="#e68641"] ;
19 -> 20 ;
21 [label="gini = 0.0\nsamples = 13\nvalue = [26, 0, 0, 0]\nclass = Polystyrene", fillcolor="#e58139"] ;
20 -> 21 ;
22 [label="gini = 0.0\nsamples = 1\nvalue = [0, 0, 0, 1]\nclass = Plain", fillcolor="#d739e5"] ;
20 -> 22 ;
23 [label="Φ7 <= 10322.827\ngini = 0.397\nsamples = 7\nvalue = [0, 8, 0, 3]\nclass = Nitrate", fillcolor="#8cef83"] ;
19 -> 23 ;
24 [label="gini = 0.0\nsamples = 2\nvalue = [0, 0, 0, 3]\nclass = Plain", fillcolor="#d739e5"] ;
23 -> 24 ;
25 [label="gini = 0.0\nsamples = 5\nvalue = [0, 8, 0, 0]\nclass = Nitrate", fillcolor="#47e539"] ;
23 -> 25 ;
26 [label="z194 <= -45.99\ngini = 0.034\nsamples = 72\nvalue = [112, 0, 0, 2]\nclass = Polystyrene", fillcolor="#e5833d"] ;
18 -> 26 ;
27 [label="z188 <= -46.748\ngini = 0.346\nsamples = 5\nvalue = [7, 0, 0, 2]\nclass = Polystyrene", fillcolor="#eca572"] ;
26 -> 27 ;
28 [label="gini = 0.0\nsamples = 4\nvalue = [7, 0, 0, 0]\nclass = Polystyrene", fillcolor="#e58139"] ;
27 -> 28 ;
29 [label="gini = 0.0\nsamples = 1\nvalue = [0, 0, 0, 2]\nclass = Plain", fillcolor="#d739e5"] ;
27 -> 29 ;
30 [label="gini = 0.0\nsamples = 67\nvalue = [105, 0, 0, 0]\nclass = Polystyrene", fillcolor="#e58139"] ;
26 -> 30 ;
31 [label="z297 <= 11536.329\ngini = 0.32\nsamples = 9\nvalue = [0, 2, 8, 0]\nclass = Sunscreen", fillcolor="#6ab6ec"] ;
13 -> 31 ;
32 [label="z477 <= 10551.622\ngini = 0.198\nsamples = 8\nvalue = [0, 1, 8, 0]\nclass = Sunscreen", fillcolor="#52a9e8"] ;
31 -> 32 ;
33 [label="gini = 0.0\nsamples = 7\nvalue = [0, 0, 8, 0]\nclass = Sunscreen", fillcolor="#399de5"] ;
32 -> 33 ;
34 [label="gini = 0.0\nsamples = 1\nvalue = [0, 1, 0, 0]\nclass = Nitrate", fillcolor="#47e539"] ;
32 -> 34 ;
35 [label="gini = 0.0\nsamples = 1\nvalue = [0, 1, 0, 0]\nclass = Nitrate", fillcolor="#47e539"] ;
31 -> 35 ;
36 [label="gini = 0.0\nsamples = 8\nvalue = [0, 14, 0, 0]\nclass = Nitrate", fillcolor="#47e539"] ;
12 -> 36 ;
}