digraph Tree {
node [shape=box, style="filled, rounded", color="black", fontname="helvetica"] ;
edge [fontname="helvetica"] ;
0 [label="z497 <= 4265.963\ngini = 0.687\nsamples = 216\nvalue = [112, 104, 97, 11]\nclass = Polystyrene", fillcolor="#fefaf8"] ;
1 [label="Φ298 <= -7.005\ngini = 0.5\nsamples = 104\nvalue = [0, 81, 80, 0]\nclass = Nitrate", fillcolor="#fdfffd"] ;
0 -> 1 [labeldistance=2.5, labelangle=45, headlabel="True"] ;
2 [label="z27 <= 5192.386\ngini = 0.43\nsamples = 79\nvalue = [0, 81, 37, 0]\nclass = Nitrate", fillcolor="#9bf193"] ;
1 -> 2 ;
3 [label="gini = 0.0\nsamples = 44\nvalue = [0, 64, 0, 0]\nclass = Nitrate", fillcolor="#47e539"] ;
2 -> 3 ;
4 [label="Φ470 <= -40.754\ngini = 0.431\nsamples = 35\nvalue = [0, 17, 37, 0]\nclass = Sunscreen", fillcolor="#94caf1"] ;
2 -> 4 ;
5 [label="gini = 0.0\nsamples = 5\nvalue = [0, 8, 0, 0]\nclass = Nitrate", fillcolor="#47e539"] ;
4 -> 5 ;
6 [label="Φ88 <= -34.705\ngini = 0.315\nsamples = 30\nvalue = [0, 9, 37, 0]\nclass = Sunscreen", fillcolor="#69b5eb"] ;
4 -> 6 ;
7 [label="gini = 0.0\nsamples = 24\nvalue = [0, 0, 37, 0]\nclass = Sunscreen", fillcolor="#399de5"] ;
6 -> 7 ;
8 [label="gini = 0.0\nsamples = 6\nvalue = [0, 9, 0, 0]\nclass = Nitrate", fillcolor="#47e539"] ;
6 -> 8 ;
9 [label="gini = 0.0\nsamples = 25\nvalue = [0, 0, 43, 0]\nclass = Sunscreen", fillcolor="#399de5"] ;
1 -> 9 ;
10 [label="z372 <= -43.237\ngini = 0.493\nsamples = 112\nvalue = [112, 23, 17, 11]\nclass = Polystyrene", fillcolor="#eeaf81"] ;
0 -> 10 [labeldistance=2.5, labelangle=-45, headlabel="False"] ;
11 [label="Φ431 <= 19337.75\ngini = 0.306\nsamples = 96\nvalue = [112, 16, 6, 2]\nclass = Polystyrene", fillcolor="#ea9a61"] ;
10 -> 11 ;
12 [label="z235 <= 4878.122\ngini = 0.14\nsamples = 86\nvalue = [112, 7, 0, 2]\nclass = Polystyrene", fillcolor="#e78b49"] ;
11 -> 12 ;
13 [label="Φ485 <= 5692.782\ngini = 0.465\nsamples = 14\nvalue = [12, 7, 0, 0]\nclass = Polystyrene", fillcolor="#f4caac"] ;
12 -> 13 ;
14 [label="gini = 0.0\nsamples = 9\nvalue = [12, 0, 0, 0]\nclass = Polystyrene", fillcolor="#e58139"] ;
13 -> 14 ;
15 [label="gini = 0.0\nsamples = 5\nvalue = [0, 7, 0, 0]\nclass = Nitrate", fillcolor="#47e539"] ;
13 -> 15 ;
16 [label="z264 <= -47.76\ngini = 0.038\nsamples = 72\nvalue = [100, 0, 0, 2]\nclass = Polystyrene", fillcolor="#e6843d"] ;
12 -> 16 ;
17 [label="Φ225 <= 18576.711\ngini = 0.231\nsamples = 12\nvalue = [13, 0, 0, 2]\nclass = Polystyrene", fillcolor="#e99457"] ;
16 -> 17 ;
18 [label="gini = 0.0\nsamples = 2\nvalue = [0, 0, 0, 2]\nclass = Plain", fillcolor="#d739e5"] ;
17 -> 18 ;
19 [label="gini = 0.0\nsamples = 10\nvalue = [13, 0, 0, 0]\nclass = Polystyrene", fillcolor="#e58139"] ;
17 -> 19 ;
20 [label="gini = 0.0\nsamples = 60\nvalue = [87, 0, 0, 0]\nclass = Polystyrene", fillcolor="#e58139"] ;
16 -> 20 ;
21 [label="Φ373 <= 23394.281\ngini = 0.48\nsamples = 10\nvalue = [0, 9, 6, 0]\nclass = Nitrate", fillcolor="#c2f6bd"] ;
11 -> 21 ;
22 [label="gini = 0.0\nsamples = 4\nvalue = [0, 0, 6, 0]\nclass = Sunscreen", fillcolor="#399de5"] ;
21 -> 22 ;
23 [label="gini = 0.0\nsamples = 6\nvalue = [0, 9, 0, 0]\nclass = Nitrate", fillcolor="#47e539"] ;
21 -> 23 ;
24 [label="Φ423 <= 6329.297\ngini = 0.656\nsamples = 16\nvalue = [0, 7, 11, 9]\nclass = Sunscreen", fillcolor="#e9f4fc"] ;
10 -> 24 ;
25 [label="gini = 0.0\nsamples = 5\nvalue = [0, 0, 0, 9]\nclass = Plain", fillcolor="#d739e5"] ;
24 -> 25 ;
26 [label="z429 <= 10747.468\ngini = 0.475\nsamples = 11\nvalue = [0, 7, 11, 0]\nclass = Sunscreen", fillcolor="#b7dbf6"] ;
24 -> 26 ;
27 [label="gini = 0.0\nsamples = 6\nvalue = [0, 0, 10, 0]\nclass = Sunscreen", fillcolor="#399de5"] ;
26 -> 27 ;
28 [label="Φ416 <= -25.085\ngini = 0.219\nsamples = 5\nvalue = [0, 7, 1, 0]\nclass = Nitrate", fillcolor="#61e955"] ;
26 -> 28 ;
29 [label="gini = 0.0\nsamples = 1\nvalue = [0, 0, 1, 0]\nclass = Sunscreen", fillcolor="#399de5"] ;
28 -> 29 ;
30 [label="gini = 0.0\nsamples = 4\nvalue = [0, 7, 0, 0]\nclass = Nitrate", fillcolor="#47e539"] ;
28 -> 30 ;
}