digraph Tree {
node [shape=box, style="filled, rounded", color="black", fontname="helvetica"] ;
edge [fontname="helvetica"] ;
0 [label="z215 <= 4865.085\ngini = 0.679\nsamples = 210\nvalue = [125, 103, 86, 10]\nclass = Polystyrene", fillcolor="#fcf2eb"] ;
1 [label="Φ202 <= -6.737\ngini = 0.497\nsamples = 94\nvalue = [0, 76, 65, 0]\nclass = Nitrate", fillcolor="#e4fbe2"] ;
0 -> 1 [labeldistance=2.5, labelangle=45, headlabel="True"] ;
2 [label="z227 <= 4636.271\ngini = 0.417\nsamples = 68\nvalue = [0, 76, 32, 0]\nclass = Nitrate", fillcolor="#94f08c"] ;
1 -> 2 ;
3 [label="gini = 0.0\nsamples = 40\nvalue = [0, 59, 0, 0]\nclass = Nitrate", fillcolor="#47e539"] ;
2 -> 3 ;
4 [label="Φ36 <= -33.725\ngini = 0.453\nsamples = 28\nvalue = [0, 17, 32, 0]\nclass = Sunscreen", fillcolor="#a2d1f3"] ;
2 -> 4 ;
5 [label="Φ166 <= -36.71\ngini = 0.266\nsamples = 24\nvalue = [0, 6, 32, 0]\nclass = Sunscreen", fillcolor="#5eafea"] ;
4 -> 5 ;
6 [label="gini = 0.0\nsamples = 4\nvalue = [0, 6, 0, 0]\nclass = Nitrate", fillcolor="#47e539"] ;
5 -> 6 ;
7 [label="gini = 0.0\nsamples = 20\nvalue = [0, 0, 32, 0]\nclass = Sunscreen", fillcolor="#399de5"] ;
5 -> 7 ;
8 [label="gini = 0.0\nsamples = 4\nvalue = [0, 11, 0, 0]\nclass = Nitrate", fillcolor="#47e539"] ;
4 -> 8 ;
9 [label="gini = 0.0\nsamples = 26\nvalue = [0, 0, 33, 0]\nclass = Sunscreen", fillcolor="#399de5"] ;
1 -> 9 ;
10 [label="Φ430 <= -39.175\ngini = 0.496\nsamples = 116\nvalue = [125, 27, 21, 10]\nclass = Polystyrene", fillcolor="#efb083"] ;
0 -> 10 [labeldistance=2.5, labelangle=-45, headlabel="False"] ;
11 [label="Φ90 <= -35.139\ngini = 0.577\nsamples = 21\nvalue = [6, 19, 8, 0]\nclass = Nitrate", fillcolor="#aef4a8"] ;
10 -> 11 ;
12 [label="z19 <= 5511.469\ngini = 0.375\nsamples = 6\nvalue = [6, 0, 2, 0]\nclass = Polystyrene", fillcolor="#eeab7b"] ;
11 -> 12 ;
13 [label="gini = 0.0\nsamples = 2\nvalue = [0, 0, 2, 0]\nclass = Sunscreen", fillcolor="#399de5"] ;
12 -> 13 ;
14 [label="gini = 0.0\nsamples = 4\nvalue = [6, 0, 0, 0]\nclass = Polystyrene", fillcolor="#e58139"] ;
12 -> 14 ;
15 [label="Φ378 <= -41.377\ngini = 0.365\nsamples = 15\nvalue = [0, 19, 6, 0]\nclass = Nitrate", fillcolor="#81ed78"] ;
11 -> 15 ;
16 [label="z189 <= 17231.195\ngini = 0.496\nsamples = 7\nvalue = [0, 5, 6, 0]\nclass = Sunscreen", fillcolor="#deeffb"] ;
15 -> 16 ;
17 [label="gini = 0.0\nsamples = 4\nvalue = [0, 0, 6, 0]\nclass = Sunscreen", fillcolor="#399de5"] ;
16 -> 17 ;
18 [label="gini = 0.0\nsamples = 3\nvalue = [0, 5, 0, 0]\nclass = Nitrate", fillcolor="#47e539"] ;
16 -> 18 ;
19 [label="gini = 0.0\nsamples = 8\nvalue = [0, 14, 0, 0]\nclass = Nitrate", fillcolor="#47e539"] ;
15 -> 19 ;
20 [label="z366 <= -43.41\ngini = 0.356\nsamples = 95\nvalue = [119, 8, 13, 10]\nclass = Polystyrene", fillcolor="#eb9e66"] ;
10 -> 20 ;
21 [label="Φ484 <= -40.091\ngini = 0.081\nsamples = 78\nvalue = [115, 2, 0, 3]\nclass = Polystyrene", fillcolor="#e68641"] ;
20 -> 21 ;
22 [label="gini = 0.0\nsamples = 1\nvalue = [0, 1, 0, 0]\nclass = Nitrate", fillcolor="#47e539"] ;
21 -> 22 ;
23 [label="z114 <= -42.46\ngini = 0.065\nsamples = 77\nvalue = [115, 1, 0, 3]\nclass = Polystyrene", fillcolor="#e68540"] ;
21 -> 23 ;
24 [label="Φ105 <= 19750.079\ngini = 0.255\nsamples = 13\nvalue = [17, 0, 0, 3]\nclass = Polystyrene", fillcolor="#ea975c"] ;
23 -> 24 ;
25 [label="gini = 0.0\nsamples = 3\nvalue = [0, 0, 0, 3]\nclass = Plain", fillcolor="#d739e5"] ;
24 -> 25 ;
26 [label="gini = 0.0\nsamples = 10\nvalue = [17, 0, 0, 0]\nclass = Polystyrene", fillcolor="#e58139"] ;
24 -> 26 ;
27 [label="Φ390 <= -38.829\ngini = 0.02\nsamples = 64\nvalue = [98, 1, 0, 0]\nclass = Polystyrene", fillcolor="#e5823b"] ;
23 -> 27 ;
28 [label="z351 <= 8846.983\ngini = 0.375\nsamples = 3\nvalue = [3, 1, 0, 0]\nclass = Polystyrene", fillcolor="#eeab7b"] ;
27 -> 28 ;
29 [label="gini = 0.0\nsamples = 1\nvalue = [0, 1, 0, 0]\nclass = Nitrate", fillcolor="#47e539"] ;
28 -> 29 ;
30 [label="gini = 0.0\nsamples = 2\nvalue = [3, 0, 0, 0]\nclass = Polystyrene", fillcolor="#e58139"] ;
28 -> 30 ;
31 [label="gini = 0.0\nsamples = 61\nvalue = [95, 0, 0, 0]\nclass = Polystyrene", fillcolor="#e58139"] ;
27 -> 31 ;
32 [label="z52 <= -36.151\ngini = 0.7\nsamples = 17\nvalue = [4, 6, 13, 7]\nclass = Sunscreen", fillcolor="#cbe5f8"] ;
20 -> 32 ;
33 [label="z252 <= -41.944\ngini = 0.542\nsamples = 7\nvalue = [4, 0, 1, 7]\nclass = Plain", fillcolor="#f0b5f5"] ;
32 -> 33 ;
34 [label="z403 <= 4471.427\ngini = 0.375\nsamples = 3\nvalue = [3, 0, 1, 0]\nclass = Polystyrene", fillcolor="#eeab7b"] ;
33 -> 34 ;
35 [label="gini = 0.0\nsamples = 1\nvalue = [0, 0, 1, 0]\nclass = Sunscreen", fillcolor="#399de5"] ;
34 -> 35 ;
36 [label="gini = 0.0\nsamples = 2\nvalue = [3, 0, 0, 0]\nclass = Polystyrene", fillcolor="#e58139"] ;
34 -> 36 ;
37 [label="Φ153 <= 7795.26\ngini = 0.219\nsamples = 4\nvalue = [1, 0, 0, 7]\nclass = Plain", fillcolor="#dd55e9"] ;
33 -> 37 ;
38 [label="gini = 0.0\nsamples = 3\nvalue = [0, 0, 0, 7]\nclass = Plain", fillcolor="#d739e5"] ;
37 -> 38 ;
39 [label="gini = 0.0\nsamples = 1\nvalue = [1, 0, 0, 0]\nclass = Polystyrene", fillcolor="#e58139"] ;
37 -> 39 ;
40 [label="z487 <= 10509.897\ngini = 0.444\nsamples = 10\nvalue = [0, 6, 12, 0]\nclass = Sunscreen", fillcolor="#9ccef2"] ;
32 -> 40 ;
41 [label="z389 <= 10938.285\ngini = 0.142\nsamples = 7\nvalue = [0, 1, 12, 0]\nclass = Sunscreen", fillcolor="#49a5e7"] ;
40 -> 41 ;
42 [label="gini = 0.0\nsamples = 5\nvalue = [0, 0, 9, 0]\nclass = Sunscreen", fillcolor="#399de5"] ;
41 -> 42 ;
43 [label="z416 <= -41.302\ngini = 0.375\nsamples = 2\nvalue = [0, 1, 3, 0]\nclass = Sunscreen", fillcolor="#7bbeee"] ;
41 -> 43 ;
44 [label="gini = 0.0\nsamples = 1\nvalue = [0, 0, 3, 0]\nclass = Sunscreen", fillcolor="#399de5"] ;
43 -> 44 ;
45 [label="gini = 0.0\nsamples = 1\nvalue = [0, 1, 0, 0]\nclass = Nitrate", fillcolor="#47e539"] ;
43 -> 45 ;
46 [label="gini = 0.0\nsamples = 3\nvalue = [0, 5, 0, 0]\nclass = Nitrate", fillcolor="#47e539"] ;
40 -> 46 ;
}