digraph Tree {
node [shape=box, style="filled, rounded", color="black", fontname="helvetica"] ;
edge [fontname="helvetica"] ;
0 [label="z471 <= 4307.811\ngini = 0.689\nsamples = 214\nvalue = [114, 105, 92, 13]\nclass = Polystyrene", fillcolor="#fefaf7"] ;
1 [label="Φ30 <= -35.055\ngini = 0.506\nsamples = 103\nvalue = [1, 81, 76, 0]\nclass = Nitrate", fillcolor="#f4fdf3"] ;
0 -> 1 [labeldistance=2.5, labelangle=45, headlabel="True"] ;
2 [label="gini = 0.0\nsamples = 32\nvalue = [0, 50, 0, 0]\nclass = Nitrate", fillcolor="#47e539"] ;
1 -> 2 ;
3 [label="Φ367 <= 707.735\ngini = 0.422\nsamples = 71\nvalue = [1, 31, 76, 0]\nclass = Sunscreen", fillcolor="#8bc6f0"] ;
1 -> 3 ;
4 [label="gini = 0.0\nsamples = 7\nvalue = [0, 8, 0, 0]\nclass = Nitrate", fillcolor="#47e539"] ;
3 -> 4 ;
5 [label="Φ14 <= -7.904\ngini = 0.369\nsamples = 64\nvalue = [1, 23, 76, 0]\nclass = Sunscreen", fillcolor="#77bced"] ;
3 -> 5 ;
6 [label="Φ10 <= -14.148\ngini = 0.313\nsamples = 60\nvalue = [1, 17, 76, 0]\nclass = Sunscreen", fillcolor="#67b4eb"] ;
5 -> 6 ;
7 [label="z80 <= -41.191\ngini = 0.461\nsamples = 36\nvalue = [1, 17, 35, 0]\nclass = Sunscreen", fillcolor="#9ccef2"] ;
6 -> 7 ;
8 [label="z483 <= 4277.932\ngini = 0.064\nsamples = 19\nvalue = [1, 0, 29, 0]\nclass = Sunscreen", fillcolor="#40a0e6"] ;
7 -> 8 ;
9 [label="gini = 0.0\nsamples = 18\nvalue = [0, 0, 29, 0]\nclass = Sunscreen", fillcolor="#399de5"] ;
8 -> 9 ;
10 [label="gini = 0.0\nsamples = 1\nvalue = [1, 0, 0, 0]\nclass = Polystyrene", fillcolor="#e58139"] ;
8 -> 10 ;
11 [label="z239 <= 4759.064\ngini = 0.386\nsamples = 17\nvalue = [0, 17, 6, 0]\nclass = Nitrate", fillcolor="#88ee7f"] ;
7 -> 11 ;
12 [label="gini = 0.0\nsamples = 13\nvalue = [0, 17, 0, 0]\nclass = Nitrate", fillcolor="#47e539"] ;
11 -> 12 ;
13 [label="gini = 0.0\nsamples = 4\nvalue = [0, 0, 6, 0]\nclass = Sunscreen", fillcolor="#399de5"] ;
11 -> 13 ;
14 [label="gini = 0.0\nsamples = 24\nvalue = [0, 0, 41, 0]\nclass = Sunscreen", fillcolor="#399de5"] ;
6 -> 14 ;
15 [label="gini = 0.0\nsamples = 4\nvalue = [0, 6, 0, 0]\nclass = Nitrate", fillcolor="#47e539"] ;
5 -> 15 ;
16 [label="z98 <= -48.508\ngini = 0.5\nsamples = 111\nvalue = [113, 24, 16, 13]\nclass = Polystyrene", fillcolor="#efb083"] ;
0 -> 16 [labeldistance=2.5, labelangle=-45, headlabel="False"] ;
17 [label="z417 <= 14440.796\ngini = 0.553\nsamples = 12\nvalue = [0, 12, 7, 2]\nclass = Nitrate", fillcolor="#bdf6b8"] ;
16 -> 17 ;
18 [label="Φ416 <= -39.201\ngini = 0.346\nsamples = 6\nvalue = [0, 0, 7, 2]\nclass = Sunscreen", fillcolor="#72b9ec"] ;
17 -> 18 ;
19 [label="gini = 0.0\nsamples = 4\nvalue = [0, 0, 7, 0]\nclass = Sunscreen", fillcolor="#399de5"] ;
18 -> 19 ;
20 [label="gini = 0.0\nsamples = 2\nvalue = [0, 0, 0, 2]\nclass = Plain", fillcolor="#d739e5"] ;
18 -> 20 ;
21 [label="gini = 0.0\nsamples = 6\nvalue = [0, 12, 0, 0]\nclass = Nitrate", fillcolor="#47e539"] ;
17 -> 21 ;
22 [label="z284 <= -40.775\ngini = 0.376\nsamples = 99\nvalue = [113, 12, 9, 11]\nclass = Polystyrene", fillcolor="#eb9f69"] ;
16 -> 22 ;
23 [label="z127 <= 5228.37\ngini = 0.267\nsamples = 90\nvalue = [113, 9, 0, 11]\nclass = Polystyrene", fillcolor="#e99659"] ;
22 -> 23 ;
24 [label="z281 <= 4790.416\ngini = 0.645\nsamples = 22\nvalue = [15, 9, 0, 9]\nclass = Polystyrene", fillcolor="#f8e0ce"] ;
23 -> 24 ;
25 [label="z276 <= -43.375\ngini = 0.469\nsamples = 17\nvalue = [15, 9, 0, 0]\nclass = Polystyrene", fillcolor="#f5cdb0"] ;
24 -> 25 ;
26 [label="gini = 0.0\nsamples = 6\nvalue = [0, 9, 0, 0]\nclass = Nitrate", fillcolor="#47e539"] ;
25 -> 26 ;
27 [label="gini = 0.0\nsamples = 11\nvalue = [15, 0, 0, 0]\nclass = Polystyrene", fillcolor="#e58139"] ;
25 -> 27 ;
28 [label="gini = 0.0\nsamples = 5\nvalue = [0, 0, 0, 9]\nclass = Plain", fillcolor="#d739e5"] ;
24 -> 28 ;
29 [label="z158 <= -44.298\ngini = 0.039\nsamples = 68\nvalue = [98, 0, 0, 2]\nclass = Polystyrene", fillcolor="#e6843d"] ;
23 -> 29 ;
30 [label="Φ271 <= 18191.243\ngini = 0.219\nsamples = 10\nvalue = [14, 0, 0, 2]\nclass = Polystyrene", fillcolor="#e99355"] ;
29 -> 30 ;
31 [label="gini = 0.0\nsamples = 2\nvalue = [0, 0, 0, 2]\nclass = Plain", fillcolor="#d739e5"] ;
30 -> 31 ;
32 [label="gini = 0.0\nsamples = 8\nvalue = [14, 0, 0, 0]\nclass = Polystyrene", fillcolor="#e58139"] ;
30 -> 32 ;
33 [label="gini = 0.0\nsamples = 58\nvalue = [84, 0, 0, 0]\nclass = Polystyrene", fillcolor="#e58139"] ;
29 -> 33 ;
34 [label="z419 <= 10745.645\ngini = 0.375\nsamples = 9\nvalue = [0, 3, 9, 0]\nclass = Sunscreen", fillcolor="#7bbeee"] ;
22 -> 34 ;
35 [label="gini = 0.0\nsamples = 5\nvalue = [0, 0, 8, 0]\nclass = Sunscreen", fillcolor="#399de5"] ;
34 -> 35 ;
36 [label="Φ326 <= -21.763\ngini = 0.375\nsamples = 4\nvalue = [0, 3, 1, 0]\nclass = Nitrate", fillcolor="#84ee7b"] ;
34 -> 36 ;
37 [label="gini = 0.0\nsamples = 1\nvalue = [0, 0, 1, 0]\nclass = Sunscreen", fillcolor="#399de5"] ;
36 -> 37 ;
38 [label="gini = 0.0\nsamples = 3\nvalue = [0, 3, 0, 0]\nclass = Nitrate", fillcolor="#47e539"] ;
36 -> 38 ;
}