digraph Tree {
node [shape=box, style="filled, rounded", color="black", fontname="helvetica"] ;
edge [fontname="helvetica"] ;
0 [label="z229 <= 4837.652\ngini = 0.676\nsamples = 204\nvalue = [132, 102, 78, 12]\nclass = Polystyrene", fillcolor="#fbeee4"] ;
1 [label="z175 <= 694.119\ngini = 0.497\nsamples = 96\nvalue = [1, 87, 66, 0]\nclass = Nitrate", fillcolor="#d3f9d0"] ;
0 -> 1 [labeldistance=2.5, labelangle=45, headlabel="True"] ;
2 [label="gini = 0.0\nsamples = 30\nvalue = [0, 51, 0, 0]\nclass = Nitrate", fillcolor="#47e539"] ;
1 -> 2 ;
3 [label="Φ124 <= -36.42\ngini = 0.467\nsamples = 66\nvalue = [1, 36, 66, 0]\nclass = Sunscreen", fillcolor="#a6d3f3"] ;
1 -> 3 ;
4 [label="gini = 0.0\nsamples = 9\nvalue = [0, 14, 0, 0]\nclass = Nitrate", fillcolor="#47e539"] ;
3 -> 4 ;
5 [label="Φ132 <= -8.858\ngini = 0.389\nsamples = 57\nvalue = [1, 22, 66, 0]\nclass = Sunscreen", fillcolor="#7dbfee"] ;
3 -> 5 ;
6 [label="Φ6 <= -32.561\ngini = 0.495\nsamples = 35\nvalue = [1, 22, 34, 0]\nclass = Sunscreen", fillcolor="#bbddf6"] ;
5 -> 6 ;
7 [label="z463 <= 4021.861\ngini = 0.229\nsamples = 24\nvalue = [1, 4, 34, 0]\nclass = Sunscreen", fillcolor="#55abe9"] ;
6 -> 7 ;
8 [label="gini = 0.0\nsamples = 2\nvalue = [0, 3, 0, 0]\nclass = Nitrate", fillcolor="#47e539"] ;
7 -> 8 ;
9 [label="Φ376 <= -39.506\ngini = 0.106\nsamples = 22\nvalue = [1, 1, 34, 0]\nclass = Sunscreen", fillcolor="#44a3e6"] ;
7 -> 9 ;
10 [label="gini = 0.0\nsamples = 1\nvalue = [0, 1, 0, 0]\nclass = Nitrate", fillcolor="#47e539"] ;
9 -> 10 ;
11 [label="Φ26 <= -34.928\ngini = 0.056\nsamples = 21\nvalue = [1, 0, 34, 0]\nclass = Sunscreen", fillcolor="#3fa0e6"] ;
9 -> 11 ;
12 [label="gini = 0.0\nsamples = 1\nvalue = [1, 0, 0, 0]\nclass = Polystyrene", fillcolor="#e58139"] ;
11 -> 12 ;
13 [label="gini = 0.0\nsamples = 20\nvalue = [0, 0, 34, 0]\nclass = Sunscreen", fillcolor="#399de5"] ;
11 -> 13 ;
14 [label="gini = 0.0\nsamples = 11\nvalue = [0, 18, 0, 0]\nclass = Nitrate", fillcolor="#47e539"] ;
6 -> 14 ;
15 [label="gini = 0.0\nsamples = 22\nvalue = [0, 0, 32, 0]\nclass = Sunscreen", fillcolor="#399de5"] ;
5 -> 15 ;
16 [label="z294 <= -40.938\ngini = 0.388\nsamples = 108\nvalue = [131, 15, 12, 12]\nclass = Polystyrene", fillcolor="#eca16b"] ;
0 -> 16 [labeldistance=2.5, labelangle=-45, headlabel="False"] ;
17 [label="Φ105 <= 23940.206\ngini = 0.294\nsamples = 101\nvalue = [131, 9, 5, 12]\nclass = Polystyrene", fillcolor="#ea985d"] ;
16 -> 17 ;
18 [label="z426 <= -43.668\ngini = 0.188\nsamples = 92\nvalue = [131, 3, 0, 12]\nclass = Polystyrene", fillcolor="#e88f4f"] ;
17 -> 18 ;
19 [label="z408 <= -51.584\ngini = 0.124\nsamples = 88\nvalue = [129, 3, 0, 6]\nclass = Polystyrene", fillcolor="#e78a46"] ;
18 -> 19 ;
20 [label="Φ363 <= 17204.324\ngini = 0.328\nsamples = 16\nvalue = [23, 0, 0, 6]\nclass = Polystyrene", fillcolor="#eca26d"] ;
19 -> 20 ;
21 [label="gini = 0.0\nsamples = 3\nvalue = [0, 0, 0, 6]\nclass = Plain", fillcolor="#d739e5"] ;
20 -> 21 ;
22 [label="gini = 0.0\nsamples = 13\nvalue = [23, 0, 0, 0]\nclass = Polystyrene", fillcolor="#e58139"] ;
20 -> 22 ;
23 [label="z275 <= 4765.14\ngini = 0.054\nsamples = 72\nvalue = [106, 3, 0, 0]\nclass = Polystyrene", fillcolor="#e6853f"] ;
19 -> 23 ;
24 [label="z180 <= -42.1\ngini = 0.469\nsamples = 5\nvalue = [5, 3, 0, 0]\nclass = Polystyrene", fillcolor="#f5cdb0"] ;
23 -> 24 ;
25 [label="gini = 0.0\nsamples = 2\nvalue = [0, 3, 0, 0]\nclass = Nitrate", fillcolor="#47e539"] ;
24 -> 25 ;
26 [label="gini = 0.0\nsamples = 3\nvalue = [5, 0, 0, 0]\nclass = Polystyrene", fillcolor="#e58139"] ;
24 -> 26 ;
27 [label="gini = 0.0\nsamples = 67\nvalue = [101, 0, 0, 0]\nclass = Polystyrene", fillcolor="#e58139"] ;
23 -> 27 ;
28 [label="Φ489 <= 5781.114\ngini = 0.375\nsamples = 4\nvalue = [2, 0, 0, 6]\nclass = Plain", fillcolor="#e47bee"] ;
18 -> 28 ;
29 [label="gini = 0.0\nsamples = 3\nvalue = [0, 0, 0, 6]\nclass = Plain", fillcolor="#d739e5"] ;
28 -> 29 ;
30 [label="gini = 0.0\nsamples = 1\nvalue = [2, 0, 0, 0]\nclass = Polystyrene", fillcolor="#e58139"] ;
28 -> 30 ;
31 [label="z47 <= 19071.187\ngini = 0.496\nsamples = 9\nvalue = [0, 6, 5, 0]\nclass = Nitrate", fillcolor="#e0fbde"] ;
17 -> 31 ;
32 [label="gini = 0.0\nsamples = 5\nvalue = [0, 0, 5, 0]\nclass = Sunscreen", fillcolor="#399de5"] ;
31 -> 32 ;
33 [label="gini = 0.0\nsamples = 4\nvalue = [0, 6, 0, 0]\nclass = Nitrate", fillcolor="#47e539"] ;
31 -> 33 ;
34 [label="z489 <= 10468.485\ngini = 0.497\nsamples = 7\nvalue = [0, 6, 7, 0]\nclass = Sunscreen", fillcolor="#e3f1fb"] ;
16 -> 34 ;
35 [label="gini = 0.0\nsamples = 4\nvalue = [0, 0, 7, 0]\nclass = Sunscreen", fillcolor="#399de5"] ;
34 -> 35 ;
36 [label="gini = 0.0\nsamples = 3\nvalue = [0, 6, 0, 0]\nclass = Nitrate", fillcolor="#47e539"] ;
34 -> 36 ;
}