digraph Tree {
node [shape=box, style="filled, rounded", color="black", fontname="helvetica"] ;
edge [fontname="helvetica"] ;
0 [label="z329 <= 4597.501\ngini = 0.673\nsamples = 203\nvalue = [124, 102, 92, 6]\nclass = Polystyrene", fillcolor="#fcf3eb"] ;
1 [label="Φ242 <= -6.741\ngini = 0.51\nsamples = 102\nvalue = [2, 85, 74, 0]\nclass = Nitrate", fillcolor="#e8fce6"] ;
0 -> 1 [labeldistance=2.5, labelangle=45, headlabel="True"] ;
2 [label="Φ335 <= 6211.631\ngini = 0.437\nsamples = 76\nvalue = [2, 85, 36, 0]\nclass = Nitrate", fillcolor="#97f08f"] ;
1 -> 2 ;
3 [label="z324 <= -43.858\ngini = 0.124\nsamples = 56\nvalue = [0, 84, 6, 0]\nclass = Nitrate", fillcolor="#54e747"] ;
2 -> 3 ;
4 [label="Φ11 <= 9676.132\ngini = 0.375\nsamples = 4\nvalue = [0, 1, 3, 0]\nclass = Sunscreen", fillcolor="#7bbeee"] ;
3 -> 4 ;
5 [label="gini = 0.0\nsamples = 1\nvalue = [0, 1, 0, 0]\nclass = Nitrate", fillcolor="#47e539"] ;
4 -> 5 ;
6 [label="gini = 0.0\nsamples = 3\nvalue = [0, 0, 3, 0]\nclass = Sunscreen", fillcolor="#399de5"] ;
4 -> 6 ;
7 [label="z162 <= -42.079\ngini = 0.067\nsamples = 52\nvalue = [0, 83, 3, 0]\nclass = Nitrate", fillcolor="#4ee640"] ;
3 -> 7 ;
8 [label="gini = 0.0\nsamples = 2\nvalue = [0, 0, 2, 0]\nclass = Sunscreen", fillcolor="#399de5"] ;
7 -> 8 ;
9 [label="z369 <= 4463.123\ngini = 0.024\nsamples = 50\nvalue = [0, 83, 1, 0]\nclass = Nitrate", fillcolor="#49e53b"] ;
7 -> 9 ;
10 [label="gini = 0.0\nsamples = 49\nvalue = [0, 83, 0, 0]\nclass = Nitrate", fillcolor="#47e539"] ;
9 -> 10 ;
11 [label="gini = 0.0\nsamples = 1\nvalue = [0, 0, 1, 0]\nclass = Sunscreen", fillcolor="#399de5"] ;
9 -> 11 ;
12 [label="z239 <= 4821.316\ngini = 0.169\nsamples = 20\nvalue = [2, 1, 30, 0]\nclass = Sunscreen", fillcolor="#4ca6e8"] ;
2 -> 12 ;
13 [label="z439 <= 4254.158\ngini = 0.062\nsamples = 18\nvalue = [0, 1, 30, 0]\nclass = Sunscreen", fillcolor="#40a0e6"] ;
12 -> 13 ;
14 [label="gini = 0.0\nsamples = 1\nvalue = [0, 1, 0, 0]\nclass = Nitrate", fillcolor="#47e539"] ;
13 -> 14 ;
15 [label="gini = 0.0\nsamples = 17\nvalue = [0, 0, 30, 0]\nclass = Sunscreen", fillcolor="#399de5"] ;
13 -> 15 ;
16 [label="gini = 0.0\nsamples = 2\nvalue = [2, 0, 0, 0]\nclass = Polystyrene", fillcolor="#e58139"] ;
12 -> 16 ;
17 [label="gini = 0.0\nsamples = 26\nvalue = [0, 0, 38, 0]\nclass = Sunscreen", fillcolor="#399de5"] ;
1 -> 17 ;
18 [label="Φ429 <= 18290.896\ngini = 0.415\nsamples = 101\nvalue = [122, 17, 18, 6]\nclass = Polystyrene", fillcolor="#eca571"] ;
0 -> 18 [labeldistance=2.5, labelangle=-45, headlabel="False"] ;
19 [label="z466 <= -44.015\ngini = 0.274\nsamples = 90\nvalue = [122, 8, 8, 6]\nclass = Polystyrene", fillcolor="#e99559"] ;
18 -> 19 ;
20 [label="z191 <= 4987.122\ngini = 0.117\nsamples = 81\nvalue = [122, 6, 1, 1]\nclass = Polystyrene", fillcolor="#e78946"] ;
19 -> 20 ;
21 [label="z426 <= -44.65\ngini = 0.432\nsamples = 12\nvalue = [13, 6, 0, 0]\nclass = Polystyrene", fillcolor="#f1bb94"] ;
20 -> 21 ;
22 [label="gini = 0.0\nsamples = 4\nvalue = [0, 6, 0, 0]\nclass = Nitrate", fillcolor="#47e539"] ;
21 -> 22 ;
23 [label="gini = 0.0\nsamples = 8\nvalue = [13, 0, 0, 0]\nclass = Polystyrene", fillcolor="#e58139"] ;
21 -> 23 ;
24 [label="z186 <= -37.96\ngini = 0.036\nsamples = 69\nvalue = [109, 0, 1, 1]\nclass = Polystyrene", fillcolor="#e5833d"] ;
20 -> 24 ;
25 [label="z124 <= -43.306\ngini = 0.018\nsamples = 68\nvalue = [109, 0, 0, 1]\nclass = Polystyrene", fillcolor="#e5823b"] ;
24 -> 25 ;
26 [label="z232 <= -47.186\ngini = 0.444\nsamples = 3\nvalue = [2, 0, 0, 1]\nclass = Polystyrene", fillcolor="#f2c09c"] ;
25 -> 26 ;
27 [label="gini = 0.0\nsamples = 2\nvalue = [2, 0, 0, 0]\nclass = Polystyrene", fillcolor="#e58139"] ;
26 -> 27 ;
28 [label="gini = 0.0\nsamples = 1\nvalue = [0, 0, 0, 1]\nclass = Plain", fillcolor="#d739e5"] ;
26 -> 28 ;
29 [label="gini = 0.0\nsamples = 65\nvalue = [107, 0, 0, 0]\nclass = Polystyrene", fillcolor="#e58139"] ;
25 -> 29 ;
30 [label="gini = 0.0\nsamples = 1\nvalue = [0, 0, 1, 0]\nclass = Sunscreen", fillcolor="#399de5"] ;
24 -> 30 ;
31 [label="Φ13 <= 9799.105\ngini = 0.602\nsamples = 9\nvalue = [0, 2, 7, 5]\nclass = Sunscreen", fillcolor="#d3e9f9"] ;
19 -> 31 ;
32 [label="gini = 0.0\nsamples = 4\nvalue = [0, 0, 7, 0]\nclass = Sunscreen", fillcolor="#399de5"] ;
31 -> 32 ;
33 [label="z228 <= -38.388\ngini = 0.408\nsamples = 5\nvalue = [0, 2, 0, 5]\nclass = Plain", fillcolor="#e788ef"] ;
31 -> 33 ;
34 [label="gini = 0.0\nsamples = 3\nvalue = [0, 0, 0, 5]\nclass = Plain", fillcolor="#d739e5"] ;
33 -> 34 ;
35 [label="gini = 0.0\nsamples = 2\nvalue = [0, 2, 0, 0]\nclass = Nitrate", fillcolor="#47e539"] ;
33 -> 35 ;
36 [label="z217 <= 16776.878\ngini = 0.499\nsamples = 11\nvalue = [0, 9, 10, 0]\nclass = Sunscreen", fillcolor="#ebf5fc"] ;
18 -> 36 ;
37 [label="gini = 0.0\nsamples = 5\nvalue = [0, 0, 10, 0]\nclass = Sunscreen", fillcolor="#399de5"] ;
36 -> 37 ;
38 [label="gini = 0.0\nsamples = 6\nvalue = [0, 9, 0, 0]\nclass = Nitrate", fillcolor="#47e539"] ;
36 -> 38 ;
}