digraph Tree {
node [shape=box, style="filled, rounded", color="black", fontname="helvetica"] ;
edge [fontname="helvetica"] ;
0 [label="z251 <= 4783.925\ngini = 0.678\nsamples = 204\nvalue = [132, 91, 89, 12]\nclass = Polystyrene", fillcolor="#fae9dc"] ;
1 [label="Φ202 <= -6.691\ngini = 0.498\nsamples = 90\nvalue = [0, 73, 64, 0]\nclass = Nitrate", fillcolor="#e8fce7"] ;
0 -> 1 [labeldistance=2.5, labelangle=45, headlabel="True"] ;
2 [label="Φ137 <= 7478.065\ngini = 0.394\nsamples = 65\nvalue = [0, 73, 27, 0]\nclass = Nitrate", fillcolor="#8bef82"] ;
1 -> 2 ;
3 [label="gini = 0.0\nsamples = 40\nvalue = [0, 63, 0, 0]\nclass = Nitrate", fillcolor="#47e539"] ;
2 -> 3 ;
4 [label="Φ104 <= -35.043\ngini = 0.394\nsamples = 25\nvalue = [0, 10, 27, 0]\nclass = Sunscreen", fillcolor="#82c1ef"] ;
2 -> 4 ;
5 [label="z130 <= -42.799\ngini = 0.225\nsamples = 21\nvalue = [0, 4, 27, 0]\nclass = Sunscreen", fillcolor="#56ace9"] ;
4 -> 5 ;
6 [label="gini = 0.0\nsamples = 3\nvalue = [0, 4, 0, 0]\nclass = Nitrate", fillcolor="#47e539"] ;
5 -> 6 ;
7 [label="gini = 0.0\nsamples = 18\nvalue = [0, 0, 27, 0]\nclass = Sunscreen", fillcolor="#399de5"] ;
5 -> 7 ;
8 [label="gini = 0.0\nsamples = 4\nvalue = [0, 6, 0, 0]\nclass = Nitrate", fillcolor="#47e539"] ;
4 -> 8 ;
9 [label="gini = 0.0\nsamples = 25\nvalue = [0, 0, 37, 0]\nclass = Sunscreen", fillcolor="#399de5"] ;
1 -> 9 ;
10 [label="z142 <= -48.855\ngini = 0.47\nsamples = 114\nvalue = [132, 18, 25, 12]\nclass = Polystyrene", fillcolor="#eeac7c"] ;
0 -> 10 [labeldistance=2.5, labelangle=-45, headlabel="False"] ;
11 [label="Φ489 <= 21032.568\ngini = 0.483\nsamples = 11\nvalue = [0, 9, 13, 0]\nclass = Sunscreen", fillcolor="#c2e1f7"] ;
10 -> 11 ;
12 [label="gini = 0.0\nsamples = 5\nvalue = [0, 0, 13, 0]\nclass = Sunscreen", fillcolor="#399de5"] ;
11 -> 12 ;
13 [label="gini = 0.0\nsamples = 6\nvalue = [0, 9, 0, 0]\nclass = Nitrate", fillcolor="#47e539"] ;
11 -> 13 ;
14 [label="z284 <= -40.94\ngini = 0.346\nsamples = 103\nvalue = [132, 9, 12, 12]\nclass = Polystyrene", fillcolor="#eb9c64"] ;
10 -> 14 ;
15 [label="z482 <= -44.104\ngini = 0.247\nsamples = 95\nvalue = [132, 7, 2, 12]\nclass = Polystyrene", fillcolor="#e99456"] ;
14 -> 15 ;
16 [label="Φ394 <= -38.701\ngini = 0.172\nsamples = 88\nvalue = [128, 7, 2, 4]\nclass = Polystyrene", fillcolor="#e88d4c"] ;
15 -> 16 ;
17 [label="z353 <= 4614.725\ngini = 0.576\nsamples = 14\nvalue = [10, 7, 2, 0]\nclass = Polystyrene", fillcolor="#f8e0ce"] ;
16 -> 17 ;
18 [label="Φ454 <= -39.996\ngini = 0.346\nsamples = 7\nvalue = [0, 7, 2, 0]\nclass = Nitrate", fillcolor="#7cec72"] ;
17 -> 18 ;
19 [label="gini = 0.0\nsamples = 2\nvalue = [0, 0, 2, 0]\nclass = Sunscreen", fillcolor="#399de5"] ;
18 -> 19 ;
20 [label="gini = 0.0\nsamples = 5\nvalue = [0, 7, 0, 0]\nclass = Nitrate", fillcolor="#47e539"] ;
18 -> 20 ;
21 [label="gini = 0.0\nsamples = 7\nvalue = [10, 0, 0, 0]\nclass = Polystyrene", fillcolor="#e58139"] ;
17 -> 21 ;
22 [label="z94 <= -41.582\ngini = 0.063\nsamples = 74\nvalue = [118, 0, 0, 4]\nclass = Polystyrene", fillcolor="#e68540"] ;
16 -> 22 ;
23 [label="z167 <= 14065.619\ngini = 0.269\nsamples = 13\nvalue = [21, 0, 0, 4]\nclass = Polystyrene", fillcolor="#ea995f"] ;
22 -> 23 ;
24 [label="gini = 0.0\nsamples = 2\nvalue = [0, 0, 0, 4]\nclass = Plain", fillcolor="#d739e5"] ;
23 -> 24 ;
25 [label="gini = 0.0\nsamples = 11\nvalue = [21, 0, 0, 0]\nclass = Polystyrene", fillcolor="#e58139"] ;
23 -> 25 ;
26 [label="gini = 0.0\nsamples = 61\nvalue = [97, 0, 0, 0]\nclass = Polystyrene", fillcolor="#e58139"] ;
22 -> 26 ;
27 [label="Φ112 <= -34.952\ngini = 0.444\nsamples = 7\nvalue = [4, 0, 0, 8]\nclass = Plain", fillcolor="#eb9cf2"] ;
15 -> 27 ;
28 [label="gini = 0.0\nsamples = 5\nvalue = [0, 0, 0, 8]\nclass = Plain", fillcolor="#d739e5"] ;
27 -> 28 ;
29 [label="gini = 0.0\nsamples = 2\nvalue = [4, 0, 0, 0]\nclass = Polystyrene", fillcolor="#e58139"] ;
27 -> 29 ;
30 [label="z165 <= 12211.153\ngini = 0.278\nsamples = 8\nvalue = [0, 2, 10, 0]\nclass = Sunscreen", fillcolor="#61b1ea"] ;
14 -> 30 ;
31 [label="Φ48 <= -156.789\ngini = 0.165\nsamples = 7\nvalue = [0, 1, 10, 0]\nclass = Sunscreen", fillcolor="#4da7e8"] ;
30 -> 31 ;
32 [label="gini = 0.0\nsamples = 1\nvalue = [0, 1, 0, 0]\nclass = Nitrate", fillcolor="#47e539"] ;
31 -> 32 ;
33 [label="gini = 0.0\nsamples = 6\nvalue = [0, 0, 10, 0]\nclass = Sunscreen", fillcolor="#399de5"] ;
31 -> 33 ;
34 [label="gini = 0.0\nsamples = 1\nvalue = [0, 1, 0, 0]\nclass = Nitrate", fillcolor="#47e539"] ;
30 -> 34 ;
}