digraph Tree {
node [shape=box, style="filled, rounded", color="black", fontname="helvetica"] ;
edge [fontname="helvetica"] ;
0 [label="z457 <= 4324.131\ngini = 0.673\nsamples = 200\nvalue = [125, 110, 81, 8]\nclass = Polystyrene", fillcolor="#fdf6f1"] ;
1 [label="Φ236 <= -6.823\ngini = 0.492\nsamples = 90\nvalue = [0, 85, 66, 0]\nclass = Nitrate", fillcolor="#d6f9d3"] ;
0 -> 1 [labeldistance=2.5, labelangle=45, headlabel="True"] ;
2 [label="z211 <= 4816.913\ngini = 0.386\nsamples = 67\nvalue = [0, 85, 30, 0]\nclass = Nitrate", fillcolor="#88ee7f"] ;
1 -> 2 ;
3 [label="z190 <= -42.331\ngini = 0.159\nsamples = 55\nvalue = [0, 84, 8, 0]\nclass = Nitrate", fillcolor="#59e74c"] ;
2 -> 3 ;
4 [label="Φ232 <= -37.533\ngini = 0.494\nsamples = 11\nvalue = [0, 10, 8, 0]\nclass = Nitrate", fillcolor="#dafad7"] ;
3 -> 4 ;
5 [label="gini = 0.0\nsamples = 5\nvalue = [0, 10, 0, 0]\nclass = Nitrate", fillcolor="#47e539"] ;
4 -> 5 ;
6 [label="gini = 0.0\nsamples = 6\nvalue = [0, 0, 8, 0]\nclass = Sunscreen", fillcolor="#399de5"] ;
4 -> 6 ;
7 [label="gini = 0.0\nsamples = 44\nvalue = [0, 74, 0, 0]\nclass = Nitrate", fillcolor="#47e539"] ;
3 -> 7 ;
8 [label="Φ83 <= 8716.557\ngini = 0.083\nsamples = 12\nvalue = [0, 1, 22, 0]\nclass = Sunscreen", fillcolor="#42a1e6"] ;
2 -> 8 ;
9 [label="gini = 0.0\nsamples = 11\nvalue = [0, 0, 22, 0]\nclass = Sunscreen", fillcolor="#399de5"] ;
8 -> 9 ;
10 [label="gini = 0.0\nsamples = 1\nvalue = [0, 1, 0, 0]\nclass = Nitrate", fillcolor="#47e539"] ;
8 -> 10 ;
11 [label="gini = 0.0\nsamples = 23\nvalue = [0, 0, 36, 0]\nclass = Sunscreen", fillcolor="#399de5"] ;
1 -> 11 ;
12 [label="Φ412 <= -38.94\ngini = 0.447\nsamples = 110\nvalue = [125, 25, 15, 8]\nclass = Polystyrene", fillcolor="#edaa79"] ;
0 -> 12 [labeldistance=2.5, labelangle=-45, headlabel="False"] ;
13 [label="Φ140 <= -35.549\ngini = 0.564\nsamples = 19\nvalue = [7, 19, 6, 0]\nclass = Nitrate", fillcolor="#a7f3a0"] ;
12 -> 13 ;
14 [label="gini = 0.0\nsamples = 4\nvalue = [6, 0, 0, 0]\nclass = Polystyrene", fillcolor="#e58139"] ;
13 -> 14 ;
15 [label="z301 <= 15794.81\ngini = 0.411\nsamples = 15\nvalue = [1, 19, 6, 0]\nclass = Nitrate", fillcolor="#87ee7e"] ;
13 -> 15 ;
16 [label="z490 <= -45.459\ngini = 0.551\nsamples = 8\nvalue = [1, 8, 6, 0]\nclass = Nitrate", fillcolor="#d6f9d3"] ;
15 -> 16 ;
17 [label="Φ241 <= 14528.513\ngini = 0.245\nsamples = 5\nvalue = [1, 0, 6, 0]\nclass = Sunscreen", fillcolor="#5aade9"] ;
16 -> 17 ;
18 [label="gini = 0.0\nsamples = 1\nvalue = [1, 0, 0, 0]\nclass = Polystyrene", fillcolor="#e58139"] ;
17 -> 18 ;
19 [label="gini = 0.0\nsamples = 4\nvalue = [0, 0, 6, 0]\nclass = Sunscreen", fillcolor="#399de5"] ;
17 -> 19 ;
20 [label="gini = 0.0\nsamples = 3\nvalue = [0, 8, 0, 0]\nclass = Nitrate", fillcolor="#47e539"] ;
16 -> 20 ;
21 [label="gini = 0.0\nsamples = 7\nvalue = [0, 11, 0, 0]\nclass = Nitrate", fillcolor="#47e539"] ;
15 -> 21 ;
22 [label="Φ250 <= -19.488\ngini = 0.291\nsamples = 91\nvalue = [118, 6, 9, 8]\nclass = Polystyrene", fillcolor="#ea975c"] ;
12 -> 22 ;
23 [label="z80 <= -312.167\ngini = 0.146\nsamples = 83\nvalue = [118, 1, 1, 8]\nclass = Polystyrene", fillcolor="#e78c4a"] ;
22 -> 23 ;
24 [label="gini = 0.0\nsamples = 1\nvalue = [0, 0, 0, 4]\nclass = Plain", fillcolor="#d739e5"] ;
23 -> 24 ;
25 [label="Φ261 <= 6692.395\ngini = 0.093\nsamples = 82\nvalue = [118, 1, 1, 4]\nclass = Polystyrene", fillcolor="#e68743"] ;
23 -> 25 ;
26 [label="gini = 0.0\nsamples = 1\nvalue = [0, 0, 1, 0]\nclass = Sunscreen", fillcolor="#399de5"] ;
25 -> 26 ;
27 [label="z144 <= -43.838\ngini = 0.079\nsamples = 81\nvalue = [118, 1, 0, 4]\nclass = Polystyrene", fillcolor="#e68641"] ;
25 -> 27 ;
28 [label="z420 <= -52.272\ngini = 0.397\nsamples = 8\nvalue = [8, 0, 0, 3]\nclass = Polystyrene", fillcolor="#efb083"] ;
27 -> 28 ;
29 [label="gini = 0.0\nsamples = 5\nvalue = [8, 0, 0, 0]\nclass = Polystyrene", fillcolor="#e58139"] ;
28 -> 29 ;
30 [label="gini = 0.0\nsamples = 3\nvalue = [0, 0, 0, 3]\nclass = Plain", fillcolor="#d739e5"] ;
28 -> 30 ;
31 [label="z408 <= -43.552\ngini = 0.035\nsamples = 73\nvalue = [110, 1, 0, 1]\nclass = Polystyrene", fillcolor="#e5833d"] ;
27 -> 31 ;
32 [label="Φ470 <= -39.802\ngini = 0.018\nsamples = 71\nvalue = [109, 1, 0, 0]\nclass = Polystyrene", fillcolor="#e5823b"] ;
31 -> 32 ;
33 [label="z494 <= -49.089\ngini = 0.375\nsamples = 3\nvalue = [3, 1, 0, 0]\nclass = Polystyrene", fillcolor="#eeab7b"] ;
32 -> 33 ;
34 [label="gini = 0.0\nsamples = 2\nvalue = [3, 0, 0, 0]\nclass = Polystyrene", fillcolor="#e58139"] ;
33 -> 34 ;
35 [label="gini = 0.0\nsamples = 1\nvalue = [0, 1, 0, 0]\nclass = Nitrate", fillcolor="#47e539"] ;
33 -> 35 ;
36 [label="gini = 0.0\nsamples = 68\nvalue = [106, 0, 0, 0]\nclass = Polystyrene", fillcolor="#e58139"] ;
32 -> 36 ;
37 [label="Φ145 <= 7915.196\ngini = 0.5\nsamples = 2\nvalue = [1, 0, 0, 1]\nclass = Polystyrene", fillcolor="#ffffff"] ;
31 -> 37 ;
38 [label="gini = 0.0\nsamples = 1\nvalue = [0, 0, 0, 1]\nclass = Plain", fillcolor="#d739e5"] ;
37 -> 38 ;
39 [label="gini = 0.0\nsamples = 1\nvalue = [1, 0, 0, 0]\nclass = Polystyrene", fillcolor="#e58139"] ;
37 -> 39 ;
40 [label="z447 <= 10712.034\ngini = 0.473\nsamples = 8\nvalue = [0, 5, 8, 0]\nclass = Sunscreen", fillcolor="#b5daf5"] ;
22 -> 40 ;
41 [label="gini = 0.0\nsamples = 6\nvalue = [0, 0, 8, 0]\nclass = Sunscreen", fillcolor="#399de5"] ;
40 -> 41 ;
42 [label="gini = 0.0\nsamples = 2\nvalue = [0, 5, 0, 0]\nclass = Nitrate", fillcolor="#47e539"] ;
40 -> 42 ;
}