digraph Tree {
node [shape=box, style="filled, rounded", color="black", fontname="helvetica"] ;
edge [fontname="helvetica"] ;
0 [label="z239 <= 4821.163\ngini = 0.679\nsamples = 213\nvalue = [123, 109, 81, 11]\nclass = Polystyrene", fillcolor="#fdf7f2"] ;
1 [label="Φ294 <= -6.87\ngini = 0.482\nsamples = 98\nvalue = [0, 87, 59, 0]\nclass = Nitrate", fillcolor="#c4f7bf"] ;
0 -> 1 [labeldistance=2.5, labelangle=45, headlabel="True"] ;
2 [label="z357 <= 4487.967\ngini = 0.361\nsamples = 74\nvalue = [0, 87, 27, 0]\nclass = Nitrate", fillcolor="#80ed76"] ;
1 -> 2 ;
3 [label="z387 <= 4280.562\ngini = 0.239\nsamples = 64\nvalue = [0, 87, 14, 0]\nclass = Nitrate", fillcolor="#65e959"] ;
2 -> 3 ;
4 [label="Φ172 <= -6.427\ngini = 0.079\nsamples = 46\nvalue = [0, 70, 3, 0]\nclass = Nitrate", fillcolor="#4fe641"] ;
3 -> 4 ;
5 [label="gini = 0.0\nsamples = 45\nvalue = [0, 70, 0, 0]\nclass = Nitrate", fillcolor="#47e539"] ;
4 -> 5 ;
6 [label="gini = 0.0\nsamples = 1\nvalue = [0, 0, 3, 0]\nclass = Sunscreen", fillcolor="#399de5"] ;
4 -> 6 ;
7 [label="Φ113 <= 7826.736\ngini = 0.477\nsamples = 18\nvalue = [0, 17, 11, 0]\nclass = Nitrate", fillcolor="#bef6b9"] ;
3 -> 7 ;
8 [label="gini = 0.0\nsamples = 4\nvalue = [0, 0, 6, 0]\nclass = Sunscreen", fillcolor="#399de5"] ;
7 -> 8 ;
9 [label="z284 <= -43.452\ngini = 0.351\nsamples = 14\nvalue = [0, 17, 5, 0]\nclass = Nitrate", fillcolor="#7ded73"] ;
7 -> 9 ;
10 [label="Φ68 <= -35.416\ngini = 0.486\nsamples = 8\nvalue = [0, 7, 5, 0]\nclass = Nitrate", fillcolor="#caf8c6"] ;
9 -> 10 ;
11 [label="gini = 0.0\nsamples = 4\nvalue = [0, 7, 0, 0]\nclass = Nitrate", fillcolor="#47e539"] ;
10 -> 11 ;
12 [label="gini = 0.0\nsamples = 4\nvalue = [0, 0, 5, 0]\nclass = Sunscreen", fillcolor="#399de5"] ;
10 -> 12 ;
13 [label="gini = 0.0\nsamples = 6\nvalue = [0, 10, 0, 0]\nclass = Nitrate", fillcolor="#47e539"] ;
9 -> 13 ;
14 [label="gini = 0.0\nsamples = 10\nvalue = [0, 0, 13, 0]\nclass = Sunscreen", fillcolor="#399de5"] ;
2 -> 14 ;
15 [label="gini = 0.0\nsamples = 24\nvalue = [0, 0, 32, 0]\nclass = Sunscreen", fillcolor="#399de5"] ;
1 -> 15 ;
16 [label="z276 <= -40.907\ngini = 0.488\nsamples = 115\nvalue = [123, 22, 22, 11]\nclass = Polystyrene", fillcolor="#eead7f"] ;
0 -> 16 [labeldistance=2.5, labelangle=-45, headlabel="False"] ;
17 [label="Φ404 <= -38.915\ngini = 0.337\nsamples = 102\nvalue = [123, 16, 3, 11]\nclass = Polystyrene", fillcolor="#eb9d64"] ;
16 -> 17 ;
18 [label="Φ190 <= -27.434\ngini = 0.291\nsamples = 13\nvalue = [0, 14, 3, 0]\nclass = Nitrate", fillcolor="#6eeb63"] ;
17 -> 18 ;
19 [label="Φ336 <= -39.627\ngini = 0.219\nsamples = 12\nvalue = [0, 14, 2, 0]\nclass = Nitrate", fillcolor="#61e955"] ;
18 -> 19 ;
20 [label="z249 <= 16908.458\ngini = 0.444\nsamples = 5\nvalue = [0, 4, 2, 0]\nclass = Nitrate", fillcolor="#a3f29c"] ;
19 -> 20 ;
21 [label="gini = 0.0\nsamples = 2\nvalue = [0, 0, 2, 0]\nclass = Sunscreen", fillcolor="#399de5"] ;
20 -> 21 ;
22 [label="gini = 0.0\nsamples = 3\nvalue = [0, 4, 0, 0]\nclass = Nitrate", fillcolor="#47e539"] ;
20 -> 22 ;
23 [label="gini = 0.0\nsamples = 7\nvalue = [0, 10, 0, 0]\nclass = Nitrate", fillcolor="#47e539"] ;
19 -> 23 ;
24 [label="gini = 0.0\nsamples = 1\nvalue = [0, 0, 1, 0]\nclass = Sunscreen", fillcolor="#399de5"] ;
18 -> 24 ;
25 [label="z500 <= -44.095\ngini = 0.175\nsamples = 89\nvalue = [123, 2, 0, 11]\nclass = Polystyrene", fillcolor="#e88e4e"] ;
17 -> 25 ;
26 [label="z402 <= -54.059\ngini = 0.119\nsamples = 85\nvalue = [120, 2, 0, 6]\nclass = Polystyrene", fillcolor="#e78946"] ;
25 -> 26 ;
27 [label="z457 <= 12243.54\ngini = 0.32\nsamples = 3\nvalue = [1, 0, 0, 4]\nclass = Plain", fillcolor="#e16aec"] ;
26 -> 27 ;
28 [label="gini = 0.0\nsamples = 2\nvalue = [0, 0, 0, 4]\nclass = Plain", fillcolor="#d739e5"] ;
27 -> 28 ;
29 [label="gini = 0.0\nsamples = 1\nvalue = [1, 0, 0, 0]\nclass = Polystyrene", fillcolor="#e58139"] ;
27 -> 29 ;
30 [label="z6 <= -40.333\ngini = 0.063\nsamples = 82\nvalue = [119, 2, 0, 2]\nclass = Polystyrene", fillcolor="#e68540"] ;
26 -> 30 ;
31 [label="z205 <= 4962.687\ngini = 0.298\nsamples = 7\nvalue = [9, 2, 0, 0]\nclass = Polystyrene", fillcolor="#eb9d65"] ;
30 -> 31 ;
32 [label="gini = 0.0\nsamples = 2\nvalue = [0, 2, 0, 0]\nclass = Nitrate", fillcolor="#47e539"] ;
31 -> 32 ;
33 [label="gini = 0.0\nsamples = 5\nvalue = [9, 0, 0, 0]\nclass = Polystyrene", fillcolor="#e58139"] ;
31 -> 33 ;
34 [label="z228 <= -46.594\ngini = 0.035\nsamples = 75\nvalue = [110, 0, 0, 2]\nclass = Polystyrene", fillcolor="#e5833d"] ;
30 -> 34 ;
35 [label="Φ123 <= 19222.598\ngini = 0.375\nsamples = 4\nvalue = [6, 0, 0, 2]\nclass = Polystyrene", fillcolor="#eeab7b"] ;
34 -> 35 ;
36 [label="gini = 0.0\nsamples = 1\nvalue = [0, 0, 0, 2]\nclass = Plain", fillcolor="#d739e5"] ;
35 -> 36 ;
37 [label="gini = 0.0\nsamples = 3\nvalue = [6, 0, 0, 0]\nclass = Polystyrene", fillcolor="#e58139"] ;
35 -> 37 ;
38 [label="gini = 0.0\nsamples = 71\nvalue = [104, 0, 0, 0]\nclass = Polystyrene", fillcolor="#e58139"] ;
34 -> 38 ;
39 [label="Φ502 <= -38.903\ngini = 0.469\nsamples = 4\nvalue = [3, 0, 0, 5]\nclass = Plain", fillcolor="#efb0f5"] ;
25 -> 39 ;
40 [label="gini = 0.0\nsamples = 3\nvalue = [0, 0, 0, 5]\nclass = Plain", fillcolor="#d739e5"] ;
39 -> 40 ;
41 [label="gini = 0.0\nsamples = 1\nvalue = [3, 0, 0, 0]\nclass = Polystyrene", fillcolor="#e58139"] ;
39 -> 41 ;
42 [label="z421 <= 10818.779\ngini = 0.365\nsamples = 13\nvalue = [0, 6, 19, 0]\nclass = Sunscreen", fillcolor="#78bced"] ;
16 -> 42 ;
43 [label="gini = 0.0\nsamples = 8\nvalue = [0, 0, 17, 0]\nclass = Sunscreen", fillcolor="#399de5"] ;
42 -> 43 ;
44 [label="Φ378 <= -23.931\ngini = 0.375\nsamples = 5\nvalue = [0, 6, 2, 0]\nclass = Nitrate", fillcolor="#84ee7b"] ;
42 -> 44 ;
45 [label="gini = 0.0\nsamples = 1\nvalue = [0, 0, 2, 0]\nclass = Sunscreen", fillcolor="#399de5"] ;
44 -> 45 ;
46 [label="gini = 0.0\nsamples = 4\nvalue = [0, 6, 0, 0]\nclass = Nitrate", fillcolor="#47e539"] ;
44 -> 46 ;
}