digraph Tree {
node [shape=box, style="filled, rounded", color="black", fontname="helvetica"] ;
edge [fontname="helvetica"] ;
0 [label="z461 <= 4318.187\ngini = 0.676\nsamples = 197\nvalue = [130, 98, 86, 10]\nclass = Polystyrene", fillcolor="#fbede3"] ;
1 [label="Φ198 <= -6.655\ngini = 0.5\nsamples = 95\nvalue = [0, 83, 79, 0]\nclass = Nitrate", fillcolor="#f6fef5"] ;
0 -> 1 [labeldistance=2.5, labelangle=45, headlabel="True"] ;
2 [label="Φ197 <= 6960.579\ngini = 0.404\nsamples = 67\nvalue = [0, 82, 32, 0]\nclass = Nitrate", fillcolor="#8fef86"] ;
1 -> 2 ;
3 [label="gini = 0.0\nsamples = 38\nvalue = [0, 68, 0, 0]\nclass = Nitrate", fillcolor="#47e539"] ;
2 -> 3 ;
4 [label="Φ14 <= -34.253\ngini = 0.423\nsamples = 29\nvalue = [0, 14, 32, 0]\nclass = Sunscreen", fillcolor="#90c8f0"] ;
2 -> 4 ;
5 [label="Φ302 <= -38.721\ngini = 0.175\nsamples = 20\nvalue = [0, 3, 28, 0]\nclass = Sunscreen", fillcolor="#4ea8e8"] ;
4 -> 5 ;
6 [label="gini = 0.0\nsamples = 2\nvalue = [0, 3, 0, 0]\nclass = Nitrate", fillcolor="#47e539"] ;
5 -> 6 ;
7 [label="gini = 0.0\nsamples = 18\nvalue = [0, 0, 28, 0]\nclass = Sunscreen", fillcolor="#399de5"] ;
5 -> 7 ;
8 [label="Φ189 <= 7342.189\ngini = 0.391\nsamples = 9\nvalue = [0, 11, 4, 0]\nclass = Nitrate", fillcolor="#8aee81"] ;
4 -> 8 ;
9 [label="z415 <= 4262.656\ngini = 0.26\nsamples = 8\nvalue = [0, 11, 2, 0]\nclass = Nitrate", fillcolor="#68ea5d"] ;
8 -> 9 ;
10 [label="gini = 0.0\nsamples = 1\nvalue = [0, 0, 1, 0]\nclass = Sunscreen", fillcolor="#399de5"] ;
9 -> 10 ;
11 [label="z175 <= 4872.932\ngini = 0.153\nsamples = 7\nvalue = [0, 11, 1, 0]\nclass = Nitrate", fillcolor="#58e74b"] ;
9 -> 11 ;
12 [label="z295 <= 4562.783\ngini = 0.375\nsamples = 3\nvalue = [0, 3, 1, 0]\nclass = Nitrate", fillcolor="#84ee7b"] ;
11 -> 12 ;
13 [label="gini = 0.0\nsamples = 2\nvalue = [0, 3, 0, 0]\nclass = Nitrate", fillcolor="#47e539"] ;
12 -> 13 ;
14 [label="gini = 0.0\nsamples = 1\nvalue = [0, 0, 1, 0]\nclass = Sunscreen", fillcolor="#399de5"] ;
12 -> 14 ;
15 [label="gini = 0.0\nsamples = 4\nvalue = [0, 8, 0, 0]\nclass = Nitrate", fillcolor="#47e539"] ;
11 -> 15 ;
16 [label="gini = 0.0\nsamples = 1\nvalue = [0, 0, 2, 0]\nclass = Sunscreen", fillcolor="#399de5"] ;
8 -> 16 ;
17 [label="z84 <= -9.856\ngini = 0.041\nsamples = 28\nvalue = [0, 1, 47, 0]\nclass = Sunscreen", fillcolor="#3d9fe6"] ;
1 -> 17 ;
18 [label="gini = 0.0\nsamples = 1\nvalue = [0, 1, 0, 0]\nclass = Nitrate", fillcolor="#47e539"] ;
17 -> 18 ;
19 [label="gini = 0.0\nsamples = 27\nvalue = [0, 0, 47, 0]\nclass = Sunscreen", fillcolor="#399de5"] ;
17 -> 19 ;
20 [label="Φ256 <= -19.85\ngini = 0.342\nsamples = 102\nvalue = [130, 15, 7, 10]\nclass = Polystyrene", fillcolor="#eb9c64"] ;
0 -> 20 [labeldistance=2.5, labelangle=-45, headlabel="False"] ;
21 [label="z144 <= -43.838\ngini = 0.251\nsamples = 93\nvalue = [130, 9, 2, 10]\nclass = Polystyrene", fillcolor="#e99456"] ;
20 -> 21 ;
22 [label="z291 <= 13330.342\ngini = 0.655\nsamples = 13\nvalue = [9, 2, 2, 7]\nclass = Polystyrene", fillcolor="#fbece1"] ;
21 -> 22 ;
23 [label="gini = 0.0\nsamples = 3\nvalue = [0, 0, 0, 7]\nclass = Plain", fillcolor="#d739e5"] ;
22 -> 23 ;
24 [label="Φ94 <= -18.509\ngini = 0.473\nsamples = 10\nvalue = [9, 2, 2, 0]\nclass = Polystyrene", fillcolor="#eeaf81"] ;
22 -> 24 ;
25 [label="Φ491 <= 21306.175\ngini = 0.5\nsamples = 4\nvalue = [0, 2, 2, 0]\nclass = Nitrate", fillcolor="#ffffff"] ;
24 -> 25 ;
26 [label="gini = 0.0\nsamples = 2\nvalue = [0, 0, 2, 0]\nclass = Sunscreen", fillcolor="#399de5"] ;
25 -> 26 ;
27 [label="gini = 0.0\nsamples = 2\nvalue = [0, 2, 0, 0]\nclass = Nitrate", fillcolor="#47e539"] ;
25 -> 27 ;
28 [label="gini = 0.0\nsamples = 6\nvalue = [9, 0, 0, 0]\nclass = Polystyrene", fillcolor="#e58139"] ;
24 -> 28 ;
29 [label="z24 <= -40.541\ngini = 0.143\nsamples = 80\nvalue = [121, 7, 0, 3]\nclass = Polystyrene", fillcolor="#e78b49"] ;
21 -> 29 ;
30 [label="z374 <= -44.198\ngini = 0.498\nsamples = 11\nvalue = [8, 7, 0, 0]\nclass = Polystyrene", fillcolor="#fcefe6"] ;
29 -> 30 ;
31 [label="gini = 0.0\nsamples = 7\nvalue = [8, 0, 0, 0]\nclass = Polystyrene", fillcolor="#e58139"] ;
30 -> 31 ;
32 [label="gini = 0.0\nsamples = 4\nvalue = [0, 7, 0, 0]\nclass = Nitrate", fillcolor="#47e539"] ;
30 -> 32 ;
33 [label="z48 <= -177.239\ngini = 0.05\nsamples = 69\nvalue = [113, 0, 0, 3]\nclass = Polystyrene", fillcolor="#e6843e"] ;
29 -> 33 ;
34 [label="z434 <= -44.068\ngini = 0.444\nsamples = 2\nvalue = [1, 0, 0, 2]\nclass = Plain", fillcolor="#eb9cf2"] ;
33 -> 34 ;
35 [label="gini = 0.0\nsamples = 1\nvalue = [1, 0, 0, 0]\nclass = Polystyrene", fillcolor="#e58139"] ;
34 -> 35 ;
36 [label="gini = 0.0\nsamples = 1\nvalue = [0, 0, 0, 2]\nclass = Plain", fillcolor="#d739e5"] ;
34 -> 36 ;
37 [label="z370 <= -42.986\ngini = 0.018\nsamples = 67\nvalue = [112, 0, 0, 1]\nclass = Polystyrene", fillcolor="#e5823b"] ;
33 -> 37 ;
38 [label="gini = 0.0\nsamples = 65\nvalue = [111, 0, 0, 0]\nclass = Polystyrene", fillcolor="#e58139"] ;
37 -> 38 ;
39 [label="Φ430 <= -38.094\ngini = 0.5\nsamples = 2\nvalue = [1, 0, 0, 1]\nclass = Polystyrene", fillcolor="#ffffff"] ;
37 -> 39 ;
40 [label="gini = 0.0\nsamples = 1\nvalue = [0, 0, 0, 1]\nclass = Plain", fillcolor="#d739e5"] ;
39 -> 40 ;
41 [label="gini = 0.0\nsamples = 1\nvalue = [1, 0, 0, 0]\nclass = Polystyrene", fillcolor="#e58139"] ;
39 -> 41 ;
42 [label="z433 <= 10752.105\ngini = 0.496\nsamples = 9\nvalue = [0, 6, 5, 0]\nclass = Nitrate", fillcolor="#e0fbde"] ;
20 -> 42 ;
43 [label="gini = 0.0\nsamples = 5\nvalue = [0, 0, 5, 0]\nclass = Sunscreen", fillcolor="#399de5"] ;
42 -> 43 ;
44 [label="gini = 0.0\nsamples = 4\nvalue = [0, 6, 0, 0]\nclass = Nitrate", fillcolor="#47e539"] ;
42 -> 44 ;
}