digraph Tree {
node [shape=box, style="filled, rounded", color="black", fontname="helvetica"] ;
edge [fontname="helvetica"] ;
0 [label="z363 <= 4528.944\ngini = 0.671\nsamples = 207\nvalue = [127, 117, 68, 12]\nclass = Polystyrene", fillcolor="#fef9f5"] ;
1 [label="Φ292 <= -6.886\ngini = 0.461\nsamples = 102\nvalue = [0, 103, 58, 0]\nclass = Nitrate", fillcolor="#aff4a8"] ;
0 -> 1 [labeldistance=2.5, labelangle=45, headlabel="True"] ;
2 [label="z209 <= 4680.304\ngini = 0.343\nsamples = 80\nvalue = [0, 103, 29, 0]\nclass = Nitrate", fillcolor="#7bec71"] ;
1 -> 2 ;
3 [label="gini = 0.0\nsamples = 53\nvalue = [0, 94, 0, 0]\nclass = Nitrate", fillcolor="#47e539"] ;
2 -> 3 ;
4 [label="Φ66 <= -34.522\ngini = 0.361\nsamples = 27\nvalue = [0, 9, 29, 0]\nclass = Sunscreen", fillcolor="#76bbed"] ;
2 -> 4 ;
5 [label="Φ364 <= -39.196\ngini = 0.17\nsamples = 22\nvalue = [0, 3, 29, 0]\nclass = Sunscreen", fillcolor="#4da7e8"] ;
4 -> 5 ;
6 [label="gini = 0.0\nsamples = 2\nvalue = [0, 3, 0, 0]\nclass = Nitrate", fillcolor="#47e539"] ;
5 -> 6 ;
7 [label="gini = 0.0\nsamples = 20\nvalue = [0, 0, 29, 0]\nclass = Sunscreen", fillcolor="#399de5"] ;
5 -> 7 ;
8 [label="gini = 0.0\nsamples = 5\nvalue = [0, 6, 0, 0]\nclass = Nitrate", fillcolor="#47e539"] ;
4 -> 8 ;
9 [label="gini = 0.0\nsamples = 22\nvalue = [0, 0, 29, 0]\nclass = Sunscreen", fillcolor="#399de5"] ;
1 -> 9 ;
10 [label="Φ506 <= -40.207\ngini = 0.376\nsamples = 105\nvalue = [127, 14, 10, 12]\nclass = Polystyrene", fillcolor="#eb9f69"] ;
0 -> 10 [labeldistance=2.5, labelangle=-45, headlabel="False"] ;
11 [label="z40 <= -50.685\ngini = 0.642\nsamples = 18\nvalue = [7, 11, 6, 0]\nclass = Nitrate", fillcolor="#d4f9d0"] ;
10 -> 11 ;
12 [label="Φ182 <= -35.738\ngini = 0.375\nsamples = 4\nvalue = [0, 2, 6, 0]\nclass = Sunscreen", fillcolor="#7bbeee"] ;
11 -> 12 ;
13 [label="gini = 0.0\nsamples = 1\nvalue = [0, 2, 0, 0]\nclass = Nitrate", fillcolor="#47e539"] ;
12 -> 13 ;
14 [label="gini = 0.0\nsamples = 3\nvalue = [0, 0, 6, 0]\nclass = Sunscreen", fillcolor="#399de5"] ;
12 -> 14 ;
15 [label="z464 <= -45.262\ngini = 0.492\nsamples = 14\nvalue = [7, 9, 0, 0]\nclass = Nitrate", fillcolor="#d6f9d3"] ;
11 -> 15 ;
16 [label="z252 <= -53.613\ngini = 0.42\nsamples = 9\nvalue = [7, 3, 0, 0]\nclass = Polystyrene", fillcolor="#f0b78e"] ;
15 -> 16 ;
17 [label="gini = 0.0\nsamples = 3\nvalue = [0, 3, 0, 0]\nclass = Nitrate", fillcolor="#47e539"] ;
16 -> 17 ;
18 [label="gini = 0.0\nsamples = 6\nvalue = [7, 0, 0, 0]\nclass = Polystyrene", fillcolor="#e58139"] ;
16 -> 18 ;
19 [label="gini = 0.0\nsamples = 5\nvalue = [0, 6, 0, 0]\nclass = Nitrate", fillcolor="#47e539"] ;
15 -> 19 ;
20 [label="z378 <= -43.141\ngini = 0.246\nsamples = 87\nvalue = [120, 3, 4, 12]\nclass = Polystyrene", fillcolor="#e99457"] ;
10 -> 20 ;
21 [label="z148 <= -44.379\ngini = 0.106\nsamples = 78\nvalue = [119, 0, 1, 6]\nclass = Polystyrene", fillcolor="#e78845"] ;
20 -> 21 ;
22 [label="gini = 0.0\nsamples = 2\nvalue = [0, 0, 0, 5]\nclass = Plain", fillcolor="#d739e5"] ;
21 -> 22 ;
23 [label="z181 <= 4956.04\ngini = 0.033\nsamples = 76\nvalue = [119, 0, 1, 1]\nclass = Polystyrene", fillcolor="#e5833c"] ;
21 -> 23 ;
24 [label="gini = 0.0\nsamples = 1\nvalue = [0, 0, 1, 0]\nclass = Sunscreen", fillcolor="#399de5"] ;
23 -> 24 ;
25 [label="z74 <= -41.807\ngini = 0.017\nsamples = 75\nvalue = [119, 0, 0, 1]\nclass = Polystyrene", fillcolor="#e5823b"] ;
23 -> 25 ;
26 [label="z442 <= -53.196\ngini = 0.375\nsamples = 2\nvalue = [3, 0, 0, 1]\nclass = Polystyrene", fillcolor="#eeab7b"] ;
25 -> 26 ;
27 [label="gini = 0.0\nsamples = 1\nvalue = [3, 0, 0, 0]\nclass = Polystyrene", fillcolor="#e58139"] ;
26 -> 27 ;
28 [label="gini = 0.0\nsamples = 1\nvalue = [0, 0, 0, 1]\nclass = Plain", fillcolor="#d739e5"] ;
26 -> 28 ;
29 [label="gini = 0.0\nsamples = 73\nvalue = [116, 0, 0, 0]\nclass = Polystyrene", fillcolor="#e58139"] ;
25 -> 29 ;
30 [label="z397 <= 4623.254\ngini = 0.675\nsamples = 9\nvalue = [1, 3, 3, 6]\nclass = Plain", fillcolor="#f3c4f7"] ;
20 -> 30 ;
31 [label="gini = 0.0\nsamples = 3\nvalue = [0, 0, 0, 6]\nclass = Plain", fillcolor="#d739e5"] ;
30 -> 31 ;
32 [label="z211 <= 11927.972\ngini = 0.612\nsamples = 6\nvalue = [1, 3, 3, 0]\nclass = Nitrate", fillcolor="#ffffff"] ;
30 -> 32 ;
33 [label="z507 <= 4721.036\ngini = 0.56\nsamples = 5\nvalue = [1, 1, 3, 0]\nclass = Sunscreen", fillcolor="#9ccef2"] ;
32 -> 33 ;
34 [label="gini = 0.0\nsamples = 1\nvalue = [1, 0, 0, 0]\nclass = Polystyrene", fillcolor="#e58139"] ;
33 -> 34 ;
35 [label="z457 <= 10591.603\ngini = 0.375\nsamples = 4\nvalue = [0, 1, 3, 0]\nclass = Sunscreen", fillcolor="#7bbeee"] ;
33 -> 35 ;
36 [label="gini = 0.0\nsamples = 3\nvalue = [0, 0, 3, 0]\nclass = Sunscreen", fillcolor="#399de5"] ;
35 -> 36 ;
37 [label="gini = 0.0\nsamples = 1\nvalue = [0, 1, 0, 0]\nclass = Nitrate", fillcolor="#47e539"] ;
35 -> 37 ;
38 [label="gini = 0.0\nsamples = 1\nvalue = [0, 2, 0, 0]\nclass = Nitrate", fillcolor="#47e539"] ;
32 -> 38 ;
}