digraph Tree {
node [shape=box, style="filled, rounded", color="black", fontname="helvetica"] ;
edge [fontname="helvetica"] ;
0 [label="z85 <= 5239.061\ngini = 0.686\nsamples = 205\nvalue = [121, 108, 80, 15]\nclass = Polystyrene", fillcolor="#fdf7f3"] ;
1 [label="Φ384 <= -6.19\ngini = 0.498\nsamples = 96\nvalue = [1, 87, 67, 0]\nclass = Nitrate", fillcolor="#d5f9d2"] ;
0 -> 1 [labeldistance=2.5, labelangle=45, headlabel="True"] ;
2 [label="z307 <= 4448.076\ngini = 0.428\nsamples = 78\nvalue = [1, 87, 37, 0]\nclass = Nitrate", fillcolor="#96f08e"] ;
1 -> 2 ;
3 [label="Φ248 <= -6.767\ngini = 0.176\nsamples = 48\nvalue = [0, 74, 8, 0]\nclass = Nitrate", fillcolor="#5be84e"] ;
2 -> 3 ;
4 [label="gini = 0.0\nsamples = 44\nvalue = [0, 74, 0, 0]\nclass = Nitrate", fillcolor="#47e539"] ;
3 -> 4 ;
5 [label="gini = 0.0\nsamples = 4\nvalue = [0, 0, 8, 0]\nclass = Sunscreen", fillcolor="#399de5"] ;
3 -> 5 ;
6 [label="Φ170 <= -35.51\ngini = 0.453\nsamples = 30\nvalue = [1, 13, 29, 0]\nclass = Sunscreen", fillcolor="#95cbf1"] ;
2 -> 6 ;
7 [label="z310 <= -44.905\ngini = 0.264\nsamples = 23\nvalue = [1, 4, 28, 0]\nclass = Sunscreen", fillcolor="#5baee9"] ;
6 -> 7 ;
8 [label="gini = 0.0\nsamples = 3\nvalue = [0, 4, 0, 0]\nclass = Nitrate", fillcolor="#47e539"] ;
7 -> 8 ;
9 [label="Φ26 <= -34.903\ngini = 0.067\nsamples = 20\nvalue = [1, 0, 28, 0]\nclass = Sunscreen", fillcolor="#40a0e6"] ;
7 -> 9 ;
10 [label="gini = 0.0\nsamples = 1\nvalue = [1, 0, 0, 0]\nclass = Polystyrene", fillcolor="#e58139"] ;
9 -> 10 ;
11 [label="gini = 0.0\nsamples = 19\nvalue = [0, 0, 28, 0]\nclass = Sunscreen", fillcolor="#399de5"] ;
9 -> 11 ;
12 [label="z161 <= 4960.472\ngini = 0.18\nsamples = 7\nvalue = [0, 9, 1, 0]\nclass = Nitrate", fillcolor="#5be84f"] ;
6 -> 12 ;
13 [label="gini = 0.0\nsamples = 6\nvalue = [0, 9, 0, 0]\nclass = Nitrate", fillcolor="#47e539"] ;
12 -> 13 ;
14 [label="gini = 0.0\nsamples = 1\nvalue = [0, 0, 1, 0]\nclass = Sunscreen", fillcolor="#399de5"] ;
12 -> 14 ;
15 [label="gini = 0.0\nsamples = 18\nvalue = [0, 0, 30, 0]\nclass = Sunscreen", fillcolor="#399de5"] ;
1 -> 15 ;
16 [label="Φ428 <= -39.174\ngini = 0.467\nsamples = 109\nvalue = [120, 21, 13, 15]\nclass = Polystyrene", fillcolor="#eeab7b"] ;
0 -> 16 [labeldistance=2.5, labelangle=-45, headlabel="False"] ;
17 [label="Φ507 <= 20560.104\ngini = 0.552\nsamples = 17\nvalue = [4, 14, 5, 0]\nclass = Nitrate", fillcolor="#a3f29c"] ;
16 -> 17 ;
18 [label="z330 <= -43.931\ngini = 0.658\nsamples = 11\nvalue = [4, 6, 5, 0]\nclass = Nitrate", fillcolor="#edfceb"] ;
17 -> 18 ;
19 [label="z497 <= 12079.429\ngini = 0.494\nsamples = 8\nvalue = [4, 0, 5, 0]\nclass = Sunscreen", fillcolor="#d7ebfa"] ;
18 -> 19 ;
20 [label="gini = 0.0\nsamples = 4\nvalue = [4, 0, 0, 0]\nclass = Polystyrene", fillcolor="#e58139"] ;
19 -> 20 ;
21 [label="gini = 0.0\nsamples = 4\nvalue = [0, 0, 5, 0]\nclass = Sunscreen", fillcolor="#399de5"] ;
19 -> 21 ;
22 [label="gini = 0.0\nsamples = 3\nvalue = [0, 6, 0, 0]\nclass = Nitrate", fillcolor="#47e539"] ;
18 -> 22 ;
23 [label="gini = 0.0\nsamples = 6\nvalue = [0, 8, 0, 0]\nclass = Nitrate", fillcolor="#47e539"] ;
17 -> 23 ;
24 [label="z372 <= -43.336\ngini = 0.353\nsamples = 92\nvalue = [116, 7, 8, 15]\nclass = Polystyrene", fillcolor="#eb9e66"] ;
16 -> 24 ;
25 [label="z240 <= -47.078\ngini = 0.164\nsamples = 79\nvalue = [113, 2, 0, 9]\nclass = Polystyrene", fillcolor="#e78d4c"] ;
24 -> 25 ;
26 [label="Φ345 <= 17675.645\ngini = 0.496\nsamples = 8\nvalue = [5, 0, 0, 6]\nclass = Plain", fillcolor="#f8defb"] ;
25 -> 26 ;
27 [label="gini = 0.0\nsamples = 3\nvalue = [0, 0, 0, 6]\nclass = Plain", fillcolor="#d739e5"] ;
26 -> 27 ;
28 [label="gini = 0.0\nsamples = 5\nvalue = [5, 0, 0, 0]\nclass = Polystyrene", fillcolor="#e58139"] ;
26 -> 28 ;
29 [label="z158 <= -44.358\ngini = 0.086\nsamples = 71\nvalue = [108, 2, 0, 3]\nclass = Polystyrene", fillcolor="#e68742"] ;
25 -> 29 ;
30 [label="z256 <= -47.421\ngini = 0.469\nsamples = 3\nvalue = [5, 0, 0, 3]\nclass = Polystyrene", fillcolor="#f5cdb0"] ;
29 -> 30 ;
31 [label="gini = 0.0\nsamples = 2\nvalue = [5, 0, 0, 0]\nclass = Polystyrene", fillcolor="#e58139"] ;
30 -> 31 ;
32 [label="gini = 0.0\nsamples = 1\nvalue = [0, 0, 0, 3]\nclass = Plain", fillcolor="#d739e5"] ;
30 -> 32 ;
33 [label="Φ354 <= -38.174\ngini = 0.037\nsamples = 68\nvalue = [103, 2, 0, 0]\nclass = Polystyrene", fillcolor="#e6833d"] ;
29 -> 33 ;
34 [label="z499 <= 4337.333\ngini = 0.5\nsamples = 4\nvalue = [2, 2, 0, 0]\nclass = Polystyrene", fillcolor="#ffffff"] ;
33 -> 34 ;
35 [label="gini = 0.0\nsamples = 2\nvalue = [0, 2, 0, 0]\nclass = Nitrate", fillcolor="#47e539"] ;
34 -> 35 ;
36 [label="gini = 0.0\nsamples = 2\nvalue = [2, 0, 0, 0]\nclass = Polystyrene", fillcolor="#e58139"] ;
34 -> 36 ;
37 [label="gini = 0.0\nsamples = 64\nvalue = [101, 0, 0, 0]\nclass = Polystyrene", fillcolor="#e58139"] ;
33 -> 37 ;
38 [label="Φ358 <= -37.488\ngini = 0.723\nsamples = 13\nvalue = [3, 5, 8, 6]\nclass = Sunscreen", fillcolor="#e6f3fc"] ;
24 -> 38 ;
39 [label="gini = 0.0\nsamples = 3\nvalue = [0, 0, 0, 6]\nclass = Plain", fillcolor="#d739e5"] ;
38 -> 39 ;
40 [label="Φ510 <= -34.834\ngini = 0.617\nsamples = 10\nvalue = [3, 5, 8, 0]\nclass = Sunscreen", fillcolor="#c9e4f8"] ;
38 -> 40 ;
41 [label="gini = 0.0\nsamples = 2\nvalue = [3, 0, 0, 0]\nclass = Polystyrene", fillcolor="#e58139"] ;
40 -> 41 ;
42 [label="z511 <= 10438.402\ngini = 0.473\nsamples = 8\nvalue = [0, 5, 8, 0]\nclass = Sunscreen", fillcolor="#b5daf5"] ;
40 -> 42 ;
43 [label="gini = 0.0\nsamples = 5\nvalue = [0, 0, 8, 0]\nclass = Sunscreen", fillcolor="#399de5"] ;
42 -> 43 ;
44 [label="gini = 0.0\nsamples = 3\nvalue = [0, 5, 0, 0]\nclass = Nitrate", fillcolor="#47e539"] ;
42 -> 44 ;
}