digraph Tree {
node [shape=box, style="filled, rounded", color="black", fontname="helvetica"] ;
edge [fontname="helvetica"] ;
0 [label="z193 <= 4924.87\ngini = 0.679\nsamples = 198\nvalue = [113, 98, 106, 7]\nclass = Polystyrene", fillcolor="#fefbf9"] ;
1 [label="Φ220 <= -6.753\ngini = 0.499\nsamples = 92\nvalue = [0, 75, 82, 0]\nclass = Sunscreen", fillcolor="#eef7fd"] ;
0 -> 1 [labeldistance=2.5, labelangle=45, headlabel="True"] ;
2 [label="Φ511 <= 5283.765\ngini = 0.429\nsamples = 65\nvalue = [0, 75, 34, 0]\nclass = Nitrate", fillcolor="#9af193"] ;
1 -> 2 ;
3 [label="gini = 0.0\nsamples = 40\nvalue = [0, 66, 0, 0]\nclass = Nitrate", fillcolor="#47e539"] ;
2 -> 3 ;
4 [label="Φ186 <= -35.688\ngini = 0.331\nsamples = 25\nvalue = [0, 9, 34, 0]\nclass = Sunscreen", fillcolor="#6db7ec"] ;
2 -> 4 ;
5 [label="Φ420 <= -40.299\ngini = 0.153\nsamples = 20\nvalue = [0, 3, 33, 0]\nclass = Sunscreen", fillcolor="#4ba6e7"] ;
4 -> 5 ;
6 [label="gini = 0.0\nsamples = 1\nvalue = [0, 2, 0, 0]\nclass = Nitrate", fillcolor="#47e539"] ;
5 -> 6 ;
7 [label="Φ74 <= -34.119\ngini = 0.057\nsamples = 19\nvalue = [0, 1, 33, 0]\nclass = Sunscreen", fillcolor="#3fa0e6"] ;
5 -> 7 ;
8 [label="gini = 0.0\nsamples = 18\nvalue = [0, 0, 33, 0]\nclass = Sunscreen", fillcolor="#399de5"] ;
7 -> 8 ;
9 [label="gini = 0.0\nsamples = 1\nvalue = [0, 1, 0, 0]\nclass = Nitrate", fillcolor="#47e539"] ;
7 -> 9 ;
10 [label="Φ20 <= -33.957\ngini = 0.245\nsamples = 5\nvalue = [0, 6, 1, 0]\nclass = Nitrate", fillcolor="#66e95a"] ;
4 -> 10 ;
11 [label="gini = 0.0\nsamples = 1\nvalue = [0, 0, 1, 0]\nclass = Sunscreen", fillcolor="#399de5"] ;
10 -> 11 ;
12 [label="gini = 0.0\nsamples = 4\nvalue = [0, 6, 0, 0]\nclass = Nitrate", fillcolor="#47e539"] ;
10 -> 12 ;
13 [label="gini = 0.0\nsamples = 27\nvalue = [0, 0, 48, 0]\nclass = Sunscreen", fillcolor="#399de5"] ;
1 -> 13 ;
14 [label="z212 <= -38.546\ngini = 0.501\nsamples = 106\nvalue = [113, 23, 24, 7]\nclass = Polystyrene", fillcolor="#efb184"] ;
0 -> 14 [labeldistance=2.5, labelangle=-45, headlabel="False"] ;
15 [label="Φ380 <= -38.574\ngini = 0.39\nsamples = 94\nvalue = [113, 15, 12, 7]\nclass = Polystyrene", fillcolor="#eca16c"] ;
14 -> 15 ;
16 [label="Φ100 <= -34.922\ngini = 0.662\nsamples = 25\nvalue = [11, 14, 11, 0]\nclass = Nitrate", fillcolor="#e9fce7"] ;
15 -> 16 ;
17 [label="z67 <= 5344.463\ngini = 0.337\nsamples = 11\nvalue = [11, 0, 3, 0]\nclass = Polystyrene", fillcolor="#eca36f"] ;
16 -> 17 ;
18 [label="gini = 0.0\nsamples = 2\nvalue = [0, 0, 3, 0]\nclass = Sunscreen", fillcolor="#399de5"] ;
17 -> 18 ;
19 [label="gini = 0.0\nsamples = 9\nvalue = [11, 0, 0, 0]\nclass = Polystyrene", fillcolor="#e58139"] ;
17 -> 19 ;
20 [label="Φ384 <= -41.941\ngini = 0.463\nsamples = 14\nvalue = [0, 14, 8, 0]\nclass = Nitrate", fillcolor="#b0f4aa"] ;
16 -> 20 ;
21 [label="Φ316 <= -47.063\ngini = 0.32\nsamples = 5\nvalue = [0, 2, 8, 0]\nclass = Sunscreen", fillcolor="#6ab6ec"] ;
20 -> 21 ;
22 [label="gini = 0.0\nsamples = 1\nvalue = [0, 2, 0, 0]\nclass = Nitrate", fillcolor="#47e539"] ;
21 -> 22 ;
23 [label="gini = 0.0\nsamples = 4\nvalue = [0, 0, 8, 0]\nclass = Sunscreen", fillcolor="#399de5"] ;
21 -> 23 ;
24 [label="gini = 0.0\nsamples = 9\nvalue = [0, 12, 0, 0]\nclass = Nitrate", fillcolor="#47e539"] ;
20 -> 24 ;
25 [label="z200 <= -45.925\ngini = 0.151\nsamples = 69\nvalue = [102, 1, 1, 7]\nclass = Polystyrene", fillcolor="#e78c4a"] ;
15 -> 25 ;
26 [label="Φ137 <= 19256.947\ngini = 0.49\nsamples = 5\nvalue = [3, 0, 0, 4]\nclass = Plain", fillcolor="#f5cef8"] ;
25 -> 26 ;
27 [label="gini = 0.0\nsamples = 2\nvalue = [0, 0, 0, 4]\nclass = Plain", fillcolor="#d739e5"] ;
26 -> 27 ;
28 [label="gini = 0.0\nsamples = 3\nvalue = [3, 0, 0, 0]\nclass = Polystyrene", fillcolor="#e58139"] ;
26 -> 28 ;
29 [label="z350 <= -43.104\ngini = 0.093\nsamples = 64\nvalue = [99, 1, 1, 3]\nclass = Polystyrene", fillcolor="#e68743"] ;
25 -> 29 ;
30 [label="Φ474 <= -39.7\ngini = 0.02\nsamples = 59\nvalue = [97, 1, 0, 0]\nclass = Polystyrene", fillcolor="#e5823b"] ;
29 -> 30 ;
31 [label="gini = 0.0\nsamples = 1\nvalue = [0, 1, 0, 0]\nclass = Nitrate", fillcolor="#47e539"] ;
30 -> 31 ;
32 [label="gini = 0.0\nsamples = 58\nvalue = [97, 0, 0, 0]\nclass = Polystyrene", fillcolor="#e58139"] ;
30 -> 32 ;
33 [label="Φ51 <= 9277.775\ngini = 0.611\nsamples = 5\nvalue = [2, 0, 1, 3]\nclass = Plain", fillcolor="#f5cef8"] ;
29 -> 33 ;
34 [label="z237 <= 4864.416\ngini = 0.375\nsamples = 4\nvalue = [0, 0, 1, 3]\nclass = Plain", fillcolor="#e47bee"] ;
33 -> 34 ;
35 [label="gini = 0.0\nsamples = 1\nvalue = [0, 0, 1, 0]\nclass = Sunscreen", fillcolor="#399de5"] ;
34 -> 35 ;
36 [label="gini = 0.0\nsamples = 3\nvalue = [0, 0, 0, 3]\nclass = Plain", fillcolor="#d739e5"] ;
34 -> 36 ;
37 [label="gini = 0.0\nsamples = 1\nvalue = [2, 0, 0, 0]\nclass = Polystyrene", fillcolor="#e58139"] ;
33 -> 37 ;
38 [label="z389 <= 10938.285\ngini = 0.48\nsamples = 12\nvalue = [0, 8, 12, 0]\nclass = Sunscreen", fillcolor="#bddef6"] ;
14 -> 38 ;
39 [label="gini = 0.0\nsamples = 7\nvalue = [0, 0, 11, 0]\nclass = Sunscreen", fillcolor="#399de5"] ;
38 -> 39 ;
40 [label="Φ497 <= 13068.149\ngini = 0.198\nsamples = 5\nvalue = [0, 8, 1, 0]\nclass = Nitrate", fillcolor="#5ee852"] ;
38 -> 40 ;
41 [label="gini = 0.0\nsamples = 4\nvalue = [0, 8, 0, 0]\nclass = Nitrate", fillcolor="#47e539"] ;
40 -> 41 ;
42 [label="gini = 0.0\nsamples = 1\nvalue = [0, 0, 1, 0]\nclass = Sunscreen", fillcolor="#399de5"] ;
40 -> 42 ;
}