digraph Tree {
node [shape=box, style="filled, rounded", color="black", fontname="helvetica"] ;
edge [fontname="helvetica"] ;
0 [label="z355 <= 4532.942\ngini = 0.674\nsamples = 202\nvalue = [136, 95, 81, 12]\nclass = Polystyrene", fillcolor="#fae8dc"] ;
1 [label="Φ242 <= -6.695\ngini = 0.498\nsamples = 91\nvalue = [0, 79, 69, 0]\nclass = Nitrate", fillcolor="#e8fce6"] ;
0 -> 1 [labeldistance=2.5, labelangle=45, headlabel="True"] ;
2 [label="Φ243 <= 6550.25\ngini = 0.416\nsamples = 67\nvalue = [0, 79, 33, 0]\nclass = Nitrate", fillcolor="#94f08c"] ;
1 -> 2 ;
3 [label="gini = 0.0\nsamples = 41\nvalue = [0, 72, 0, 0]\nclass = Nitrate", fillcolor="#47e539"] ;
2 -> 3 ;
4 [label="Φ80 <= -34.497\ngini = 0.289\nsamples = 26\nvalue = [0, 7, 33, 0]\nclass = Sunscreen", fillcolor="#63b2eb"] ;
2 -> 4 ;
5 [label="Φ304 <= -38.551\ngini = 0.108\nsamples = 23\nvalue = [0, 2, 33, 0]\nclass = Sunscreen", fillcolor="#45a3e7"] ;
4 -> 5 ;
6 [label="gini = 0.0\nsamples = 2\nvalue = [0, 2, 0, 0]\nclass = Nitrate", fillcolor="#47e539"] ;
5 -> 6 ;
7 [label="gini = 0.0\nsamples = 21\nvalue = [0, 0, 33, 0]\nclass = Sunscreen", fillcolor="#399de5"] ;
5 -> 7 ;
8 [label="gini = 0.0\nsamples = 3\nvalue = [0, 5, 0, 0]\nclass = Nitrate", fillcolor="#47e539"] ;
4 -> 8 ;
9 [label="gini = 0.0\nsamples = 24\nvalue = [0, 0, 36, 0]\nclass = Sunscreen", fillcolor="#399de5"] ;
1 -> 9 ;
10 [label="z268 <= -42.179\ngini = 0.385\nsamples = 111\nvalue = [136, 16, 12, 12]\nclass = Polystyrene", fillcolor="#eca06a"] ;
0 -> 10 [labeldistance=2.5, labelangle=-45, headlabel="False"] ;
11 [label="z321 <= 14716.272\ngini = 0.235\nsamples = 96\nvalue = [133, 14, 2, 4]\nclass = Polystyrene", fillcolor="#e99355"] ;
10 -> 11 ;
12 [label="Φ420 <= -39.243\ngini = 0.132\nsamples = 88\nvalue = [133, 6, 0, 4]\nclass = Polystyrene", fillcolor="#e78a47"] ;
11 -> 12 ;
13 [label="Φ481 <= 5728.185\ngini = 0.5\nsamples = 9\nvalue = [6, 6, 0, 0]\nclass = Polystyrene", fillcolor="#ffffff"] ;
12 -> 13 ;
14 [label="gini = 0.0\nsamples = 4\nvalue = [0, 6, 0, 0]\nclass = Nitrate", fillcolor="#47e539"] ;
13 -> 14 ;
15 [label="gini = 0.0\nsamples = 5\nvalue = [6, 0, 0, 0]\nclass = Polystyrene", fillcolor="#e58139"] ;
13 -> 15 ;
16 [label="z72 <= -41.15\ngini = 0.059\nsamples = 79\nvalue = [127, 0, 0, 4]\nclass = Polystyrene", fillcolor="#e6853f"] ;
12 -> 16 ;
17 [label="Φ346 <= -31.76\ngini = 0.346\nsamples = 8\nvalue = [14, 0, 0, 4]\nclass = Polystyrene", fillcolor="#eca572"] ;
16 -> 17 ;
18 [label="gini = 0.0\nsamples = 5\nvalue = [13, 0, 0, 0]\nclass = Polystyrene", fillcolor="#e58139"] ;
17 -> 18 ;
19 [label="z85 <= 15161.815\ngini = 0.32\nsamples = 3\nvalue = [1, 0, 0, 4]\nclass = Plain", fillcolor="#e16aec"] ;
17 -> 19 ;
20 [label="gini = 0.0\nsamples = 2\nvalue = [0, 0, 0, 4]\nclass = Plain", fillcolor="#d739e5"] ;
19 -> 20 ;
21 [label="gini = 0.0\nsamples = 1\nvalue = [1, 0, 0, 0]\nclass = Polystyrene", fillcolor="#e58139"] ;
19 -> 21 ;
22 [label="gini = 0.0\nsamples = 71\nvalue = [113, 0, 0, 0]\nclass = Polystyrene", fillcolor="#e58139"] ;
16 -> 22 ;
23 [label="z365 <= 14917.264\ngini = 0.32\nsamples = 8\nvalue = [0, 8, 2, 0]\nclass = Nitrate", fillcolor="#75ec6a"] ;
11 -> 23 ;
24 [label="gini = 0.0\nsamples = 2\nvalue = [0, 0, 2, 0]\nclass = Sunscreen", fillcolor="#399de5"] ;
23 -> 24 ;
25 [label="gini = 0.0\nsamples = 6\nvalue = [0, 8, 0, 0]\nclass = Nitrate", fillcolor="#47e539"] ;
23 -> 25 ;
26 [label="z304 <= -42.096\ngini = 0.665\nsamples = 15\nvalue = [3, 2, 10, 8]\nclass = Sunscreen", fillcolor="#e5f2fc"] ;
10 -> 26 ;
27 [label="Φ215 <= 7100.964\ngini = 0.198\nsamples = 4\nvalue = [0, 0, 1, 8]\nclass = Plain", fillcolor="#dc52e8"] ;
26 -> 27 ;
28 [label="gini = 0.0\nsamples = 1\nvalue = [0, 0, 1, 0]\nclass = Sunscreen", fillcolor="#399de5"] ;
27 -> 28 ;
29 [label="gini = 0.0\nsamples = 3\nvalue = [0, 0, 0, 8]\nclass = Plain", fillcolor="#d739e5"] ;
27 -> 29 ;
30 [label="z260 <= -40.384\ngini = 0.52\nsamples = 11\nvalue = [3, 2, 9, 0]\nclass = Sunscreen", fillcolor="#93caf1"] ;
26 -> 30 ;
31 [label="gini = 0.0\nsamples = 2\nvalue = [3, 0, 0, 0]\nclass = Polystyrene", fillcolor="#e58139"] ;
30 -> 31 ;
32 [label="z401 <= 10893.927\ngini = 0.298\nsamples = 9\nvalue = [0, 2, 9, 0]\nclass = Sunscreen", fillcolor="#65b3eb"] ;
30 -> 32 ;
33 [label="gini = 0.0\nsamples = 7\nvalue = [0, 0, 9, 0]\nclass = Sunscreen", fillcolor="#399de5"] ;
32 -> 33 ;
34 [label="gini = 0.0\nsamples = 2\nvalue = [0, 2, 0, 0]\nclass = Nitrate", fillcolor="#47e539"] ;
32 -> 34 ;
}