digraph Tree {
node [shape=box, style="filled, rounded", color="black", fontname="helvetica"] ;
edge [fontname="helvetica"] ;
0 [label="z457 <= 4327.638\ngini = 0.683\nsamples = 201\nvalue = [121, 101, 91, 11]\nclass = Polystyrene", fillcolor="#fdf4ed"] ;
1 [label="Φ10 <= -34.287\ngini = 0.5\nsamples = 97\nvalue = [0, 80, 81, 0]\nclass = Sunscreen", fillcolor="#fdfeff"] ;
0 -> 1 [labeldistance=2.5, labelangle=45, headlabel="True"] ;
2 [label="gini = 0.0\nsamples = 28\nvalue = [0, 51, 0, 0]\nclass = Nitrate", fillcolor="#47e539"] ;
1 -> 2 ;
3 [label="Φ240 <= -6.908\ngini = 0.388\nsamples = 69\nvalue = [0, 29, 81, 0]\nclass = Sunscreen", fillcolor="#80c0ee"] ;
1 -> 3 ;
4 [label="Φ31 <= 9372.505\ngini = 0.499\nsamples = 38\nvalue = [0, 29, 32, 0]\nclass = Sunscreen", fillcolor="#ecf6fd"] ;
3 -> 4 ;
5 [label="z84 <= -41.143\ngini = 0.361\nsamples = 23\nvalue = [0, 29, 9, 0]\nclass = Nitrate", fillcolor="#80ed76"] ;
4 -> 5 ;
6 [label="gini = 0.0\nsamples = 5\nvalue = [0, 0, 7, 0]\nclass = Sunscreen", fillcolor="#399de5"] ;
5 -> 6 ;
7 [label="z65 <= 5248.693\ngini = 0.121\nsamples = 18\nvalue = [0, 29, 2, 0]\nclass = Nitrate", fillcolor="#54e747"] ;
5 -> 7 ;
8 [label="Φ460 <= -39.503\ngini = 0.064\nsamples = 17\nvalue = [0, 29, 1, 0]\nclass = Nitrate", fillcolor="#4de640"] ;
7 -> 8 ;
9 [label="gini = 0.0\nsamples = 1\nvalue = [0, 0, 1, 0]\nclass = Sunscreen", fillcolor="#399de5"] ;
8 -> 9 ;
10 [label="gini = 0.0\nsamples = 16\nvalue = [0, 29, 0, 0]\nclass = Nitrate", fillcolor="#47e539"] ;
8 -> 10 ;
11 [label="gini = 0.0\nsamples = 1\nvalue = [0, 0, 1, 0]\nclass = Sunscreen", fillcolor="#399de5"] ;
7 -> 11 ;
12 [label="gini = 0.0\nsamples = 15\nvalue = [0, 0, 23, 0]\nclass = Sunscreen", fillcolor="#399de5"] ;
4 -> 12 ;
13 [label="gini = 0.0\nsamples = 31\nvalue = [0, 0, 49, 0]\nclass = Sunscreen", fillcolor="#399de5"] ;
3 -> 13 ;
14 [label="z275 <= 16064.377\ngini = 0.424\nsamples = 104\nvalue = [121, 21, 10, 11]\nclass = Polystyrene", fillcolor="#eda674"] ;
0 -> 14 [labeldistance=2.5, labelangle=-45, headlabel="False"] ;
15 [label="z186 <= -37.691\ngini = 0.352\nsamples = 98\nvalue = [121, 10, 10, 11]\nclass = Polystyrene", fillcolor="#eb9d65"] ;
14 -> 15 ;
16 [label="z244 <= -53.224\ngini = 0.245\nsamples = 88\nvalue = [121, 6, 2, 11]\nclass = Polystyrene", fillcolor="#e99456"] ;
15 -> 16 ;
17 [label="gini = 0.0\nsamples = 2\nvalue = [0, 0, 2, 0]\nclass = Sunscreen", fillcolor="#399de5"] ;
16 -> 17 ;
18 [label="z502 <= -44.284\ngini = 0.223\nsamples = 86\nvalue = [121, 6, 0, 11]\nclass = Polystyrene", fillcolor="#e89254"] ;
16 -> 18 ;
19 [label="z128 <= -41.819\ngini = 0.171\nsamples = 81\nvalue = [119, 6, 0, 6]\nclass = Polystyrene", fillcolor="#e78d4c"] ;
18 -> 19 ;
20 [label="z162 <= -42.113\ngini = 0.441\nsamples = 27\nvalue = [31, 6, 0, 6]\nclass = Polystyrene", fillcolor="#edaa79"] ;
19 -> 20 ;
21 [label="z383 <= 12434.795\ngini = 0.272\nsamples = 23\nvalue = [31, 0, 0, 6]\nclass = Polystyrene", fillcolor="#ea995f"] ;
20 -> 21 ;
22 [label="Φ413 <= 11416.801\ngini = 0.497\nsamples = 7\nvalue = [7, 0, 0, 6]\nclass = Polystyrene", fillcolor="#fbede3"] ;
21 -> 22 ;
23 [label="gini = 0.0\nsamples = 5\nvalue = [7, 0, 0, 0]\nclass = Polystyrene", fillcolor="#e58139"] ;
22 -> 23 ;
24 [label="gini = 0.0\nsamples = 2\nvalue = [0, 0, 0, 6]\nclass = Plain", fillcolor="#d739e5"] ;
22 -> 24 ;
25 [label="gini = 0.0\nsamples = 16\nvalue = [24, 0, 0, 0]\nclass = Polystyrene", fillcolor="#e58139"] ;
21 -> 25 ;
26 [label="gini = 0.0\nsamples = 4\nvalue = [0, 6, 0, 0]\nclass = Nitrate", fillcolor="#47e539"] ;
20 -> 26 ;
27 [label="gini = 0.0\nsamples = 54\nvalue = [88, 0, 0, 0]\nclass = Polystyrene", fillcolor="#e58139"] ;
19 -> 27 ;
28 [label="z494 <= -43.624\ngini = 0.408\nsamples = 5\nvalue = [2, 0, 0, 5]\nclass = Plain", fillcolor="#e788ef"] ;
18 -> 28 ;
29 [label="gini = 0.0\nsamples = 4\nvalue = [0, 0, 0, 5]\nclass = Plain", fillcolor="#d739e5"] ;
28 -> 29 ;
30 [label="gini = 0.0\nsamples = 1\nvalue = [2, 0, 0, 0]\nclass = Polystyrene", fillcolor="#e58139"] ;
28 -> 30 ;
31 [label="z421 <= 10769.117\ngini = 0.444\nsamples = 10\nvalue = [0, 4, 8, 0]\nclass = Sunscreen", fillcolor="#9ccef2"] ;
15 -> 31 ;
32 [label="gini = 0.0\nsamples = 5\nvalue = [0, 0, 6, 0]\nclass = Sunscreen", fillcolor="#399de5"] ;
31 -> 32 ;
33 [label="Φ45 <= 14734.17\ngini = 0.444\nsamples = 5\nvalue = [0, 4, 2, 0]\nclass = Nitrate", fillcolor="#a3f29c"] ;
31 -> 33 ;
34 [label="gini = 0.0\nsamples = 4\nvalue = [0, 4, 0, 0]\nclass = Nitrate", fillcolor="#47e539"] ;
33 -> 34 ;
35 [label="gini = 0.0\nsamples = 1\nvalue = [0, 0, 2, 0]\nclass = Sunscreen", fillcolor="#399de5"] ;
33 -> 35 ;
36 [label="gini = 0.0\nsamples = 6\nvalue = [0, 11, 0, 0]\nclass = Nitrate", fillcolor="#47e539"] ;
14 -> 36 ;
}