digraph Tree {
node [shape=box, style="filled, rounded", color="black", fontname="helvetica"] ;
edge [fontname="helvetica"] ;
0 [label="z239 <= 4821.163\ngini = 0.681\nsamples = 208\nvalue = [113, 106, 97, 8]\nclass = Polystyrene", fillcolor="#fefbf9"] ;
1 [label="Φ250 <= -6.908\ngini = 0.497\nsamples = 103\nvalue = [0, 90, 78, 0]\nclass = Nitrate", fillcolor="#e6fce5"] ;
0 -> 1 [labeldistance=2.5, labelangle=45, headlabel="True"] ;
2 [label="z121 <= 4990.383\ngini = 0.426\nsamples = 77\nvalue = [0, 90, 40, 0]\nclass = Nitrate", fillcolor="#99f191"] ;
1 -> 2 ;
3 [label="z486 <= -45.071\ngini = 0.025\nsamples = 48\nvalue = [0, 77, 1, 0]\nclass = Nitrate", fillcolor="#49e53c"] ;
2 -> 3 ;
4 [label="gini = 0.0\nsamples = 1\nvalue = [0, 0, 1, 0]\nclass = Sunscreen", fillcolor="#399de5"] ;
3 -> 4 ;
5 [label="gini = 0.0\nsamples = 47\nvalue = [0, 77, 0, 0]\nclass = Nitrate", fillcolor="#47e539"] ;
3 -> 5 ;
6 [label="z78 <= -42.135\ngini = 0.375\nsamples = 29\nvalue = [0, 13, 39, 0]\nclass = Sunscreen", fillcolor="#7bbeee"] ;
2 -> 6 ;
7 [label="gini = 0.0\nsamples = 3\nvalue = [0, 7, 0, 0]\nclass = Nitrate", fillcolor="#47e539"] ;
6 -> 7 ;
8 [label="Φ15 <= 9351.883\ngini = 0.231\nsamples = 26\nvalue = [0, 6, 39, 0]\nclass = Sunscreen", fillcolor="#57ace9"] ;
6 -> 8 ;
9 [label="gini = 0.0\nsamples = 1\nvalue = [0, 3, 0, 0]\nclass = Nitrate", fillcolor="#47e539"] ;
8 -> 9 ;
10 [label="Φ4 <= -32.639\ngini = 0.133\nsamples = 25\nvalue = [0, 3, 39, 0]\nclass = Sunscreen", fillcolor="#48a5e7"] ;
8 -> 10 ;
11 [label="gini = 0.0\nsamples = 23\nvalue = [0, 0, 39, 0]\nclass = Sunscreen", fillcolor="#399de5"] ;
10 -> 11 ;
12 [label="gini = 0.0\nsamples = 2\nvalue = [0, 3, 0, 0]\nclass = Nitrate", fillcolor="#47e539"] ;
10 -> 12 ;
13 [label="gini = 0.0\nsamples = 26\nvalue = [0, 0, 38, 0]\nclass = Sunscreen", fillcolor="#399de5"] ;
1 -> 13 ;
14 [label="Φ75 <= 24070.842\ngini = 0.447\nsamples = 105\nvalue = [113, 16, 19, 8]\nclass = Polystyrene", fillcolor="#eda977"] ;
0 -> 14 [labeldistance=2.5, labelangle=-45, headlabel="False"] ;
15 [label="z414 <= -43.55\ngini = 0.309\nsamples = 93\nvalue = [113, 8, 8, 8]\nclass = Polystyrene", fillcolor="#ea985e"] ;
14 -> 15 ;
16 [label="z88 <= -34.222\ngini = 0.082\nsamples = 80\nvalue = [113, 2, 1, 2]\nclass = Polystyrene", fillcolor="#e68642"] ;
15 -> 16 ;
17 [label="z391 <= 4519.772\ngini = 0.067\nsamples = 79\nvalue = [113, 2, 0, 2]\nclass = Polystyrene", fillcolor="#e68540"] ;
16 -> 17 ;
18 [label="Φ407 <= 5999.047\ngini = 0.346\nsamples = 7\nvalue = [7, 2, 0, 0]\nclass = Polystyrene", fillcolor="#eca572"] ;
17 -> 18 ;
19 [label="gini = 0.0\nsamples = 5\nvalue = [7, 0, 0, 0]\nclass = Polystyrene", fillcolor="#e58139"] ;
18 -> 19 ;
20 [label="gini = 0.0\nsamples = 2\nvalue = [0, 2, 0, 0]\nclass = Nitrate", fillcolor="#47e539"] ;
18 -> 20 ;
21 [label="z272 <= -48.084\ngini = 0.036\nsamples = 72\nvalue = [106, 0, 0, 2]\nclass = Polystyrene", fillcolor="#e5833d"] ;
17 -> 21 ;
22 [label="Φ309 <= 18082.506\ngini = 0.219\nsamples = 9\nvalue = [14, 0, 0, 2]\nclass = Polystyrene", fillcolor="#e99355"] ;
21 -> 22 ;
23 [label="gini = 0.0\nsamples = 2\nvalue = [0, 0, 0, 2]\nclass = Plain", fillcolor="#d739e5"] ;
22 -> 23 ;
24 [label="gini = 0.0\nsamples = 7\nvalue = [14, 0, 0, 0]\nclass = Polystyrene", fillcolor="#e58139"] ;
22 -> 24 ;
25 [label="gini = 0.0\nsamples = 63\nvalue = [92, 0, 0, 0]\nclass = Polystyrene", fillcolor="#e58139"] ;
21 -> 25 ;
26 [label="gini = 0.0\nsamples = 1\nvalue = [0, 0, 1, 0]\nclass = Sunscreen", fillcolor="#399de5"] ;
16 -> 26 ;
27 [label="Φ229 <= 6909.673\ngini = 0.665\nsamples = 13\nvalue = [0, 6, 7, 6]\nclass = Sunscreen", fillcolor="#f0f7fd"] ;
15 -> 27 ;
28 [label="gini = 0.0\nsamples = 5\nvalue = [0, 0, 7, 0]\nclass = Sunscreen", fillcolor="#399de5"] ;
27 -> 28 ;
29 [label="z354 <= -40.686\ngini = 0.5\nsamples = 8\nvalue = [0, 6, 0, 6]\nclass = Nitrate", fillcolor="#ffffff"] ;
27 -> 29 ;
30 [label="gini = 0.0\nsamples = 4\nvalue = [0, 0, 0, 6]\nclass = Plain", fillcolor="#d739e5"] ;
29 -> 30 ;
31 [label="gini = 0.0\nsamples = 4\nvalue = [0, 6, 0, 0]\nclass = Nitrate", fillcolor="#47e539"] ;
29 -> 31 ;
32 [label="z461 <= 13893.085\ngini = 0.488\nsamples = 12\nvalue = [0, 8, 11, 0]\nclass = Sunscreen", fillcolor="#c9e4f8"] ;
14 -> 32 ;
33 [label="gini = 0.0\nsamples = 6\nvalue = [0, 0, 11, 0]\nclass = Sunscreen", fillcolor="#399de5"] ;
32 -> 33 ;
34 [label="gini = 0.0\nsamples = 6\nvalue = [0, 8, 0, 0]\nclass = Nitrate", fillcolor="#47e539"] ;
32 -> 34 ;
}