digraph Tree {
node [shape=box, style="filled, rounded", color="black", fontname="helvetica"] ;
edge [fontname="helvetica"] ;
0 [label="z457 <= 4329.244\ngini = 0.678\nsamples = 211\nvalue = [125, 95, 95, 9]\nclass = Polystyrene", fillcolor="#fceee5"] ;
1 [label="Φ282 <= -7.043\ngini = 0.5\nsamples = 103\nvalue = [0, 75, 76, 0]\nclass = Sunscreen", fillcolor="#fcfeff"] ;
0 -> 1 [labeldistance=2.5, labelangle=45, headlabel="True"] ;
2 [label="Φ41 <= 8970.175\ngini = 0.396\nsamples = 74\nvalue = [0, 75, 28, 0]\nclass = Nitrate", fillcolor="#8cef83"] ;
1 -> 2 ;
3 [label="gini = 0.0\nsamples = 46\nvalue = [0, 68, 0, 0]\nclass = Nitrate", fillcolor="#47e539"] ;
2 -> 3 ;
4 [label="Φ38 <= -33.7\ngini = 0.32\nsamples = 28\nvalue = [0, 7, 28, 0]\nclass = Sunscreen", fillcolor="#6ab6ec"] ;
2 -> 4 ;
5 [label="gini = 0.0\nsamples = 23\nvalue = [0, 0, 28, 0]\nclass = Sunscreen", fillcolor="#399de5"] ;
4 -> 5 ;
6 [label="gini = 0.0\nsamples = 5\nvalue = [0, 7, 0, 0]\nclass = Nitrate", fillcolor="#47e539"] ;
4 -> 6 ;
7 [label="gini = 0.0\nsamples = 29\nvalue = [0, 0, 48, 0]\nclass = Sunscreen", fillcolor="#399de5"] ;
1 -> 7 ;
8 [label="z348 <= -42.866\ngini = 0.45\nsamples = 108\nvalue = [125, 20, 19, 9]\nclass = Polystyrene", fillcolor="#eda977"] ;
0 -> 8 [labeldistance=2.5, labelangle=-45, headlabel="False"] ;
9 [label="Φ273 <= 21067.036\ngini = 0.312\nsamples = 94\nvalue = [124, 15, 9, 3]\nclass = Polystyrene", fillcolor="#ea9a60"] ;
8 -> 9 ;
10 [label="z243 <= 4862.677\ngini = 0.152\nsamples = 82\nvalue = [124, 8, 0, 3]\nclass = Polystyrene", fillcolor="#e78c4a"] ;
9 -> 10 ;
11 [label="Φ40 <= -33.932\ngini = 0.444\nsamples = 15\nvalue = [16, 8, 0, 0]\nclass = Polystyrene", fillcolor="#f2c09c"] ;
10 -> 11 ;
12 [label="gini = 0.0\nsamples = 9\nvalue = [16, 0, 0, 0]\nclass = Polystyrene", fillcolor="#e58139"] ;
11 -> 12 ;
13 [label="gini = 0.0\nsamples = 6\nvalue = [0, 8, 0, 0]\nclass = Nitrate", fillcolor="#47e539"] ;
11 -> 13 ;
14 [label="z418 <= -43.663\ngini = 0.053\nsamples = 67\nvalue = [108, 0, 0, 3]\nclass = Polystyrene", fillcolor="#e6843e"] ;
10 -> 14 ;
15 [label="z336 <= -49.913\ngini = 0.036\nsamples = 66\nvalue = [108, 0, 0, 2]\nclass = Polystyrene", fillcolor="#e5833d"] ;
14 -> 15 ;
16 [label="Φ279 <= 18132.85\ngini = 0.26\nsamples = 8\nvalue = [11, 0, 0, 2]\nclass = Polystyrene", fillcolor="#ea985d"] ;
15 -> 16 ;
17 [label="gini = 0.0\nsamples = 1\nvalue = [0, 0, 0, 2]\nclass = Plain", fillcolor="#d739e5"] ;
16 -> 17 ;
18 [label="gini = 0.0\nsamples = 7\nvalue = [11, 0, 0, 0]\nclass = Polystyrene", fillcolor="#e58139"] ;
16 -> 18 ;
19 [label="gini = 0.0\nsamples = 58\nvalue = [97, 0, 0, 0]\nclass = Polystyrene", fillcolor="#e58139"] ;
15 -> 19 ;
20 [label="gini = 0.0\nsamples = 1\nvalue = [0, 0, 0, 1]\nclass = Plain", fillcolor="#d739e5"] ;
14 -> 20 ;
21 [label="z83 <= 19050.756\ngini = 0.492\nsamples = 12\nvalue = [0, 7, 9, 0]\nclass = Sunscreen", fillcolor="#d3e9f9"] ;
9 -> 21 ;
22 [label="gini = 0.0\nsamples = 6\nvalue = [0, 0, 9, 0]\nclass = Sunscreen", fillcolor="#399de5"] ;
21 -> 22 ;
23 [label="gini = 0.0\nsamples = 6\nvalue = [0, 7, 0, 0]\nclass = Nitrate", fillcolor="#47e539"] ;
21 -> 23 ;
24 [label="z357 <= 4719.284\ngini = 0.665\nsamples = 14\nvalue = [1, 5, 10, 6]\nclass = Sunscreen", fillcolor="#cee6f8"] ;
8 -> 24 ;
25 [label="gini = 0.0\nsamples = 4\nvalue = [0, 0, 0, 6]\nclass = Plain", fillcolor="#d739e5"] ;
24 -> 25 ;
26 [label="z481 <= 10575.856\ngini = 0.508\nsamples = 10\nvalue = [1, 5, 10, 0]\nclass = Sunscreen", fillcolor="#a5d2f3"] ;
24 -> 26 ;
27 [label="Φ208 <= -26.704\ngini = 0.165\nsamples = 8\nvalue = [1, 0, 10, 0]\nclass = Sunscreen", fillcolor="#4da7e8"] ;
26 -> 27 ;
28 [label="gini = 0.0\nsamples = 1\nvalue = [1, 0, 0, 0]\nclass = Polystyrene", fillcolor="#e58139"] ;
27 -> 28 ;
29 [label="gini = 0.0\nsamples = 7\nvalue = [0, 0, 10, 0]\nclass = Sunscreen", fillcolor="#399de5"] ;
27 -> 29 ;
30 [label="gini = 0.0\nsamples = 2\nvalue = [0, 5, 0, 0]\nclass = Nitrate", fillcolor="#47e539"] ;
26 -> 30 ;
}