digraph Tree {
node [shape=box, style="filled, rounded", color="black", fontname="helvetica"] ;
edge [fontname="helvetica"] ;
0 [label="z393 <= 4461.44\ngini = 0.678\nsamples = 202\nvalue = [110, 114, 93, 7]\nclass = Nitrate", fillcolor="#fcfffb"] ;
1 [label="Φ156 <= -8.34\ngini = 0.499\nsamples = 96\nvalue = [0, 88, 79, 0]\nclass = Nitrate", fillcolor="#ecfceb"] ;
0 -> 1 [labeldistance=2.5, labelangle=45, headlabel="True"] ;
2 [label="z267 <= 4537.986\ngini = 0.421\nsamples = 71\nvalue = [0, 86, 37, 0]\nclass = Nitrate", fillcolor="#96f08e"] ;
1 -> 2 ;
3 [label="gini = 0.0\nsamples = 43\nvalue = [0, 72, 0, 0]\nclass = Nitrate", fillcolor="#47e539"] ;
2 -> 3 ;
4 [label="z4 <= -41.492\ngini = 0.398\nsamples = 28\nvalue = [0, 14, 37, 0]\nclass = Sunscreen", fillcolor="#84c2ef"] ;
2 -> 4 ;
5 [label="gini = 0.0\nsamples = 4\nvalue = [0, 7, 0, 0]\nclass = Nitrate", fillcolor="#47e539"] ;
4 -> 5 ;
6 [label="Φ58 <= -34.379\ngini = 0.268\nsamples = 24\nvalue = [0, 7, 37, 0]\nclass = Sunscreen", fillcolor="#5eb0ea"] ;
4 -> 6 ;
7 [label="gini = 0.0\nsamples = 21\nvalue = [0, 0, 37, 0]\nclass = Sunscreen", fillcolor="#399de5"] ;
6 -> 7 ;
8 [label="gini = 0.0\nsamples = 3\nvalue = [0, 7, 0, 0]\nclass = Nitrate", fillcolor="#47e539"] ;
6 -> 8 ;
9 [label="z96 <= -9.985\ngini = 0.087\nsamples = 25\nvalue = [0, 2, 42, 0]\nclass = Sunscreen", fillcolor="#42a2e6"] ;
1 -> 9 ;
10 [label="gini = 0.0\nsamples = 2\nvalue = [0, 2, 0, 0]\nclass = Nitrate", fillcolor="#47e539"] ;
9 -> 10 ;
11 [label="gini = 0.0\nsamples = 23\nvalue = [0, 0, 42, 0]\nclass = Sunscreen", fillcolor="#399de5"] ;
9 -> 11 ;
12 [label="z480 <= -57.746\ngini = 0.472\nsamples = 106\nvalue = [110, 26, 14, 7]\nclass = Polystyrene", fillcolor="#eeae80"] ;
0 -> 12 [labeldistance=2.5, labelangle=-45, headlabel="False"] ;
13 [label="Φ413 <= 22946.191\ngini = 0.465\nsamples = 11\nvalue = [0, 12, 7, 0]\nclass = Nitrate", fillcolor="#b2f4ac"] ;
12 -> 13 ;
14 [label="gini = 0.0\nsamples = 4\nvalue = [0, 0, 7, 0]\nclass = Sunscreen", fillcolor="#399de5"] ;
13 -> 14 ;
15 [label="gini = 0.0\nsamples = 7\nvalue = [0, 12, 0, 0]\nclass = Nitrate", fillcolor="#47e539"] ;
13 -> 15 ;
16 [label="z500 <= -44.173\ngini = 0.349\nsamples = 95\nvalue = [110, 14, 7, 7]\nclass = Polystyrene", fillcolor="#eb9d66"] ;
12 -> 16 ;
17 [label="Φ344 <= -38.073\ngini = 0.194\nsamples = 86\nvalue = [110, 9, 1, 3]\nclass = Polystyrene", fillcolor="#e88f50"] ;
16 -> 17 ;
18 [label="Φ96 <= -34.682\ngini = 0.459\nsamples = 10\nvalue = [5, 9, 0, 0]\nclass = Nitrate", fillcolor="#adf3a7"] ;
17 -> 18 ;
19 [label="gini = 0.0\nsamples = 4\nvalue = [5, 0, 0, 0]\nclass = Polystyrene", fillcolor="#e58139"] ;
18 -> 19 ;
20 [label="gini = 0.0\nsamples = 6\nvalue = [0, 9, 0, 0]\nclass = Nitrate", fillcolor="#47e539"] ;
18 -> 20 ;
21 [label="Φ464 <= -29.094\ngini = 0.071\nsamples = 76\nvalue = [105, 0, 1, 3]\nclass = Polystyrene", fillcolor="#e68640"] ;
17 -> 21 ;
22 [label="z308 <= -48.806\ngini = 0.054\nsamples = 75\nvalue = [105, 0, 0, 3]\nclass = Polystyrene", fillcolor="#e6853f"] ;
21 -> 22 ;
23 [label="Φ433 <= 16665.605\ngini = 0.266\nsamples = 15\nvalue = [16, 0, 0, 3]\nclass = Polystyrene", fillcolor="#ea995e"] ;
22 -> 23 ;
24 [label="gini = 0.0\nsamples = 3\nvalue = [0, 0, 0, 3]\nclass = Plain", fillcolor="#d739e5"] ;
23 -> 24 ;
25 [label="gini = 0.0\nsamples = 12\nvalue = [16, 0, 0, 0]\nclass = Polystyrene", fillcolor="#e58139"] ;
23 -> 25 ;
26 [label="gini = 0.0\nsamples = 60\nvalue = [89, 0, 0, 0]\nclass = Polystyrene", fillcolor="#e58139"] ;
22 -> 26 ;
27 [label="gini = 0.0\nsamples = 1\nvalue = [0, 0, 1, 0]\nclass = Sunscreen", fillcolor="#399de5"] ;
21 -> 27 ;
28 [label="Φ67 <= 8730.126\ngini = 0.658\nsamples = 9\nvalue = [0, 5, 6, 4]\nclass = Sunscreen", fillcolor="#ebf5fc"] ;
16 -> 28 ;
29 [label="gini = 0.0\nsamples = 4\nvalue = [0, 0, 6, 0]\nclass = Sunscreen", fillcolor="#399de5"] ;
28 -> 29 ;
30 [label="Φ289 <= 9936.063\ngini = 0.494\nsamples = 5\nvalue = [0, 5, 0, 4]\nclass = Nitrate", fillcolor="#dafad7"] ;
28 -> 30 ;
31 [label="gini = 0.0\nsamples = 2\nvalue = [0, 0, 0, 4]\nclass = Plain", fillcolor="#d739e5"] ;
30 -> 31 ;
32 [label="gini = 0.0\nsamples = 3\nvalue = [0, 5, 0, 0]\nclass = Nitrate", fillcolor="#47e539"] ;
30 -> 32 ;
}