digraph Tree {
node [shape=box, style="filled, rounded", color="black", fontname="helvetica"] ;
edge [fontname="helvetica"] ;
0 [label="z237 <= 4821.871\ngini = 0.679\nsamples = 218\nvalue = [119, 104, 93, 8]\nclass = Polystyrene", fillcolor="#fdf6f1"] ;
1 [label="Φ303 <= 712.193\ngini = 0.506\nsamples = 106\nvalue = [1, 77, 76, 0]\nclass = Nitrate", fillcolor="#fdfffc"] ;
0 -> 1 [labeldistance=2.5, labelangle=45, headlabel="True"] ;
2 [label="gini = 0.0\nsamples = 28\nvalue = [0, 43, 0, 0]\nclass = Nitrate", fillcolor="#47e539"] ;
1 -> 2 ;
3 [label="Φ50 <= -34.861\ngini = 0.437\nsamples = 78\nvalue = [1, 34, 76, 0]\nclass = Sunscreen", fillcolor="#93caf1"] ;
1 -> 3 ;
4 [label="Φ176 <= -36.428\ngini = 0.111\nsamples = 14\nvalue = [0, 16, 1, 0]\nclass = Nitrate", fillcolor="#52e745"] ;
3 -> 4 ;
5 [label="gini = 0.0\nsamples = 13\nvalue = [0, 16, 0, 0]\nclass = Nitrate", fillcolor="#47e539"] ;
4 -> 5 ;
6 [label="gini = 0.0\nsamples = 1\nvalue = [0, 0, 1, 0]\nclass = Sunscreen", fillcolor="#399de5"] ;
4 -> 6 ;
7 [label="Φ286 <= -7.035\ngini = 0.327\nsamples = 64\nvalue = [1, 18, 75, 0]\nclass = Sunscreen", fillcolor="#6ab6ec"] ;
3 -> 7 ;
8 [label="Φ22 <= -34.269\ngini = 0.477\nsamples = 37\nvalue = [1, 18, 33, 0]\nclass = Sunscreen", fillcolor="#a8d4f4"] ;
7 -> 8 ;
9 [label="z335 <= 4265.306\ngini = 0.109\nsamples = 23\nvalue = [1, 1, 33, 0]\nclass = Sunscreen", fillcolor="#45a3e7"] ;
8 -> 9 ;
10 [label="gini = 0.0\nsamples = 1\nvalue = [0, 1, 0, 0]\nclass = Nitrate", fillcolor="#47e539"] ;
9 -> 10 ;
11 [label="z355 <= 4538.694\ngini = 0.057\nsamples = 22\nvalue = [1, 0, 33, 0]\nclass = Sunscreen", fillcolor="#3fa0e6"] ;
9 -> 11 ;
12 [label="gini = 0.0\nsamples = 21\nvalue = [0, 0, 33, 0]\nclass = Sunscreen", fillcolor="#399de5"] ;
11 -> 12 ;
13 [label="gini = 0.0\nsamples = 1\nvalue = [1, 0, 0, 0]\nclass = Polystyrene", fillcolor="#e58139"] ;
11 -> 13 ;
14 [label="gini = 0.0\nsamples = 14\nvalue = [0, 17, 0, 0]\nclass = Nitrate", fillcolor="#47e539"] ;
8 -> 14 ;
15 [label="gini = 0.0\nsamples = 27\nvalue = [0, 0, 42, 0]\nclass = Sunscreen", fillcolor="#399de5"] ;
7 -> 15 ;
16 [label="Φ464 <= -39.532\ngini = 0.481\nsamples = 112\nvalue = [118, 27, 17, 8]\nclass = Polystyrene", fillcolor="#eeaf81"] ;
0 -> 16 [labeldistance=2.5, labelangle=-45, headlabel="False"] ;
17 [label="z102 <= -40.826\ngini = 0.564\nsamples = 22\nvalue = [7, 19, 6, 0]\nclass = Nitrate", fillcolor="#a7f3a0"] ;
16 -> 17 ;
18 [label="Φ4 <= -33.925\ngini = 0.45\nsamples = 18\nvalue = [2, 19, 6, 0]\nclass = Nitrate", fillcolor="#8def84"] ;
17 -> 18 ;
19 [label="gini = 0.0\nsamples = 2\nvalue = [2, 0, 0, 0]\nclass = Polystyrene", fillcolor="#e58139"] ;
18 -> 19 ;
20 [label="Φ12 <= -16.475\ngini = 0.365\nsamples = 16\nvalue = [0, 19, 6, 0]\nclass = Nitrate", fillcolor="#81ed78"] ;
18 -> 20 ;
21 [label="Φ102 <= -35.308\ngini = 0.124\nsamples = 9\nvalue = [0, 14, 1, 0]\nclass = Nitrate", fillcolor="#54e747"] ;
20 -> 21 ;
22 [label="gini = 0.0\nsamples = 1\nvalue = [0, 0, 1, 0]\nclass = Sunscreen", fillcolor="#399de5"] ;
21 -> 22 ;
23 [label="gini = 0.0\nsamples = 8\nvalue = [0, 14, 0, 0]\nclass = Nitrate", fillcolor="#47e539"] ;
21 -> 23 ;
24 [label="Φ505 <= 20936.427\ngini = 0.5\nsamples = 7\nvalue = [0, 5, 5, 0]\nclass = Nitrate", fillcolor="#ffffff"] ;
20 -> 24 ;
25 [label="gini = 0.0\nsamples = 4\nvalue = [0, 0, 5, 0]\nclass = Sunscreen", fillcolor="#399de5"] ;
24 -> 25 ;
26 [label="gini = 0.0\nsamples = 3\nvalue = [0, 5, 0, 0]\nclass = Nitrate", fillcolor="#47e539"] ;
24 -> 26 ;
27 [label="gini = 0.0\nsamples = 4\nvalue = [5, 0, 0, 0]\nclass = Polystyrene", fillcolor="#e58139"] ;
17 -> 27 ;
28 [label="z368 <= -43.255\ngini = 0.34\nsamples = 90\nvalue = [111, 8, 11, 8]\nclass = Polystyrene", fillcolor="#eb9c63"] ;
16 -> 28 ;
29 [label="z264 <= -47.76\ngini = 0.052\nsamples = 73\nvalue = [109, 0, 0, 3]\nclass = Polystyrene", fillcolor="#e6843e"] ;
28 -> 29 ;
30 [label="Φ55 <= 20404.457\ngini = 0.337\nsamples = 10\nvalue = [11, 0, 0, 3]\nclass = Polystyrene", fillcolor="#eca36f"] ;
29 -> 30 ;
31 [label="gini = 0.0\nsamples = 3\nvalue = [0, 0, 0, 3]\nclass = Plain", fillcolor="#d739e5"] ;
30 -> 31 ;
32 [label="gini = 0.0\nsamples = 7\nvalue = [11, 0, 0, 0]\nclass = Polystyrene", fillcolor="#e58139"] ;
30 -> 32 ;
33 [label="gini = 0.0\nsamples = 63\nvalue = [98, 0, 0, 0]\nclass = Polystyrene", fillcolor="#e58139"] ;
29 -> 33 ;
34 [label="z509 <= 10394.923\ngini = 0.683\nsamples = 17\nvalue = [2, 8, 11, 5]\nclass = Sunscreen", fillcolor="#deeffb"] ;
28 -> 34 ;
35 [label="z292 <= -42.199\ngini = 0.537\nsamples = 13\nvalue = [2, 0, 11, 5]\nclass = Sunscreen", fillcolor="#a4d2f3"] ;
34 -> 35 ;
36 [label="Φ295 <= 6553.05\ngini = 0.278\nsamples = 5\nvalue = [1, 0, 0, 5]\nclass = Plain", fillcolor="#df61ea"] ;
35 -> 36 ;
37 [label="gini = 0.0\nsamples = 1\nvalue = [1, 0, 0, 0]\nclass = Polystyrene", fillcolor="#e58139"] ;
36 -> 37 ;
38 [label="gini = 0.0\nsamples = 4\nvalue = [0, 0, 0, 5]\nclass = Plain", fillcolor="#d739e5"] ;
36 -> 38 ;
39 [label="Φ34 <= -34.969\ngini = 0.153\nsamples = 8\nvalue = [1, 0, 11, 0]\nclass = Sunscreen", fillcolor="#4ba6e7"] ;
35 -> 39 ;
40 [label="gini = 0.0\nsamples = 1\nvalue = [1, 0, 0, 0]\nclass = Polystyrene", fillcolor="#e58139"] ;
39 -> 40 ;
41 [label="gini = 0.0\nsamples = 7\nvalue = [0, 0, 11, 0]\nclass = Sunscreen", fillcolor="#399de5"] ;
39 -> 41 ;
42 [label="gini = 0.0\nsamples = 4\nvalue = [0, 8, 0, 0]\nclass = Nitrate", fillcolor="#47e539"] ;
34 -> 42 ;
}