digraph Tree {
node [shape=box, style="filled, rounded", color="black", fontname="helvetica"] ;
edge [fontname="helvetica"] ;
0 [label="z209 <= 4890.005\ngini = 0.665\nsamples = 215\nvalue = [135, 103, 79, 7]\nclass = Polystyrene", fillcolor="#fbede2"] ;
1 [label="Φ211 <= 726.221\ngini = 0.492\nsamples = 95\nvalue = [0, 81, 63, 0]\nclass = Nitrate", fillcolor="#d6f9d3"] ;
0 -> 1 [labeldistance=2.5, labelangle=45, headlabel="True"] ;
2 [label="gini = 0.0\nsamples = 29\nvalue = [0, 50, 0, 0]\nclass = Nitrate", fillcolor="#47e539"] ;
1 -> 2 ;
3 [label="Φ58 <= -35.313\ngini = 0.442\nsamples = 66\nvalue = [0, 31, 63, 0]\nclass = Sunscreen", fillcolor="#9acdf2"] ;
1 -> 3 ;
4 [label="gini = 0.0\nsamples = 10\nvalue = [0, 13, 0, 0]\nclass = Nitrate", fillcolor="#47e539"] ;
3 -> 4 ;
5 [label="Φ270 <= -6.893\ngini = 0.346\nsamples = 56\nvalue = [0, 18, 63, 0]\nclass = Sunscreen", fillcolor="#72b9ec"] ;
3 -> 5 ;
6 [label="Φ8 <= -32.54\ngini = 0.476\nsamples = 34\nvalue = [0, 18, 28, 0]\nclass = Sunscreen", fillcolor="#b8dcf6"] ;
5 -> 6 ;
7 [label="z135 <= 4865.032\ngini = 0.32\nsamples = 26\nvalue = [0, 7, 28, 0]\nclass = Sunscreen", fillcolor="#6ab6ec"] ;
6 -> 7 ;
8 [label="gini = 0.0\nsamples = 4\nvalue = [0, 6, 0, 0]\nclass = Nitrate", fillcolor="#47e539"] ;
7 -> 8 ;
9 [label="z234 <= -43.734\ngini = 0.067\nsamples = 22\nvalue = [0, 1, 28, 0]\nclass = Sunscreen", fillcolor="#40a0e6"] ;
7 -> 9 ;
10 [label="gini = 0.0\nsamples = 1\nvalue = [0, 1, 0, 0]\nclass = Nitrate", fillcolor="#47e539"] ;
9 -> 10 ;
11 [label="gini = 0.0\nsamples = 21\nvalue = [0, 0, 28, 0]\nclass = Sunscreen", fillcolor="#399de5"] ;
9 -> 11 ;
12 [label="gini = 0.0\nsamples = 8\nvalue = [0, 11, 0, 0]\nclass = Nitrate", fillcolor="#47e539"] ;
6 -> 12 ;
13 [label="gini = 0.0\nsamples = 22\nvalue = [0, 0, 35, 0]\nclass = Sunscreen", fillcolor="#399de5"] ;
5 -> 13 ;
14 [label="z356 <= -42.966\ngini = 0.413\nsamples = 120\nvalue = [135, 22, 16, 7]\nclass = Polystyrene", fillcolor="#eca571"] ;
0 -> 14 [labeldistance=2.5, labelangle=-45, headlabel="False"] ;
15 [label="Φ404 <= -38.884\ngini = 0.308\nsamples = 109\nvalue = [134, 20, 4, 5]\nclass = Polystyrene", fillcolor="#ea9b61"] ;
14 -> 15 ;
16 [label="Φ44 <= -34.946\ngini = 0.473\nsamples = 19\nvalue = [4, 18, 4, 0]\nclass = Nitrate", fillcolor="#8aee81"] ;
15 -> 16 ;
17 [label="gini = 0.0\nsamples = 4\nvalue = [4, 0, 0, 0]\nclass = Polystyrene", fillcolor="#e58139"] ;
16 -> 17 ;
18 [label="Φ74 <= -24.178\ngini = 0.298\nsamples = 15\nvalue = [0, 18, 4, 0]\nclass = Nitrate", fillcolor="#70eb65"] ;
16 -> 18 ;
19 [label="gini = 0.0\nsamples = 8\nvalue = [0, 14, 0, 0]\nclass = Nitrate", fillcolor="#47e539"] ;
18 -> 19 ;
20 [label="z139 <= 18048.498\ngini = 0.5\nsamples = 7\nvalue = [0, 4, 4, 0]\nclass = Nitrate", fillcolor="#ffffff"] ;
18 -> 20 ;
21 [label="gini = 0.0\nsamples = 4\nvalue = [0, 0, 4, 0]\nclass = Sunscreen", fillcolor="#399de5"] ;
20 -> 21 ;
22 [label="gini = 0.0\nsamples = 3\nvalue = [0, 4, 0, 0]\nclass = Nitrate", fillcolor="#47e539"] ;
20 -> 22 ;
23 [label="z90 <= -41.648\ngini = 0.098\nsamples = 90\nvalue = [130, 2, 0, 5]\nclass = Polystyrene", fillcolor="#e68844"] ;
15 -> 23 ;
24 [label="z320 <= -49.568\ngini = 0.351\nsamples = 13\nvalue = [17, 0, 0, 5]\nclass = Polystyrene", fillcolor="#eda673"] ;
23 -> 24 ;
25 [label="gini = 0.0\nsamples = 10\nvalue = [17, 0, 0, 0]\nclass = Polystyrene", fillcolor="#e58139"] ;
24 -> 25 ;
26 [label="gini = 0.0\nsamples = 3\nvalue = [0, 0, 0, 5]\nclass = Plain", fillcolor="#d739e5"] ;
24 -> 26 ;
27 [label="z385 <= 4518.717\ngini = 0.034\nsamples = 77\nvalue = [113, 2, 0, 0]\nclass = Polystyrene", fillcolor="#e5833d"] ;
23 -> 27 ;
28 [label="z381 <= 4536.833\ngini = 0.32\nsamples = 8\nvalue = [8, 2, 0, 0]\nclass = Polystyrene", fillcolor="#eca06a"] ;
27 -> 28 ;
29 [label="gini = 0.0\nsamples = 6\nvalue = [8, 0, 0, 0]\nclass = Polystyrene", fillcolor="#e58139"] ;
28 -> 29 ;
30 [label="gini = 0.0\nsamples = 2\nvalue = [0, 2, 0, 0]\nclass = Nitrate", fillcolor="#47e539"] ;
28 -> 30 ;
31 [label="gini = 0.0\nsamples = 69\nvalue = [105, 0, 0, 0]\nclass = Polystyrene", fillcolor="#e58139"] ;
27 -> 31 ;
32 [label="z302 <= -42.56\ngini = 0.471\nsamples = 11\nvalue = [1, 2, 12, 2]\nclass = Sunscreen", fillcolor="#7bbeee"] ;
14 -> 32 ;
33 [label="gini = 0.0\nsamples = 2\nvalue = [0, 0, 0, 2]\nclass = Plain", fillcolor="#d739e5"] ;
32 -> 33 ;
34 [label="z103 <= 12501.613\ngini = 0.338\nsamples = 9\nvalue = [1, 2, 12, 0]\nclass = Sunscreen", fillcolor="#67b4eb"] ;
32 -> 34 ;
35 [label="Φ266 <= -36.389\ngini = 0.255\nsamples = 8\nvalue = [1, 1, 12, 0]\nclass = Sunscreen", fillcolor="#57ace9"] ;
34 -> 35 ;
36 [label="gini = 0.0\nsamples = 1\nvalue = [1, 0, 0, 0]\nclass = Polystyrene", fillcolor="#e58139"] ;
35 -> 36 ;
37 [label="z335 <= 11177.054\ngini = 0.142\nsamples = 7\nvalue = [0, 1, 12, 0]\nclass = Sunscreen", fillcolor="#49a5e7"] ;
35 -> 37 ;
38 [label="gini = 0.0\nsamples = 6\nvalue = [0, 0, 12, 0]\nclass = Sunscreen", fillcolor="#399de5"] ;
37 -> 38 ;
39 [label="gini = 0.0\nsamples = 1\nvalue = [0, 1, 0, 0]\nclass = Nitrate", fillcolor="#47e539"] ;
37 -> 39 ;
40 [label="gini = 0.0\nsamples = 1\nvalue = [0, 1, 0, 0]\nclass = Nitrate", fillcolor="#47e539"] ;
34 -> 40 ;
}