digraph Tree {
node [shape=box, style="filled, rounded", color="black", fontname="helvetica"] ;
edge [fontname="helvetica"] ;
0 [label="z181 <= 4964.516\ngini = 0.661\nsamples = 203\nvalue = [135, 99, 87, 3]\nclass = Polystyrene", fillcolor="#fbebdf"] ;
1 [label="Φ24 <= -34.92\ngini = 0.5\nsamples = 98\nvalue = [0, 74, 78, 0]\nclass = Sunscreen", fillcolor="#f5fafe"] ;
0 -> 1 [labeldistance=2.5, labelangle=45, headlabel="True"] ;
2 [label="z431 <= 4099.285\ngini = 0.083\nsamples = 30\nvalue = [0, 44, 2, 0]\nclass = Nitrate", fillcolor="#4fe642"] ;
1 -> 2 ;
3 [label="gini = 0.0\nsamples = 25\nvalue = [0, 40, 0, 0]\nclass = Nitrate", fillcolor="#47e539"] ;
2 -> 3 ;
4 [label="Φ280 <= -37.93\ngini = 0.444\nsamples = 5\nvalue = [0, 4, 2, 0]\nclass = Nitrate", fillcolor="#a3f29c"] ;
2 -> 4 ;
5 [label="gini = 0.0\nsamples = 4\nvalue = [0, 4, 0, 0]\nclass = Nitrate", fillcolor="#47e539"] ;
4 -> 5 ;
6 [label="gini = 0.0\nsamples = 1\nvalue = [0, 0, 2, 0]\nclass = Sunscreen", fillcolor="#399de5"] ;
4 -> 6 ;
7 [label="Φ409 <= 712.972\ngini = 0.406\nsamples = 68\nvalue = [0, 30, 76, 0]\nclass = Sunscreen", fillcolor="#87c4ef"] ;
1 -> 7 ;
8 [label="gini = 0.0\nsamples = 7\nvalue = [0, 9, 0, 0]\nclass = Nitrate", fillcolor="#47e539"] ;
7 -> 8 ;
9 [label="Φ40 <= -34.029\ngini = 0.339\nsamples = 61\nvalue = [0, 21, 76, 0]\nclass = Sunscreen", fillcolor="#70b8ec"] ;
7 -> 9 ;
10 [label="z323 <= 4296.71\ngini = 0.045\nsamples = 25\nvalue = [0, 1, 42, 0]\nclass = Sunscreen", fillcolor="#3e9fe6"] ;
9 -> 10 ;
11 [label="gini = 0.0\nsamples = 1\nvalue = [0, 1, 0, 0]\nclass = Nitrate", fillcolor="#47e539"] ;
10 -> 11 ;
12 [label="gini = 0.0\nsamples = 24\nvalue = [0, 0, 42, 0]\nclass = Sunscreen", fillcolor="#399de5"] ;
10 -> 12 ;
13 [label="Φ85 <= 3828.127\ngini = 0.466\nsamples = 36\nvalue = [0, 20, 34, 0]\nclass = Sunscreen", fillcolor="#add7f4"] ;
9 -> 13 ;
14 [label="Φ266 <= -7.151\ngini = 0.149\nsamples = 25\nvalue = [0, 3, 34, 0]\nclass = Sunscreen", fillcolor="#4aa6e7"] ;
13 -> 14 ;
15 [label="gini = 0.0\nsamples = 3\nvalue = [0, 3, 0, 0]\nclass = Nitrate", fillcolor="#47e539"] ;
14 -> 15 ;
16 [label="gini = 0.0\nsamples = 22\nvalue = [0, 0, 34, 0]\nclass = Sunscreen", fillcolor="#399de5"] ;
14 -> 16 ;
17 [label="gini = 0.0\nsamples = 11\nvalue = [0, 17, 0, 0]\nclass = Nitrate", fillcolor="#47e539"] ;
13 -> 17 ;
18 [label="Φ432 <= -39.221\ngini = 0.36\nsamples = 105\nvalue = [135, 25, 9, 3]\nclass = Polystyrene", fillcolor="#eca16b"] ;
0 -> 18 [labeldistance=2.5, labelangle=-45, headlabel="False"] ;
19 [label="Φ134 <= -20.552\ngini = 0.506\nsamples = 15\nvalue = [6, 17, 3, 0]\nclass = Nitrate", fillcolor="#9af192"] ;
18 -> 19 ;
20 [label="z105 <= 5220.911\ngini = 0.322\nsamples = 12\nvalue = [1, 17, 3, 0]\nclass = Nitrate", fillcolor="#70eb65"] ;
19 -> 20 ;
21 [label="gini = 0.0\nsamples = 2\nvalue = [0, 0, 2, 0]\nclass = Sunscreen", fillcolor="#399de5"] ;
20 -> 21 ;
22 [label="Φ64 <= -42.944\ngini = 0.194\nsamples = 10\nvalue = [1, 17, 1, 0]\nclass = Nitrate", fillcolor="#5be84f"] ;
20 -> 22 ;
23 [label="gini = 0.0\nsamples = 1\nvalue = [1, 0, 0, 0]\nclass = Polystyrene", fillcolor="#e58139"] ;
22 -> 23 ;
24 [label="Φ294 <= -38.091\ngini = 0.105\nsamples = 9\nvalue = [0, 17, 1, 0]\nclass = Nitrate", fillcolor="#52e745"] ;
22 -> 24 ;
25 [label="z187 <= 17780.051\ngini = 0.278\nsamples = 4\nvalue = [0, 5, 1, 0]\nclass = Nitrate", fillcolor="#6cea61"] ;
24 -> 25 ;
26 [label="gini = 0.0\nsamples = 1\nvalue = [0, 0, 1, 0]\nclass = Sunscreen", fillcolor="#399de5"] ;
25 -> 26 ;
27 [label="gini = 0.0\nsamples = 3\nvalue = [0, 5, 0, 0]\nclass = Nitrate", fillcolor="#47e539"] ;
25 -> 27 ;
28 [label="gini = 0.0\nsamples = 5\nvalue = [0, 12, 0, 0]\nclass = Nitrate", fillcolor="#47e539"] ;
24 -> 28 ;
29 [label="gini = 0.0\nsamples = 3\nvalue = [5, 0, 0, 0]\nclass = Polystyrene", fillcolor="#e58139"] ;
19 -> 29 ;
30 [label="z96 <= -34.458\ngini = 0.214\nsamples = 90\nvalue = [129, 8, 6, 3]\nclass = Polystyrene", fillcolor="#e89151"] ;
18 -> 30 ;
31 [label="z480 <= -44.099\ngini = 0.044\nsamples = 81\nvalue = [129, 0, 0, 3]\nclass = Polystyrene", fillcolor="#e6843e"] ;
30 -> 31 ;
32 [label="gini = 0.0\nsamples = 77\nvalue = [127, 0, 0, 0]\nclass = Polystyrene", fillcolor="#e58139"] ;
31 -> 32 ;
33 [label="Φ109 <= 8330.879\ngini = 0.48\nsamples = 4\nvalue = [2, 0, 0, 3]\nclass = Plain", fillcolor="#f2bdf6"] ;
31 -> 33 ;
34 [label="gini = 0.0\nsamples = 3\nvalue = [0, 0, 0, 3]\nclass = Plain", fillcolor="#d739e5"] ;
33 -> 34 ;
35 [label="gini = 0.0\nsamples = 1\nvalue = [2, 0, 0, 0]\nclass = Polystyrene", fillcolor="#e58139"] ;
33 -> 35 ;
36 [label="z503 <= 10389.007\ngini = 0.49\nsamples = 9\nvalue = [0, 8, 6, 0]\nclass = Nitrate", fillcolor="#d1f8ce"] ;
30 -> 36 ;
37 [label="gini = 0.0\nsamples = 5\nvalue = [0, 0, 6, 0]\nclass = Sunscreen", fillcolor="#399de5"] ;
36 -> 37 ;
38 [label="gini = 0.0\nsamples = 4\nvalue = [0, 8, 0, 0]\nclass = Nitrate", fillcolor="#47e539"] ;
36 -> 38 ;
}