digraph Tree {
node [shape=box, style="filled, rounded", color="black", fontname="helvetica"] ;
edge [fontname="helvetica"] ;
0 [label="z383 <= 4477.191\ngini = 0.678\nsamples = 207\nvalue = [134, 96, 80, 14]\nclass = Polystyrene", fillcolor="#fbeade"] ;
1 [label="z309 <= 685.914\ngini = 0.497\nsamples = 89\nvalue = [0, 78, 67, 0]\nclass = Nitrate", fillcolor="#e5fbe3"] ;
0 -> 1 [labeldistance=2.5, labelangle=45, headlabel="True"] ;
2 [label="gini = 0.0\nsamples = 26\nvalue = [0, 46, 0, 0]\nclass = Nitrate", fillcolor="#47e539"] ;
1 -> 2 ;
3 [label="Φ86 <= -35.49\ngini = 0.438\nsamples = 63\nvalue = [0, 32, 67, 0]\nclass = Sunscreen", fillcolor="#98ccf1"] ;
1 -> 3 ;
4 [label="gini = 0.0\nsamples = 9\nvalue = [0, 15, 0, 0]\nclass = Nitrate", fillcolor="#47e539"] ;
3 -> 4 ;
5 [label="Φ14 <= -7.904\ngini = 0.323\nsamples = 54\nvalue = [0, 17, 67, 0]\nclass = Sunscreen", fillcolor="#6bb6ec"] ;
3 -> 5 ;
6 [label="Φ298 <= -6.985\ngini = 0.258\nsamples = 52\nvalue = [0, 12, 67, 0]\nclass = Sunscreen", fillcolor="#5cafea"] ;
5 -> 6 ;
7 [label="Φ66 <= -34.526\ngini = 0.408\nsamples = 28\nvalue = [0, 12, 30, 0]\nclass = Sunscreen", fillcolor="#88c4ef"] ;
6 -> 7 ;
8 [label="Φ81 <= 8158.452\ngini = 0.064\nsamples = 19\nvalue = [0, 1, 29, 0]\nclass = Sunscreen", fillcolor="#40a0e6"] ;
7 -> 8 ;
9 [label="gini = 0.0\nsamples = 1\nvalue = [0, 1, 0, 0]\nclass = Nitrate", fillcolor="#47e539"] ;
8 -> 9 ;
10 [label="gini = 0.0\nsamples = 18\nvalue = [0, 0, 29, 0]\nclass = Sunscreen", fillcolor="#399de5"] ;
8 -> 10 ;
11 [label="z143 <= 4996.49\ngini = 0.153\nsamples = 9\nvalue = [0, 11, 1, 0]\nclass = Nitrate", fillcolor="#58e74b"] ;
7 -> 11 ;
12 [label="gini = 0.0\nsamples = 8\nvalue = [0, 11, 0, 0]\nclass = Nitrate", fillcolor="#47e539"] ;
11 -> 12 ;
13 [label="gini = 0.0\nsamples = 1\nvalue = [0, 0, 1, 0]\nclass = Sunscreen", fillcolor="#399de5"] ;
11 -> 13 ;
14 [label="gini = 0.0\nsamples = 24\nvalue = [0, 0, 37, 0]\nclass = Sunscreen", fillcolor="#399de5"] ;
6 -> 14 ;
15 [label="gini = 0.0\nsamples = 2\nvalue = [0, 5, 0, 0]\nclass = Nitrate", fillcolor="#47e539"] ;
5 -> 15 ;
16 [label="z98 <= -48.126\ngini = 0.418\nsamples = 118\nvalue = [134, 18, 13, 14]\nclass = Polystyrene", fillcolor="#eca470"] ;
0 -> 16 [labeldistance=2.5, labelangle=-45, headlabel="False"] ;
17 [label="Φ499 <= 20941.575\ngini = 0.581\nsamples = 13\nvalue = [0, 9, 6, 2]\nclass = Nitrate", fillcolor="#cdf8c9"] ;
16 -> 17 ;
18 [label="z475 <= 11733.764\ngini = 0.375\nsamples = 6\nvalue = [0, 0, 6, 2]\nclass = Sunscreen", fillcolor="#7bbeee"] ;
17 -> 18 ;
19 [label="gini = 0.0\nsamples = 1\nvalue = [0, 0, 0, 2]\nclass = Plain", fillcolor="#d739e5"] ;
18 -> 19 ;
20 [label="gini = 0.0\nsamples = 5\nvalue = [0, 0, 6, 0]\nclass = Sunscreen", fillcolor="#399de5"] ;
18 -> 20 ;
21 [label="gini = 0.0\nsamples = 7\nvalue = [0, 9, 0, 0]\nclass = Nitrate", fillcolor="#47e539"] ;
17 -> 21 ;
22 [label="z372 <= -43.237\ngini = 0.305\nsamples = 105\nvalue = [134, 9, 7, 12]\nclass = Polystyrene", fillcolor="#ea995e"] ;
16 -> 22 ;
23 [label="z495 <= 4326.157\ngini = 0.146\nsamples = 91\nvalue = [131, 7, 0, 4]\nclass = Polystyrene", fillcolor="#e78b49"] ;
22 -> 23 ;
24 [label="Φ76 <= -34.77\ngini = 0.455\nsamples = 14\nvalue = [13, 7, 0, 0]\nclass = Polystyrene", fillcolor="#f3c5a4"] ;
23 -> 24 ;
25 [label="gini = 0.0\nsamples = 9\nvalue = [13, 0, 0, 0]\nclass = Polystyrene", fillcolor="#e58139"] ;
24 -> 25 ;
26 [label="gini = 0.0\nsamples = 5\nvalue = [0, 7, 0, 0]\nclass = Nitrate", fillcolor="#47e539"] ;
24 -> 26 ;
27 [label="z46 <= -178.414\ngini = 0.063\nsamples = 77\nvalue = [118, 0, 0, 4]\nclass = Polystyrene", fillcolor="#e68540"] ;
23 -> 27 ;
28 [label="z49 <= 15530.546\ngini = 0.444\nsamples = 2\nvalue = [1, 0, 0, 2]\nclass = Plain", fillcolor="#eb9cf2"] ;
27 -> 28 ;
29 [label="gini = 0.0\nsamples = 1\nvalue = [0, 0, 0, 2]\nclass = Plain", fillcolor="#d739e5"] ;
28 -> 29 ;
30 [label="gini = 0.0\nsamples = 1\nvalue = [1, 0, 0, 0]\nclass = Polystyrene", fillcolor="#e58139"] ;
28 -> 30 ;
31 [label="z68 <= -178.996\ngini = 0.033\nsamples = 75\nvalue = [117, 0, 0, 2]\nclass = Polystyrene", fillcolor="#e5833c"] ;
27 -> 31 ;
32 [label="z205 <= 14004.476\ngini = 0.5\nsamples = 3\nvalue = [2, 0, 0, 2]\nclass = Polystyrene", fillcolor="#ffffff"] ;
31 -> 32 ;
33 [label="gini = 0.0\nsamples = 1\nvalue = [0, 0, 0, 2]\nclass = Plain", fillcolor="#d739e5"] ;
32 -> 33 ;
34 [label="gini = 0.0\nsamples = 2\nvalue = [2, 0, 0, 0]\nclass = Polystyrene", fillcolor="#e58139"] ;
32 -> 34 ;
35 [label="gini = 0.0\nsamples = 72\nvalue = [115, 0, 0, 0]\nclass = Polystyrene", fillcolor="#e58139"] ;
31 -> 35 ;
36 [label="z487 <= 4656.662\ngini = 0.685\nsamples = 14\nvalue = [3, 2, 7, 8]\nclass = Plain", fillcolor="#fcf0fd"] ;
22 -> 36 ;
37 [label="z254 <= -41.502\ngini = 0.397\nsamples = 7\nvalue = [3, 0, 0, 8]\nclass = Plain", fillcolor="#e683ef"] ;
36 -> 37 ;
38 [label="z294 <= -42.45\ngini = 0.198\nsamples = 6\nvalue = [1, 0, 0, 8]\nclass = Plain", fillcolor="#dc52e8"] ;
37 -> 38 ;
39 [label="gini = 0.0\nsamples = 1\nvalue = [1, 0, 0, 0]\nclass = Polystyrene", fillcolor="#e58139"] ;
38 -> 39 ;
40 [label="gini = 0.0\nsamples = 5\nvalue = [0, 0, 0, 8]\nclass = Plain", fillcolor="#d739e5"] ;
38 -> 40 ;
41 [label="gini = 0.0\nsamples = 1\nvalue = [2, 0, 0, 0]\nclass = Polystyrene", fillcolor="#e58139"] ;
37 -> 41 ;
42 [label="z371 <= 11067.3\ngini = 0.346\nsamples = 7\nvalue = [0, 2, 7, 0]\nclass = Sunscreen", fillcolor="#72b9ec"] ;
36 -> 42 ;
43 [label="gini = 0.0\nsamples = 5\nvalue = [0, 0, 7, 0]\nclass = Sunscreen", fillcolor="#399de5"] ;
42 -> 43 ;
44 [label="gini = 0.0\nsamples = 2\nvalue = [0, 2, 0, 0]\nclass = Nitrate", fillcolor="#47e539"] ;
42 -> 44 ;
}